=== Run information ===

Scheme:       weka.classifiers.trees.J48 -C 0.2 -M 2
Relation:     database_mode-weka.filters.unsupervised.attribute.Remove-R1,16,22,24-28
Instances:    50000
Attributes:   21
              startHour
              startWeekday
              duration
              cCount
              cMinPrice
              cMaxPrice
              cSumPrice
              bCount
              bMinPrice
              bMaxPrice
              bSumPrice
              bStep
              onlineStatus
              availability
              maxVal
              customerScore
              accountLifetime
              payments
              age
              lastOrder
              order
Test mode:    user supplied test set:  size unknown (reading incrementally)

=== Classifier model (full training set) ===

J48 pruned tree
------------------

bStep <= 4
|   cCount <= 150
|   |   bCount <= 3: n (11146.0/105.0)
|   |   bCount > 3
|   |   |   payments <= 27: n (2639.0/136.0)
|   |   |   payments > 27
|   |   |   |   onlineStatus = y
|   |   |   |   |   bCount <= 6
|   |   |   |   |   |   bStep <= 3
|   |   |   |   |   |   |   bStep <= 2
|   |   |   |   |   |   |   |   startHour <= 15
|   |   |   |   |   |   |   |   |   lastOrder <= 5: y (5.0/2.0)
|   |   |   |   |   |   |   |   |   lastOrder > 5
|   |   |   |   |   |   |   |   |   |   cSumPrice <= 273.63
|   |   |   |   |   |   |   |   |   |   |   maxVal <= 2200: y (4.0)
|   |   |   |   |   |   |   |   |   |   |   maxVal > 2200
|   |   |   |   |   |   |   |   |   |   |   |   payments <= 66: n (4.0)
|   |   |   |   |   |   |   |   |   |   |   |   payments > 66: y (2.0)
|   |   |   |   |   |   |   |   |   |   cSumPrice > 273.63: n (23.0/1.0)
|   |   |   |   |   |   |   |   startHour > 15: n (14.0)
|   |   |   |   |   |   |   bStep > 2: n (14.0)
|   |   |   |   |   |   bStep > 3
|   |   |   |   |   |   |   bCount <= 5
|   |   |   |   |   |   |   |   cCount <= 23
|   |   |   |   |   |   |   |   |   bMaxPrice <= 16.49: n (2.0)
|   |   |   |   |   |   |   |   |   bMaxPrice > 16.49: y (7.0)
|   |   |   |   |   |   |   |   cCount > 23: n (4.0)
|   |   |   |   |   |   |   bCount > 5: n (4.0)
|   |   |   |   |   bCount > 6
|   |   |   |   |   |   payments <= 50
|   |   |   |   |   |   |   lastOrder <= 10
|   |   |   |   |   |   |   |   duration <= 3233.871: y (4.0)
|   |   |   |   |   |   |   |   duration > 3233.871: n (4.0/1.0)
|   |   |   |   |   |   |   lastOrder > 10: n (14.0/1.0)
|   |   |   |   |   |   payments > 50
|   |   |   |   |   |   |   cCount <= 74
|   |   |   |   |   |   |   |   maxVal <= 10000: y (18.0)
|   |   |   |   |   |   |   |   maxVal > 10000
|   |   |   |   |   |   |   |   |   cMinPrice <= 7.49: n (2.0)
|   |   |   |   |   |   |   |   |   cMinPrice > 7.49: y (4.0/1.0)
|   |   |   |   |   |   |   cCount > 74: n (3.0)
|   |   |   |   onlineStatus = n: n (5.0)
|   cCount > 150
|   |   accountLifetime <= 7
|   |   |   cCount <= 198: n (40.0/2.0)
|   |   |   cCount > 198
|   |   |   |   cMinPrice <= 3.49: y (3.0)
|   |   |   |   cMinPrice > 3.49: n (2.0)
|   |   accountLifetime > 7
|   |   |   onlineStatus = y
|   |   |   |   bSumPrice <= 49.55: n (8.13/0.13)
|   |   |   |   bSumPrice > 49.55: y (56.88/23.0)
|   |   |   onlineStatus = n: n (2.0)
bStep > 4
|   duration <= 107.098
|   |   accountLifetime <= 5
|   |   |   age <= 50
|   |   |   |   duration <= 44.317: n (55.0/4.0)
|   |   |   |   duration > 44.317
|   |   |   |   |   cCount <= 3
|   |   |   |   |   |   duration <= 59.492
|   |   |   |   |   |   |   duration <= 50.942: y (6.0)
|   |   |   |   |   |   |   duration > 50.942: n (8.0/1.0)
|   |   |   |   |   |   duration > 59.492: y (23.0/1.0)
|   |   |   |   |   cCount > 3
|   |   |   |   |   |   startWeekday <= 6: n (16.0)
|   |   |   |   |   |   startWeekday > 6: y (3.0/1.0)
|   |   |   age > 50
|   |   |   |   bCount <= 0
|   |   |   |   |   startHour <= 7
|   |   |   |   |   |   startHour <= 5: n (2.0)
|   |   |   |   |   |   startHour > 5: y (7.0)
|   |   |   |   |   startHour > 7
|   |   |   |   |   |   duration <= 16.284: n (11.0)
|   |   |   |   |   |   duration > 16.284
|   |   |   |   |   |   |   duration <= 26.997: y (3.0)
|   |   |   |   |   |   |   duration > 26.997: n (12.0/3.0)
|   |   |   |   bCount > 0: n (4297.0/63.0)
|   |   accountLifetime > 5
|   |   |   duration <= 46.503
|   |   |   |   duration <= 21.063: n (445.0/15.0)
|   |   |   |   duration > 21.063
|   |   |   |   |   cCount <= 1: y (16.0)
|   |   |   |   |   cCount > 1
|   |   |   |   |   |   cCount <= 4
|   |   |   |   |   |   |   bCount <= 1
|   |   |   |   |   |   |   |   cCount <= 3
|   |   |   |   |   |   |   |   |   maxVal <= 4000
|   |   |   |   |   |   |   |   |   |   cMaxPrice <= 17.49: n (50.0/3.0)
|   |   |   |   |   |   |   |   |   |   cMaxPrice > 17.49
|   |   |   |   |   |   |   |   |   |   |   lastOrder <= 6
|   |   |   |   |   |   |   |   |   |   |   |   startHour <= 18: y (6.0)
|   |   |   |   |   |   |   |   |   |   |   |   startHour > 18: n (2.0)
|   |   |   |   |   |   |   |   |   |   |   lastOrder > 6
|   |   |   |   |   |   |   |   |   |   |   |   startWeekday <= 6
|   |   |   |   |   |   |   |   |   |   |   |   |   startWeekday <= 5
|   |   |   |   |   |   |   |   |   |   |   |   |   |   duration <= 35.317
|   |   |   |   |   |   |   |   |   |   |   |   |   |   |   payments <= 1: y (4.0)
|   |   |   |   |   |   |   |   |   |   |   |   |   |   |   payments > 1
|   |   |   |   |   |   |   |   |   |   |   |   |   |   |   |   duration <= 22.023: y (2.0)
|   |   |   |   |   |   |   |   |   |   |   |   |   |   |   |   duration > 22.023
|   |   |   |   |   |   |   |   |   |   |   |   |   |   |   |   |   duration <= 30.833: n (12.0)
|   |   |   |   |   |   |   |   |   |   |   |   |   |   |   |   |   duration > 30.833: y (2.0)
|   |   |   |   |   |   |   |   |   |   |   |   |   |   duration > 35.317: n (10.0)
|   |   |   |   |   |   |   |   |   |   |   |   |   startWeekday > 5
|   |   |   |   |   |   |   |   |   |   |   |   |   |   duration <= 37.54: n (15.0)
|   |   |   |   |   |   |   |   |   |   |   |   |   |   duration > 37.54
|   |   |   |   |   |   |   |   |   |   |   |   |   |   |   lastOrder <= 86
|   |   |   |   |   |   |   |   |   |   |   |   |   |   |   |   payments <= 20: y (5.0)
|   |   |   |   |   |   |   |   |   |   |   |   |   |   |   |   payments > 20: n (3.0/1.0)
|   |   |   |   |   |   |   |   |   |   |   |   |   |   |   lastOrder > 86: n (5.0)
|   |   |   |   |   |   |   |   |   |   |   |   startWeekday > 6: n (22.0/1.0)
|   |   |   |   |   |   |   |   |   maxVal > 4000: n (19.0)
|   |   |   |   |   |   |   |   cCount > 3: n (34.0)
|   |   |   |   |   |   |   bCount > 1
|   |   |   |   |   |   |   |   startWeekday <= 5
|   |   |   |   |   |   |   |   |   maxVal <= 3500: n (9.0)
|   |   |   |   |   |   |   |   |   maxVal > 3500: y (3.0/1.0)
|   |   |   |   |   |   |   |   startWeekday > 5
|   |   |   |   |   |   |   |   |   age <= 56
|   |   |   |   |   |   |   |   |   |   startHour <= 9: y (3.0)
|   |   |   |   |   |   |   |   |   |   startHour > 9
|   |   |   |   |   |   |   |   |   |   |   age <= 41
|   |   |   |   |   |   |   |   |   |   |   |   bCount <= 3
|   |   |   |   |   |   |   |   |   |   |   |   |   age <= 40: n (3.0)
|   |   |   |   |   |   |   |   |   |   |   |   |   age > 40: y (3.0/1.0)
|   |   |   |   |   |   |   |   |   |   |   |   bCount > 3: y (2.0)
|   |   |   |   |   |   |   |   |   |   |   age > 41: n (8.0)
|   |   |   |   |   |   |   |   |   age > 56: y (5.0)
|   |   |   |   |   |   cCount > 4: n (42.0)
|   |   |   duration > 46.503
|   |   |   |   cCount <= 2
|   |   |   |   |   bSumPrice <= 10.45
|   |   |   |   |   |   cCount <= 1: y (5.22/0.11)
|   |   |   |   |   |   cCount > 1
|   |   |   |   |   |   |   customerScore <= 541
|   |   |   |   |   |   |   |   cSumPrice <= 8.97: n (3.11)
|   |   |   |   |   |   |   |   cSumPrice > 8.97: y (5.0/1.0)
|   |   |   |   |   |   |   customerScore > 541: n (13.0)
|   |   |   |   |   bSumPrice > 10.45
|   |   |   |   |   |   lastOrder <= 124: y (180.89/20.89)
|   |   |   |   |   |   lastOrder > 124
|   |   |   |   |   |   |   accountLifetime <= 22: n (6.89)
|   |   |   |   |   |   |   accountLifetime > 22
|   |   |   |   |   |   |   |   startWeekday <= 5: y (10.89/1.0)
|   |   |   |   |   |   |   |   startWeekday > 5
|   |   |   |   |   |   |   |   |   accountLifetime <= 64: y (7.0/1.0)
|   |   |   |   |   |   |   |   |   accountLifetime > 64: n (8.0/1.0)
|   |   |   |   cCount > 2
|   |   |   |   |   bCount <= 2
|   |   |   |   |   |   cCount <= 3
|   |   |   |   |   |   |   duration <= 76.534
|   |   |   |   |   |   |   |   lastOrder <= 10
|   |   |   |   |   |   |   |   |   cMinPrice <= 11.49: n (3.0)
|   |   |   |   |   |   |   |   |   cMinPrice > 11.49: y (12.0/3.0)
|   |   |   |   |   |   |   |   lastOrder > 10: n (52.0/7.0)
|   |   |   |   |   |   |   duration > 76.534
|   |   |   |   |   |   |   |   lastOrder <= 6: y (10.0)
|   |   |   |   |   |   |   |   lastOrder > 6
|   |   |   |   |   |   |   |   |   startWeekday <= 6
|   |   |   |   |   |   |   |   |   |   duration <= 99.658
|   |   |   |   |   |   |   |   |   |   |   startWeekday <= 5
|   |   |   |   |   |   |   |   |   |   |   |   cSumPrice <= 52.47: n (4.0)
|   |   |   |   |   |   |   |   |   |   |   |   cSumPrice > 52.47
|   |   |   |   |   |   |   |   |   |   |   |   |   startHour <= 15
|   |   |   |   |   |   |   |   |   |   |   |   |   |   customerScore <= 494: y (2.0)
|   |   |   |   |   |   |   |   |   |   |   |   |   |   customerScore > 494: n (3.0)
|   |   |   |   |   |   |   |   |   |   |   |   |   startHour > 15: y (5.0)
|   |   |   |   |   |   |   |   |   |   |   startWeekday > 5
|   |   |   |   |   |   |   |   |   |   |   |   lastOrder <= 22: y (6.0)
|   |   |   |   |   |   |   |   |   |   |   |   lastOrder > 22
|   |   |   |   |   |   |   |   |   |   |   |   |   cMinPrice <= 84.99: n (5.0)
|   |   |   |   |   |   |   |   |   |   |   |   |   cMinPrice > 84.99: y (2.0)
|   |   |   |   |   |   |   |   |   |   duration > 99.658: y (9.0)
|   |   |   |   |   |   |   |   |   startWeekday > 6
|   |   |   |   |   |   |   |   |   |   accountLifetime <= 77
|   |   |   |   |   |   |   |   |   |   |   customerScore <= 551: y (3.0)
|   |   |   |   |   |   |   |   |   |   |   customerScore > 551: n (2.0)
|   |   |   |   |   |   |   |   |   |   accountLifetime > 77: n (7.0)
|   |   |   |   |   |   cCount > 3
|   |   |   |   |   |   |   bCount <= 1: n (160.0/14.0)
|   |   |   |   |   |   |   bCount > 1
|   |   |   |   |   |   |   |   payments <= 75: n (83.0/21.0)
|   |   |   |   |   |   |   |   payments > 75: y (5.0)
|   |   |   |   |   bCount > 2
|   |   |   |   |   |   age <= 30
|   |   |   |   |   |   |   maxVal <= 3500: n (7.0)
|   |   |   |   |   |   |   maxVal > 3500: y (3.0/1.0)
|   |   |   |   |   |   age > 30
|   |   |   |   |   |   |   cMinPrice <= 27
|   |   |   |   |   |   |   |   cCount <= 6: y (75.0/3.0)
|   |   |   |   |   |   |   |   cCount > 6
|   |   |   |   |   |   |   |   |   bCount <= 5: n (8.0/1.0)
|   |   |   |   |   |   |   |   |   bCount > 5: y (21.0/3.0)
|   |   |   |   |   |   |   cMinPrice > 27
|   |   |   |   |   |   |   |   startWeekday <= 5: y (2.0)
|   |   |   |   |   |   |   |   startWeekday > 5: n (4.0)
|   duration > 107.098
|   |   accountLifetime <= 5
|   |   |   duration <= 289.622
|   |   |   |   cCount <= 3
|   |   |   |   |   bCount <= 1
|   |   |   |   |   |   payments <= 0
|   |   |   |   |   |   |   duration <= 136.445
|   |   |   |   |   |   |   |   cSumPrice <= 56.97: n (83.78/6.16)
|   |   |   |   |   |   |   |   cSumPrice > 56.97
|   |   |   |   |   |   |   |   |   cCount <= 2
|   |   |   |   |   |   |   |   |   |   startHour <= 19: y (26.22/9.38)
|   |   |   |   |   |   |   |   |   |   startHour > 19: n (4.0)
|   |   |   |   |   |   |   |   |   cCount > 2: n (41.0/10.0)
|   |   |   |   |   |   |   duration > 136.445
|   |   |   |   |   |   |   |   cMinPrice <= 14.99
|   |   |   |   |   |   |   |   |   bMinPrice <= 7.49: n (18.28/1.98)
|   |   |   |   |   |   |   |   |   bMinPrice > 7.49
|   |   |   |   |   |   |   |   |   |   cCount <= 2
|   |   |   |   |   |   |   |   |   |   |   startHour <= 15: y (10.86/2.37)
|   |   |   |   |   |   |   |   |   |   |   startHour > 15: n (6.93/2.65)
|   |   |   |   |   |   |   |   |   |   cCount > 2: n (22.0/5.0)
|   |   |   |   |   |   |   |   cMinPrice > 14.99
|   |   |   |   |   |   |   |   |   duration <= 228.755
|   |   |   |   |   |   |   |   |   |   cSumPrice <= 42.98: y (16.24/1.24)
|   |   |   |   |   |   |   |   |   |   cSumPrice > 42.98
|   |   |   |   |   |   |   |   |   |   |   cSumPrice <= 50.4
|   |   |   |   |   |   |   |   |   |   |   |   cCount <= 1: n (29.82/3.28)
|   |   |   |   |   |   |   |   |   |   |   |   cCount > 1
|   |   |   |   |   |   |   |   |   |   |   |   |   duration <= 187.023: y (4.0)
|   |   |   |   |   |   |   |   |   |   |   |   |   duration > 187.023: n (3.0)
|   |   |   |   |   |   |   |   |   |   |   cSumPrice > 50.4
|   |   |   |   |   |   |   |   |   |   |   |   cCount <= 2: y (106.08/36.68)
|   |   |   |   |   |   |   |   |   |   |   |   cCount > 2: n (78.0/33.0)
|   |   |   |   |   |   |   |   |   duration > 228.755: y (131.78/32.59)
|   |   |   |   |   |   payments > 0: y (36.0/5.0)
|   |   |   |   |   bCount > 1
|   |   |   |   |   |   cMinPrice <= 23.99: y (40.0/2.0)
|   |   |   |   |   |   cMinPrice > 23.99
|   |   |   |   |   |   |   bCount <= 2
|   |   |   |   |   |   |   |   startWeekday <= 5: n (3.0)
|   |   |   |   |   |   |   |   startWeekday > 5
|   |   |   |   |   |   |   |   |   cMaxPrice <= 27: n (2.0)
|   |   |   |   |   |   |   |   |   cMaxPrice > 27: y (8.0/1.0)
|   |   |   |   |   |   |   bCount > 2: y (5.0/1.0)
|   |   |   |   cCount > 3
|   |   |   |   |   bCount <= 3
|   |   |   |   |   |   payments <= 0
|   |   |   |   |   |   |   duration <= 209.768: n (611.0/41.0)
|   |   |   |   |   |   |   duration > 209.768
|   |   |   |   |   |   |   |   cCount <= 9
|   |   |   |   |   |   |   |   |   bCount <= 1
|   |   |   |   |   |   |   |   |   |   cCount <= 7
|   |   |   |   |   |   |   |   |   |   |   cMinPrice <= 12.99: n (20.0)
|   |   |   |   |   |   |   |   |   |   |   cMinPrice > 12.99
|   |   |   |   |   |   |   |   |   |   |   |   startWeekday <= 6
|   |   |   |   |   |   |   |   |   |   |   |   |   duration <= 266.511
|   |   |   |   |   |   |   |   |   |   |   |   |   |   startWeekday <= 5
|   |   |   |   |   |   |   |   |   |   |   |   |   |   |   cCount <= 4: n (14.0/1.0)
|   |   |   |   |   |   |   |   |   |   |   |   |   |   |   cCount > 4
|   |   |   |   |   |   |   |   |   |   |   |   |   |   |   |   cMaxPrice <= 389
|   |   |   |   |   |   |   |   |   |   |   |   |   |   |   |   |   cMinPrice <= 16.99: y (2.0)
|   |   |   |   |   |   |   |   |   |   |   |   |   |   |   |   |   cMinPrice > 16.99: n (16.0/3.0)
|   |   |   |   |   |   |   |   |   |   |   |   |   |   |   |   cMaxPrice > 389: y (4.0)
|   |   |   |   |   |   |   |   |   |   |   |   |   |   startWeekday > 5: n (23.0/4.0)
|   |   |   |   |   |   |   |   |   |   |   |   |   duration > 266.511
|   |   |   |   |   |   |   |   |   |   |   |   |   |   duration <= 275.771: y (7.0)
|   |   |   |   |   |   |   |   |   |   |   |   |   |   duration > 275.771
|   |   |   |   |   |   |   |   |   |   |   |   |   |   |   startWeekday <= 5
|   |   |   |   |   |   |   |   |   |   |   |   |   |   |   |   cMinPrice <= 119.96: n (7.0/2.0)
|   |   |   |   |   |   |   |   |   |   |   |   |   |   |   |   cMinPrice > 119.96: y (2.0)
|   |   |   |   |   |   |   |   |   |   |   |   |   |   |   startWeekday > 5
|   |   |   |   |   |   |   |   |   |   |   |   |   |   |   |   duration <= 281.483: y (3.0)
|   |   |   |   |   |   |   |   |   |   |   |   |   |   |   |   duration > 281.483: n (3.0)
|   |   |   |   |   |   |   |   |   |   |   |   startWeekday > 6: n (34.0/7.0)
|   |   |   |   |   |   |   |   |   |   cCount > 7: n (51.0/3.0)
|   |   |   |   |   |   |   |   |   bCount > 1
|   |   |   |   |   |   |   |   |   |   lastOrder <= 10
|   |   |   |   |   |   |   |   |   |   |   bCount <= 2
|   |   |   |   |   |   |   |   |   |   |   |   startWeekday <= 5
|   |   |   |   |   |   |   |   |   |   |   |   |   duration <= 283.056: n (17.0/5.0)
|   |   |   |   |   |   |   |   |   |   |   |   |   duration > 283.056: y (3.0)
|   |   |   |   |   |   |   |   |   |   |   |   startWeekday > 5
|   |   |   |   |   |   |   |   |   |   |   |   |   startWeekday <= 6
|   |   |   |   |   |   |   |   |   |   |   |   |   |   cCount <= 8: y (31.0/9.0)
|   |   |   |   |   |   |   |   |   |   |   |   |   |   cCount > 8: n (3.0)
|   |   |   |   |   |   |   |   |   |   |   |   |   startWeekday > 6
|   |   |   |   |   |   |   |   |   |   |   |   |   |   cCount <= 5: n (10.0/2.0)
|   |   |   |   |   |   |   |   |   |   |   |   |   |   cCount > 5
|   |   |   |   |   |   |   |   |   |   |   |   |   |   |   cMaxPrice <= 64.95
|   |   |   |   |   |   |   |   |   |   |   |   |   |   |   |   startHour <= 11: n (2.0)
|   |   |   |   |   |   |   |   |   |   |   |   |   |   |   |   startHour > 11: y (6.0/1.0)
|   |   |   |   |   |   |   |   |   |   |   |   |   |   |   cMaxPrice > 64.95: n (4.0/1.0)
|   |   |   |   |   |   |   |   |   |   |   bCount > 2
|   |   |   |   |   |   |   |   |   |   |   |   cMinPrice <= 7.49: y (5.0)
|   |   |   |   |   |   |   |   |   |   |   |   cMinPrice > 7.49
|   |   |   |   |   |   |   |   |   |   |   |   |   cMaxPrice <= 54.99: n (9.0/1.0)
|   |   |   |   |   |   |   |   |   |   |   |   |   cMaxPrice > 54.99
|   |   |   |   |   |   |   |   |   |   |   |   |   |   cMaxPrice <= 349.99: y (6.0)
|   |   |   |   |   |   |   |   |   |   |   |   |   |   cMaxPrice > 349.99: n (3.0/1.0)
|   |   |   |   |   |   |   |   |   |   lastOrder > 10: y (6.0/1.0)
|   |   |   |   |   |   |   |   cCount > 9: n (143.0/9.0)
|   |   |   |   |   |   payments > 0
|   |   |   |   |   |   |   cCount <= 10
|   |   |   |   |   |   |   |   customerScore <= 558
|   |   |   |   |   |   |   |   |   bCount <= 1
|   |   |   |   |   |   |   |   |   |   startWeekday <= 6
|   |   |   |   |   |   |   |   |   |   |   startWeekday <= 5: n (7.0/1.0)
|   |   |   |   |   |   |   |   |   |   |   startWeekday > 5
|   |   |   |   |   |   |   |   |   |   |   |   startHour <= 14: y (5.0)
|   |   |   |   |   |   |   |   |   |   |   |   startHour > 14: n (3.0)
|   |   |   |   |   |   |   |   |   |   startWeekday > 6: n (6.0)
|   |   |   |   |   |   |   |   |   bCount > 1
|   |   |   |   |   |   |   |   |   |   payments <= 1
|   |   |   |   |   |   |   |   |   |   |   customerScore <= 426: y (2.0)
|   |   |   |   |   |   |   |   |   |   |   customerScore > 426: n (5.0/1.0)
|   |   |   |   |   |   |   |   |   |   payments > 1: y (9.0/1.0)
|   |   |   |   |   |   |   |   customerScore > 558: y (13.0)
|   |   |   |   |   |   |   cCount > 10: n (10.0)
|   |   |   |   |   bCount > 3
|   |   |   |   |   |   cSumPrice <= 156.35
|   |   |   |   |   |   |   duration <= 135.811
|   |   |   |   |   |   |   |   startHour <= 12: y (3.0)
|   |   |   |   |   |   |   |   startHour > 12: n (5.0/1.0)
|   |   |   |   |   |   |   duration > 135.811: y (33.42/1.42)
|   |   |   |   |   |   cSumPrice > 156.35
|   |   |   |   |   |   |   payments <= 0
|   |   |   |   |   |   |   |   bCount <= 6
|   |   |   |   |   |   |   |   |   startWeekday <= 6: n (26.58/5.0)
|   |   |   |   |   |   |   |   |   startWeekday > 6
|   |   |   |   |   |   |   |   |   |   cSumPrice <= 381.96: n (10.0)
|   |   |   |   |   |   |   |   |   |   cSumPrice > 381.96: y (4.0)
|   |   |   |   |   |   |   |   bCount > 6
|   |   |   |   |   |   |   |   |   startWeekday <= 5: n (4.0/1.0)
|   |   |   |   |   |   |   |   |   startWeekday > 5: y (7.0)
|   |   |   |   |   |   |   payments > 0: y (6.0/1.0)
|   |   |   duration > 289.622
|   |   |   |   bSumPrice <= 27.99
|   |   |   |   |   cCount <= 7
|   |   |   |   |   |   cMaxPrice <= 28
|   |   |   |   |   |   |   bMaxPrice <= 7
|   |   |   |   |   |   |   |   lastOrder <= 63: n (41.53/14.15)
|   |   |   |   |   |   |   |   lastOrder > 63: y (3.0)
|   |   |   |   |   |   |   bMaxPrice > 7
|   |   |   |   |   |   |   |   accountLifetime <= 4
|   |   |   |   |   |   |   |   |   bSumPrice <= 11.49
|   |   |   |   |   |   |   |   |   |   cCount <= 3: y (3.05/0.05)
|   |   |   |   |   |   |   |   |   |   cCount > 3: n (2.03)
|   |   |   |   |   |   |   |   |   bSumPrice > 11.49: y (18.3/0.3)
|   |   |   |   |   |   |   |   accountLifetime > 4
|   |   |   |   |   |   |   |   |   cCount <= 3
|   |   |   |   |   |   |   |   |   |   duration <= 1195.839
|   |   |   |   |   |   |   |   |   |   |   bCount <= 1: y (120.56/15.46)
|   |   |   |   |   |   |   |   |   |   |   bCount > 1
|   |   |   |   |   |   |   |   |   |   |   |   cMaxPrice <= 15.49
|   |   |   |   |   |   |   |   |   |   |   |   |   duration <= 408.02: n (4.0/1.0)
|   |   |   |   |   |   |   |   |   |   |   |   |   duration > 408.02: y (6.0)
|   |   |   |   |   |   |   |   |   |   |   |   cMaxPrice > 15.49: n (2.0)
|   |   |   |   |   |   |   |   |   |   duration > 1195.839
|   |   |   |   |   |   |   |   |   |   |   cSumPrice <= 42.39
|   |   |   |   |   |   |   |   |   |   |   |   duration <= 1323.19: n (3.13)
|   |   |   |   |   |   |   |   |   |   |   |   duration > 1323.19: y (8.5/1.5)
|   |   |   |   |   |   |   |   |   |   |   cSumPrice > 42.39: n (6.19)
|   |   |   |   |   |   |   |   |   cCount > 3
|   |   |   |   |   |   |   |   |   |   bCount <= 1
|   |   |   |   |   |   |   |   |   |   |   startHour <= 11: n (35.27/14.0)
|   |   |   |   |   |   |   |   |   |   |   startHour > 11
|   |   |   |   |   |   |   |   |   |   |   |   duration <= 465.229
|   |   |   |   |   |   |   |   |   |   |   |   |   cSumPrice <= 49.95: y (17.0/4.0)
|   |   |   |   |   |   |   |   |   |   |   |   |   cSumPrice > 49.95
|   |   |   |   |   |   |   |   |   |   |   |   |   |   cMinPrice <= 18.99: n (17.0/1.0)
|   |   |   |   |   |   |   |   |   |   |   |   |   |   cMinPrice > 18.99
|   |   |   |   |   |   |   |   |   |   |   |   |   |   |   cMinPrice <= 22.36: y (3.0)
|   |   |   |   |   |   |   |   |   |   |   |   |   |   |   cMinPrice > 22.36
|   |   |   |   |   |   |   |   |   |   |   |   |   |   |   |   cSumPrice <= 87.4: n (2.0)
|   |   |   |   |   |   |   |   |   |   |   |   |   |   |   |   cSumPrice > 87.4: y (2.0)
|   |   |   |   |   |   |   |   |   |   |   |   duration > 465.229: y (73.11/14.11)
|   |   |   |   |   |   |   |   |   |   bCount > 1: y (49.25/11.13)
|   |   |   |   |   |   cMaxPrice > 28
|   |   |   |   |   |   |   bCount <= 1
|   |   |   |   |   |   |   |   bMinPrice <= 17.49: n (43.24/9.29)
|   |   |   |   |   |   |   |   bMinPrice > 17.49: y (42.21/16.93)
|   |   |   |   |   |   |   bCount > 1: y (6.18/1.15)
|   |   |   |   |   cCount > 7
|   |   |   |   |   |   duration <= 557.418
|   |   |   |   |   |   |   age <= 47
|   |   |   |   |   |   |   |   cMinPrice <= 8.49: n (8.0/1.0)
|   |   |   |   |   |   |   |   cMinPrice > 8.49: y (9.0/1.0)
|   |   |   |   |   |   |   age > 47
|   |   |   |   |   |   |   |   cCount <= 13
|   |   |   |   |   |   |   |   |   duration <= 380.516: n (36.0/1.0)
|   |   |   |   |   |   |   |   |   duration > 380.516
|   |   |   |   |   |   |   |   |   |   bMinPrice <= 4.39: y (4.0)
|   |   |   |   |   |   |   |   |   |   bMinPrice > 4.39
|   |   |   |   |   |   |   |   |   |   |   cMaxPrice <= 26.24
|   |   |   |   |   |   |   |   |   |   |   |   bSumPrice <= 11: n (9.0)
|   |   |   |   |   |   |   |   |   |   |   |   bSumPrice > 11
|   |   |   |   |   |   |   |   |   |   |   |   |   startWeekday <= 5
|   |   |   |   |   |   |   |   |   |   |   |   |   |   duration <= 449.229: y (3.0)
|   |   |   |   |   |   |   |   |   |   |   |   |   |   duration > 449.229: n (10.0/2.0)
|   |   |   |   |   |   |   |   |   |   |   |   |   startWeekday > 5
|   |   |   |   |   |   |   |   |   |   |   |   |   |   startWeekday <= 6: y (6.0/1.0)
|   |   |   |   |   |   |   |   |   |   |   |   |   |   startWeekday > 6
|   |   |   |   |   |   |   |   |   |   |   |   |   |   |   cSumPrice <= 107.29
|   |   |   |   |   |   |   |   |   |   |   |   |   |   |   |   bSumPrice <= 19.98
|   |   |   |   |   |   |   |   |   |   |   |   |   |   |   |   |   duration <= 395.6: y (2.0)
|   |   |   |   |   |   |   |   |   |   |   |   |   |   |   |   |   duration > 395.6: n (2.0)
|   |   |   |   |   |   |   |   |   |   |   |   |   |   |   |   bSumPrice > 19.98: y (4.0)
|   |   |   |   |   |   |   |   |   |   |   |   |   |   |   cSumPrice > 107.29: n (3.0)
|   |   |   |   |   |   |   |   |   |   |   cMaxPrice > 26.24: n (30.0/2.0)
|   |   |   |   |   |   |   |   cCount > 13: n (103.15)
|   |   |   |   |   |   duration > 557.418
|   |   |   |   |   |   |   bSumPrice <= 13.94
|   |   |   |   |   |   |   |   bMinPrice <= 2.75: n (15.1/0.01)
|   |   |   |   |   |   |   |   bMinPrice > 2.75
|   |   |   |   |   |   |   |   |   maxVal <= 400
|   |   |   |   |   |   |   |   |   |   cMaxPrice <= 14.99: n (4.0)
|   |   |   |   |   |   |   |   |   |   cMaxPrice > 14.99
|   |   |   |   |   |   |   |   |   |   |   cSumPrice <= 277.67: y (6.04/0.04)
|   |   |   |   |   |   |   |   |   |   |   cSumPrice > 277.67: n (4.17)
|   |   |   |   |   |   |   |   |   maxVal > 400
|   |   |   |   |   |   |   |   |   |   bCount <= 1: n (146.04/36.08)
|   |   |   |   |   |   |   |   |   |   bCount > 1
|   |   |   |   |   |   |   |   |   |   |   cCount <= 11: y (4.0)
|   |   |   |   |   |   |   |   |   |   |   cCount > 11
|   |   |   |   |   |   |   |   |   |   |   |   bCount <= 2: n (23.04/1.0)
|   |   |   |   |   |   |   |   |   |   |   |   bCount > 2: y (3.0/1.0)
|   |   |   |   |   |   |   bSumPrice > 13.94
|   |   |   |   |   |   |   |   cSumPrice <= 380.88
|   |   |   |   |   |   |   |   |   bCount <= 3
|   |   |   |   |   |   |   |   |   |   startHour <= 12
|   |   |   |   |   |   |   |   |   |   |   accountLifetime <= 2: n (7.0/1.0)
|   |   |   |   |   |   |   |   |   |   |   accountLifetime > 2
|   |   |   |   |   |   |   |   |   |   |   |   age <= 41: y (5.0/1.0)
|   |   |   |   |   |   |   |   |   |   |   |   age > 41
|   |   |   |   |   |   |   |   |   |   |   |   |   cSumPrice <= 53: y (5.0)
|   |   |   |   |   |   |   |   |   |   |   |   |   cSumPrice > 53
|   |   |   |   |   |   |   |   |   |   |   |   |   |   bMinPrice <= 6.99: n (10.11)
|   |   |   |   |   |   |   |   |   |   |   |   |   |   bMinPrice > 6.99
|   |   |   |   |   |   |   |   |   |   |   |   |   |   |   bCount <= 1
|   |   |   |   |   |   |   |   |   |   |   |   |   |   |   |   cCount <= 35: n (39.64/11.0)
|   |   |   |   |   |   |   |   |   |   |   |   |   |   |   |   cCount > 35: y (3.09/0.09)
|   |   |   |   |   |   |   |   |   |   |   |   |   |   |   bCount > 1
|   |   |   |   |   |   |   |   |   |   |   |   |   |   |   |   cMaxPrice <= 34.97
|   |   |   |   |   |   |   |   |   |   |   |   |   |   |   |   |   startWeekday <= 6
|   |   |   |   |   |   |   |   |   |   |   |   |   |   |   |   |   |   bSumPrice <= 25.97: n (5.0)
|   |   |   |   |   |   |   |   |   |   |   |   |   |   |   |   |   |   bSumPrice > 25.97: y (4.0/1.0)
|   |   |   |   |   |   |   |   |   |   |   |   |   |   |   |   |   startWeekday > 6
|   |   |   |   |   |   |   |   |   |   |   |   |   |   |   |   |   |   cMinPrice <= 11.49: y (7.0/1.0)
|   |   |   |   |   |   |   |   |   |   |   |   |   |   |   |   |   |   cMinPrice > 11.49: n (2.0)
|   |   |   |   |   |   |   |   |   |   |   |   |   |   |   |   cMaxPrice > 34.97: y (5.0)
|   |   |   |   |   |   |   |   |   |   startHour > 12
|   |   |   |   |   |   |   |   |   |   |   cCount <= 38: y (175.32/58.32)
|   |   |   |   |   |   |   |   |   |   |   cCount > 38: n (9.0/1.0)
|   |   |   |   |   |   |   |   |   bCount > 3
|   |   |   |   |   |   |   |   |   |   lastOrder <= 14
|   |   |   |   |   |   |   |   |   |   |   bSumPrice <= 13.98: y (2.0)
|   |   |   |   |   |   |   |   |   |   |   bSumPrice > 13.98: n (15.0)
|   |   |   |   |   |   |   |   |   |   lastOrder > 14: y (3.0)
|   |   |   |   |   |   |   |   cSumPrice > 380.88
|   |   |   |   |   |   |   |   |   accountLifetime <= 1: n (11.21/1.0)
|   |   |   |   |   |   |   |   |   accountLifetime > 1
|   |   |   |   |   |   |   |   |   |   payments <= 0
|   |   |   |   |   |   |   |   |   |   |   duration <= 1104.532: n (36.42/3.11)
|   |   |   |   |   |   |   |   |   |   |   duration > 1104.532
|   |   |   |   |   |   |   |   |   |   |   |   startWeekday <= 5
|   |   |   |   |   |   |   |   |   |   |   |   |   startHour <= 10: y (12.11/5.11)
|   |   |   |   |   |   |   |   |   |   |   |   |   startHour > 10
|   |   |   |   |   |   |   |   |   |   |   |   |   |   cMaxPrice <= 50
|   |   |   |   |   |   |   |   |   |   |   |   |   |   |   cMaxPrice <= 44.95
|   |   |   |   |   |   |   |   |   |   |   |   |   |   |   |   cMinPrice <= 7.49: n (9.0)
|   |   |   |   |   |   |   |   |   |   |   |   |   |   |   |   cMinPrice > 7.49: y (4.0/1.0)
|   |   |   |   |   |   |   |   |   |   |   |   |   |   |   cMaxPrice > 44.95: y (3.0)
|   |   |   |   |   |   |   |   |   |   |   |   |   |   cMaxPrice > 50: n (24.11/1.0)
|   |   |   |   |   |   |   |   |   |   |   |   startWeekday > 5
|   |   |   |   |   |   |   |   |   |   |   |   |   startHour <= 14
|   |   |   |   |   |   |   |   |   |   |   |   |   |   startHour <= 8
|   |   |   |   |   |   |   |   |   |   |   |   |   |   |   startHour <= 2: n (3.0)
|   |   |   |   |   |   |   |   |   |   |   |   |   |   |   startHour > 2: y (5.0/1.0)
|   |   |   |   |   |   |   |   |   |   |   |   |   |   startHour > 8: n (20.63/3.11)
|   |   |   |   |   |   |   |   |   |   |   |   |   startHour > 14
|   |   |   |   |   |   |   |   |   |   |   |   |   |   startHour <= 16: y (12.21/1.21)
|   |   |   |   |   |   |   |   |   |   |   |   |   |   startHour > 16
|   |   |   |   |   |   |   |   |   |   |   |   |   |   |   startHour <= 19: n (20.21/5.0)
|   |   |   |   |   |   |   |   |   |   |   |   |   |   |   startHour > 19: y (12.11/4.11)
|   |   |   |   |   |   |   |   |   |   payments > 0
|   |   |   |   |   |   |   |   |   |   |   bMaxPrice <= 11.49: n (5.05)
|   |   |   |   |   |   |   |   |   |   |   bMaxPrice > 11.49: y (6.06/1.06)
|   |   |   |   bSumPrice > 27.99
|   |   |   |   |   accountLifetime <= 4: y (687.64/108.64)
|   |   |   |   |   accountLifetime > 4
|   |   |   |   |   |   cMinPrice <= 0.19: y (100.34/9.21)
|   |   |   |   |   |   cMinPrice > 0.19
|   |   |   |   |   |   |   cCount <= 4
|   |   |   |   |   |   |   |   bCount <= 0: n (26.87/9.24)
|   |   |   |   |   |   |   |   bCount > 0
|   |   |   |   |   |   |   |   |   startHour <= 11
|   |   |   |   |   |   |   |   |   |   startWeekday <= 6
|   |   |   |   |   |   |   |   |   |   |   bCount <= 1: y (116.0/24.0)
|   |   |   |   |   |   |   |   |   |   |   bCount > 1
|   |   |   |   |   |   |   |   |   |   |   |   duration <= 584.312
|   |   |   |   |   |   |   |   |   |   |   |   |   cMaxPrice <= 44.95: n (4.0)
|   |   |   |   |   |   |   |   |   |   |   |   |   cMaxPrice > 44.95
|   |   |   |   |   |   |   |   |   |   |   |   |   |   startHour <= 10: y (6.0)
|   |   |   |   |   |   |   |   |   |   |   |   |   |   startHour > 10: n (2.0)
|   |   |   |   |   |   |   |   |   |   |   |   duration > 584.312: y (6.0)
|   |   |   |   |   |   |   |   |   |   startWeekday > 6
|   |   |   |   |   |   |   |   |   |   |   bMaxPrice <= 309.99
|   |   |   |   |   |   |   |   |   |   |   |   duration <= 3047.26
|   |   |   |   |   |   |   |   |   |   |   |   |   startHour <= 9: y (33.0/2.0)
|   |   |   |   |   |   |   |   |   |   |   |   |   startHour > 9
|   |   |   |   |   |   |   |   |   |   |   |   |   |   startHour <= 10
|   |   |   |   |   |   |   |   |   |   |   |   |   |   |   cSumPrice <= 104.96: y (9.0)
|   |   |   |   |   |   |   |   |   |   |   |   |   |   |   cSumPrice > 104.96
|   |   |   |   |   |   |   |   |   |   |   |   |   |   |   |   cCount <= 3
|   |   |   |   |   |   |   |   |   |   |   |   |   |   |   |   |   cSumPrice <= 244.97
|   |   |   |   |   |   |   |   |   |   |   |   |   |   |   |   |   |   cSumPrice <= 199.97: y (4.0/1.0)
|   |   |   |   |   |   |   |   |   |   |   |   |   |   |   |   |   |   cSumPrice > 199.97: n (3.0)
|   |   |   |   |   |   |   |   |   |   |   |   |   |   |   |   |   cSumPrice > 244.97: y (4.0)
|   |   |   |   |   |   |   |   |   |   |   |   |   |   |   |   cCount > 3: n (10.0/2.0)
|   |   |   |   |   |   |   |   |   |   |   |   |   |   startHour > 10
|   |   |   |   |   |   |   |   |   |   |   |   |   |   |   duration <= 2056.247
|   |   |   |   |   |   |   |   |   |   |   |   |   |   |   |   cCount <= 3: n (11.0/3.0)
|   |   |   |   |   |   |   |   |   |   |   |   |   |   |   |   cCount > 3
|   |   |   |   |   |   |   |   |   |   |   |   |   |   |   |   |   cMinPrice <= 54.99: n (2.0)
|   |   |   |   |   |   |   |   |   |   |   |   |   |   |   |   |   cMinPrice > 54.99: y (5.0)
|   |   |   |   |   |   |   |   |   |   |   |   |   |   |   duration > 2056.247: y (4.0)
|   |   |   |   |   |   |   |   |   |   |   |   duration > 3047.26: n (6.0)
|   |   |   |   |   |   |   |   |   |   |   bMaxPrice > 309.99: n (39.0/9.0)
|   |   |   |   |   |   |   |   |   startHour > 11: y (728.39/107.55)
|   |   |   |   |   |   |   cCount > 4
|   |   |   |   |   |   |   |   duration <= 744.396
|   |   |   |   |   |   |   |   |   cCount <= 14
|   |   |   |   |   |   |   |   |   |   bCount <= 4
|   |   |   |   |   |   |   |   |   |   |   bCount <= 1
|   |   |   |   |   |   |   |   |   |   |   |   cMinPrice <= 19.99: n (68.1/13.0)
|   |   |   |   |   |   |   |   |   |   |   |   cMinPrice > 19.99
|   |   |   |   |   |   |   |   |   |   |   |   |   cSumPrice <= 222.42: y (85.7/28.7)
|   |   |   |   |   |   |   |   |   |   |   |   |   cSumPrice > 222.42
|   |   |   |   |   |   |   |   |   |   |   |   |   |   duration <= 482.011: n (160.0/52.0)
|   |   |   |   |   |   |   |   |   |   |   |   |   |   duration > 482.011: y (123.0/57.0)
|   |   |   |   |   |   |   |   |   |   |   bCount > 1
|   |   |   |   |   |   |   |   |   |   |   |   cCount <= 8
|   |   |   |   |   |   |   |   |   |   |   |   |   cCount <= 5
|   |   |   |   |   |   |   |   |   |   |   |   |   |   startHour <= 13
|   |   |   |   |   |   |   |   |   |   |   |   |   |   |   maxVal <= 400: n (2.0)
|   |   |   |   |   |   |   |   |   |   |   |   |   |   |   maxVal > 400
|   |   |   |   |   |   |   |   |   |   |   |   |   |   |   |   startWeekday <= 5: y (4.0)
|   |   |   |   |   |   |   |   |   |   |   |   |   |   |   |   startWeekday > 5
|   |   |   |   |   |   |   |   |   |   |   |   |   |   |   |   |   startHour <= 9: n (2.0)
|   |   |   |   |   |   |   |   |   |   |   |   |   |   |   |   |   startHour > 9
|   |   |   |   |   |   |   |   |   |   |   |   |   |   |   |   |   |   duration <= 527.319
|   |   |   |   |   |   |   |   |   |   |   |   |   |   |   |   |   |   |   bCount <= 2
|   |   |   |   |   |   |   |   |   |   |   |   |   |   |   |   |   |   |   |   cMinPrice <= 24.99: n (2.0)
|   |   |   |   |   |   |   |   |   |   |   |   |   |   |   |   |   |   |   |   cMinPrice > 24.99: y (2.0)
|   |   |   |   |   |   |   |   |   |   |   |   |   |   |   |   |   |   |   bCount > 2: n (3.0/1.0)
|   |   |   |   |   |   |   |   |   |   |   |   |   |   |   |   |   |   duration > 527.319: y (5.0)
|   |   |   |   |   |   |   |   |   |   |   |   |   |   startHour > 13
|   |   |   |   |   |   |   |   |   |   |   |   |   |   |   cMaxPrice <= 569.99: y (34.0/1.0)
|   |   |   |   |   |   |   |   |   |   |   |   |   |   |   cMaxPrice > 569.99: n (4.0/1.0)
|   |   |   |   |   |   |   |   |   |   |   |   |   cCount > 5
|   |   |   |   |   |   |   |   |   |   |   |   |   |   age <= 52
|   |   |   |   |   |   |   |   |   |   |   |   |   |   |   startHour <= 20: y (10.0)
|   |   |   |   |   |   |   |   |   |   |   |   |   |   |   startHour > 20: n (3.0/1.0)
|   |   |   |   |   |   |   |   |   |   |   |   |   |   age > 52
|   |   |   |   |   |   |   |   |   |   |   |   |   |   |   bCount <= 2
|   |   |   |   |   |   |   |   |   |   |   |   |   |   |   |   cMinPrice <= 13.49
|   |   |   |   |   |   |   |   |   |   |   |   |   |   |   |   |   duration <= 640.354: n (23.85/5.0)
|   |   |   |   |   |   |   |   |   |   |   |   |   |   |   |   |   duration > 640.354: y (4.0)
|   |   |   |   |   |   |   |   |   |   |   |   |   |   |   |   cMinPrice > 13.49
|   |   |   |   |   |   |   |   |   |   |   |   |   |   |   |   |   cMinPrice <= 109.99
|   |   |   |   |   |   |   |   |   |   |   |   |   |   |   |   |   |   cCount <= 6
|   |   |   |   |   |   |   |   |   |   |   |   |   |   |   |   |   |   |   cMaxPrice <= 16.9: n (2.0)
|   |   |   |   |   |   |   |   |   |   |   |   |   |   |   |   |   |   |   cMaxPrice > 16.9: y (38.0/5.0)
|   |   |   |   |   |   |   |   |   |   |   |   |   |   |   |   |   |   cCount > 6
|   |   |   |   |   |   |   |   |   |   |   |   |   |   |   |   |   |   |   bMaxPrice <= 28.99: y (23.0/2.0)
|   |   |   |   |   |   |   |   |   |   |   |   |   |   |   |   |   |   |   bMaxPrice > 28.99
|   |   |   |   |   |   |   |   |   |   |   |   |   |   |   |   |   |   |   |   bMaxPrice <= 149.95
|   |   |   |   |   |   |   |   |   |   |   |   |   |   |   |   |   |   |   |   |   startHour <= 12: n (7.0)
|   |   |   |   |   |   |   |   |   |   |   |   |   |   |   |   |   |   |   |   |   startHour > 12
|   |   |   |   |   |   |   |   |   |   |   |   |   |   |   |   |   |   |   |   |   |   bSumPrice <= 117.98
|   |   |   |   |   |   |   |   |   |   |   |   |   |   |   |   |   |   |   |   |   |   |   startWeekday <= 5
|   |   |   |   |   |   |   |   |   |   |   |   |   |   |   |   |   |   |   |   |   |   |   |   bMinPrice <= 24.99: n (3.0)
|   |   |   |   |   |   |   |   |   |   |   |   |   |   |   |   |   |   |   |   |   |   |   |   bMinPrice > 24.99: y (5.0/1.0)
|   |   |   |   |   |   |   |   |   |   |   |   |   |   |   |   |   |   |   |   |   |   |   startWeekday > 5: y (15.0/3.0)
|   |   |   |   |   |   |   |   |   |   |   |   |   |   |   |   |   |   |   |   |   |   bSumPrice > 117.98: n (6.0)
|   |   |   |   |   |   |   |   |   |   |   |   |   |   |   |   |   |   |   |   bMaxPrice > 149.95: y (5.0)
|   |   |   |   |   |   |   |   |   |   |   |   |   |   |   |   |   cMinPrice > 109.99
|   |   |   |   |   |   |   |   |   |   |   |   |   |   |   |   |   |   cMinPrice <= 479.99
|   |   |   |   |   |   |   |   |   |   |   |   |   |   |   |   |   |   |   startHour <= 12
|   |   |   |   |   |   |   |   |   |   |   |   |   |   |   |   |   |   |   |   cCount <= 6: n (2.0)
|   |   |   |   |   |   |   |   |   |   |   |   |   |   |   |   |   |   |   |   cCount > 6: y (2.0)
|   |   |   |   |   |   |   |   |   |   |   |   |   |   |   |   |   |   |   startHour > 12: n (12.0)
|   |   |   |   |   |   |   |   |   |   |   |   |   |   |   |   |   |   cMinPrice > 479.99
|   |   |   |   |   |   |   |   |   |   |   |   |   |   |   |   |   |   |   cCount <= 6: n (3.0/1.0)
|   |   |   |   |   |   |   |   |   |   |   |   |   |   |   |   |   |   |   cCount > 6: y (6.0)
|   |   |   |   |   |   |   |   |   |   |   |   |   |   |   bCount > 2
|   |   |   |   |   |   |   |   |   |   |   |   |   |   |   |   bCount <= 3: y (57.0/13.0)
|   |   |   |   |   |   |   |   |   |   |   |   |   |   |   |   bCount > 3
|   |   |   |   |   |   |   |   |   |   |   |   |   |   |   |   |   cMinPrice <= 17.98: n (6.0/1.0)
|   |   |   |   |   |   |   |   |   |   |   |   |   |   |   |   |   cMinPrice > 17.98: y (8.0/1.0)
|   |   |   |   |   |   |   |   |   |   |   |   cCount > 8
|   |   |   |   |   |   |   |   |   |   |   |   |   bCount <= 3
|   |   |   |   |   |   |   |   |   |   |   |   |   |   bCount <= 2
|   |   |   |   |   |   |   |   |   |   |   |   |   |   |   startHour <= 18
|   |   |   |   |   |   |   |   |   |   |   |   |   |   |   |   cCount <= 11
|   |   |   |   |   |   |   |   |   |   |   |   |   |   |   |   |   startWeekday <= 5
|   |   |   |   |   |   |   |   |   |   |   |   |   |   |   |   |   |   cMaxPrice <= 74.95
|   |   |   |   |   |   |   |   |   |   |   |   |   |   |   |   |   |   |   bMaxPrice <= 22.49: n (4.0)
|   |   |   |   |   |   |   |   |   |   |   |   |   |   |   |   |   |   |   bMaxPrice > 22.49: y (7.0/1.0)
|   |   |   |   |   |   |   |   |   |   |   |   |   |   |   |   |   |   cMaxPrice > 74.95: n (10.0/1.0)
|   |   |   |   |   |   |   |   |   |   |   |   |   |   |   |   |   startWeekday > 5
|   |   |   |   |   |   |   |   |   |   |   |   |   |   |   |   |   |   startWeekday <= 6
|   |   |   |   |   |   |   |   |   |   |   |   |   |   |   |   |   |   |   cMinPrice <= 599
|   |   |   |   |   |   |   |   |   |   |   |   |   |   |   |   |   |   |   |   cCount <= 9
|   |   |   |   |   |   |   |   |   |   |   |   |   |   |   |   |   |   |   |   |   duration <= 532.032: y (4.0)
|   |   |   |   |   |   |   |   |   |   |   |   |   |   |   |   |   |   |   |   |   duration > 532.032: n (3.0/1.0)
|   |   |   |   |   |   |   |   |   |   |   |   |   |   |   |   |   |   |   |   cCount > 9
|   |   |   |   |   |   |   |   |   |   |   |   |   |   |   |   |   |   |   |   |   duration <= 395.957: n (2.0)
|   |   |   |   |   |   |   |   |   |   |   |   |   |   |   |   |   |   |   |   |   duration > 395.957: y (13.0)
|   |   |   |   |   |   |   |   |   |   |   |   |   |   |   |   |   |   |   cMinPrice > 599: n (2.0)
|   |   |   |   |   |   |   |   |   |   |   |   |   |   |   |   |   |   startWeekday > 6
|   |   |   |   |   |   |   |   |   |   |   |   |   |   |   |   |   |   |   bMaxPrice <= 23.99: n (9.0/1.0)
|   |   |   |   |   |   |   |   |   |   |   |   |   |   |   |   |   |   |   bMaxPrice > 23.99: y (29.0/10.0)
|   |   |   |   |   |   |   |   |   |   |   |   |   |   |   |   cCount > 11: n (64.0/23.0)
|   |   |   |   |   |   |   |   |   |   |   |   |   |   |   startHour > 18
|   |   |   |   |   |   |   |   |   |   |   |   |   |   |   |   age <= 44: y (2.0)
|   |   |   |   |   |   |   |   |   |   |   |   |   |   |   |   age > 44: n (34.0/7.0)
|   |   |   |   |   |   |   |   |   |   |   |   |   |   bCount > 2
|   |   |   |   |   |   |   |   |   |   |   |   |   |   |   startHour <= 11
|   |   |   |   |   |   |   |   |   |   |   |   |   |   |   |   startWeekday <= 5
|   |   |   |   |   |   |   |   |   |   |   |   |   |   |   |   |   bSumPrice <= 72.88: n (2.0)
|   |   |   |   |   |   |   |   |   |   |   |   |   |   |   |   |   bSumPrice > 72.88
|   |   |   |   |   |   |   |   |   |   |   |   |   |   |   |   |   |   cMinPrice <= 42.36: y (4.0)
|   |   |   |   |   |   |   |   |   |   |   |   |   |   |   |   |   |   cMinPrice > 42.36: n (3.0/1.0)
|   |   |   |   |   |   |   |   |   |   |   |   |   |   |   |   startWeekday > 5
|   |   |   |   |   |   |   |   |   |   |   |   |   |   |   |   |   startHour <= 10
|   |   |   |   |   |   |   |   |   |   |   |   |   |   |   |   |   |   bMaxPrice <= 54.95
|   |   |   |   |   |   |   |   |   |   |   |   |   |   |   |   |   |   |   duration <= 496.544
|   |   |   |   |   |   |   |   |   |   |   |   |   |   |   |   |   |   |   |   duration <= 419.581: n (4.0)
|   |   |   |   |   |   |   |   |   |   |   |   |   |   |   |   |   |   |   |   duration > 419.581: y (3.0)
|   |   |   |   |   |   |   |   |   |   |   |   |   |   |   |   |   |   |   duration > 496.544: n (9.0)
|   |   |   |   |   |   |   |   |   |   |   |   |   |   |   |   |   |   bMaxPrice > 54.95: y (2.0)
|   |   |   |   |   |   |   |   |   |   |   |   |   |   |   |   |   startHour > 10: n (9.0)
|   |   |   |   |   |   |   |   |   |   |   |   |   |   |   startHour > 11
|   |   |   |   |   |   |   |   |   |   |   |   |   |   |   |   duration <= 444.602
|   |   |   |   |   |   |   |   |   |   |   |   |   |   |   |   |   startWeekday <= 6
|   |   |   |   |   |   |   |   |   |   |   |   |   |   |   |   |   |   bMinPrice <= 30: n (21.0/5.0)
|   |   |   |   |   |   |   |   |   |   |   |   |   |   |   |   |   |   bMinPrice > 30: y (4.0/1.0)
|   |   |   |   |   |   |   |   |   |   |   |   |   |   |   |   |   startWeekday > 6
|   |   |   |   |   |   |   |   |   |   |   |   |   |   |   |   |   |   cSumPrice <= 246.91: y (3.0)
|   |   |   |   |   |   |   |   |   |   |   |   |   |   |   |   |   |   cSumPrice > 246.91: n (2.0)
|   |   |   |   |   |   |   |   |   |   |   |   |   |   |   |   duration > 444.602
|   |   |   |   |   |   |   |   |   |   |   |   |   |   |   |   |   cMaxPrice <= 32.49: y (18.0/1.0)
|   |   |   |   |   |   |   |   |   |   |   |   |   |   |   |   |   cMaxPrice > 32.49
|   |   |   |   |   |   |   |   |   |   |   |   |   |   |   |   |   |   startWeekday <= 6
|   |   |   |   |   |   |   |   |   |   |   |   |   |   |   |   |   |   |   cSumPrice <= 427: n (7.0/1.0)
|   |   |   |   |   |   |   |   |   |   |   |   |   |   |   |   |   |   |   cSumPrice > 427: y (11.0)
|   |   |   |   |   |   |   |   |   |   |   |   |   |   |   |   |   |   startWeekday > 6
|   |   |   |   |   |   |   |   |   |   |   |   |   |   |   |   |   |   |   cCount <= 10: y (2.0)
|   |   |   |   |   |   |   |   |   |   |   |   |   |   |   |   |   |   |   cCount > 10
|   |   |   |   |   |   |   |   |   |   |   |   |   |   |   |   |   |   |   |   duration <= 492.156: y (2.0)
|   |   |   |   |   |   |   |   |   |   |   |   |   |   |   |   |   |   |   |   duration > 492.156: n (4.0/1.0)
|   |   |   |   |   |   |   |   |   |   |   |   |   bCount > 3
|   |   |   |   |   |   |   |   |   |   |   |   |   |   cMaxPrice <= 64.95
|   |   |   |   |   |   |   |   |   |   |   |   |   |   |   cSumPrice <= 183.9
|   |   |   |   |   |   |   |   |   |   |   |   |   |   |   |   cSumPrice <= 172.79
|   |   |   |   |   |   |   |   |   |   |   |   |   |   |   |   |   bMinPrice <= 4.39: y (6.0)
|   |   |   |   |   |   |   |   |   |   |   |   |   |   |   |   |   bMinPrice > 4.39
|   |   |   |   |   |   |   |   |   |   |   |   |   |   |   |   |   |   startHour <= 14: y (8.0/1.0)
|   |   |   |   |   |   |   |   |   |   |   |   |   |   |   |   |   |   startHour > 14
|   |   |   |   |   |   |   |   |   |   |   |   |   |   |   |   |   |   |   startHour <= 20: n (4.0)
|   |   |   |   |   |   |   |   |   |   |   |   |   |   |   |   |   |   |   startHour > 20
|   |   |   |   |   |   |   |   |   |   |   |   |   |   |   |   |   |   |   |   duration <= 520.773: n (2.0)
|   |   |   |   |   |   |   |   |   |   |   |   |   |   |   |   |   |   |   |   duration > 520.773: y (3.0)
|   |   |   |   |   |   |   |   |   |   |   |   |   |   |   |   cSumPrice > 172.79: n (5.0)
|   |   |   |   |   |   |   |   |   |   |   |   |   |   |   cSumPrice > 183.9: y (22.0/2.0)
|   |   |   |   |   |   |   |   |   |   |   |   |   |   cMaxPrice > 64.95
|   |   |   |   |   |   |   |   |   |   |   |   |   |   |   cMinPrice <= 49.99: n (11.0/1.0)
|   |   |   |   |   |   |   |   |   |   |   |   |   |   |   cMinPrice > 49.99: y (5.0/1.0)
|   |   |   |   |   |   |   |   |   |   bCount > 4
|   |   |   |   |   |   |   |   |   |   |   cMinPrice <= 29.99: y (94.77/8.0)
|   |   |   |   |   |   |   |   |   |   |   cMinPrice > 29.99
|   |   |   |   |   |   |   |   |   |   |   |   cMaxPrice <= 479.99: n (6.05/0.05)
|   |   |   |   |   |   |   |   |   |   |   |   cMaxPrice > 479.99: y (2.02)
|   |   |   |   |   |   |   |   |   cCount > 14
|   |   |   |   |   |   |   |   |   |   bCount <= 3
|   |   |   |   |   |   |   |   |   |   |   startWeekday <= 6
|   |   |   |   |   |   |   |   |   |   |   |   cMinPrice <= 42.99: n (141.85/22.0)
|   |   |   |   |   |   |   |   |   |   |   |   cMinPrice > 42.99
|   |   |   |   |   |   |   |   |   |   |   |   |   bCount <= 2
|   |   |   |   |   |   |   |   |   |   |   |   |   |   cMaxPrice <= 56.99: y (3.0)
|   |   |   |   |   |   |   |   |   |   |   |   |   |   cMaxPrice > 56.99
|   |   |   |   |   |   |   |   |   |   |   |   |   |   |   cMinPrice <= 89.99: n (8.0)
|   |   |   |   |   |   |   |   |   |   |   |   |   |   |   cMinPrice > 89.99
|   |   |   |   |   |   |   |   |   |   |   |   |   |   |   |   cCount <= 23
|   |   |   |   |   |   |   |   |   |   |   |   |   |   |   |   |   startHour <= 15
|   |   |   |   |   |   |   |   |   |   |   |   |   |   |   |   |   |   cMaxPrice <= 569.99: y (2.0)
|   |   |   |   |   |   |   |   |   |   |   |   |   |   |   |   |   |   cMaxPrice > 569.99: n (3.0)
|   |   |   |   |   |   |   |   |   |   |   |   |   |   |   |   |   startHour > 15: y (3.0)
|   |   |   |   |   |   |   |   |   |   |   |   |   |   |   |   cCount > 23: n (4.0)
|   |   |   |   |   |   |   |   |   |   |   |   |   bCount > 2: y (5.0)
|   |   |   |   |   |   |   |   |   |   |   startWeekday > 6
|   |   |   |   |   |   |   |   |   |   |   |   bCount <= 2
|   |   |   |   |   |   |   |   |   |   |   |   |   age <= 41: y (2.0)
|   |   |   |   |   |   |   |   |   |   |   |   |   age > 41: n (49.85/11.0)
|   |   |   |   |   |   |   |   |   |   |   |   bCount > 2
|   |   |   |   |   |   |   |   |   |   |   |   |   bMaxPrice <= 59.97
|   |   |   |   |   |   |   |   |   |   |   |   |   |   cMinPrice <= 6.49: n (3.0)
|   |   |   |   |   |   |   |   |   |   |   |   |   |   cMinPrice > 6.49: y (14.0/2.0)
|   |   |   |   |   |   |   |   |   |   |   |   |   bMaxPrice > 59.97: n (4.0)
|   |   |   |   |   |   |   |   |   |   bCount > 3
|   |   |   |   |   |   |   |   |   |   |   cSumPrice <= 444.15
|   |   |   |   |   |   |   |   |   |   |   |   cCount <= 21: y (45.0/11.0)
|   |   |   |   |   |   |   |   |   |   |   |   cCount > 21
|   |   |   |   |   |   |   |   |   |   |   |   |   bSumPrice <= 106.38: n (19.0/5.0)
|   |   |   |   |   |   |   |   |   |   |   |   |   bSumPrice > 106.38: y (7.0)
|   |   |   |   |   |   |   |   |   |   |   cSumPrice > 444.15: n (99.0/31.0)
|   |   |   |   |   |   |   |   duration > 744.396
|   |   |   |   |   |   |   |   |   onlineStatus = y
|   |   |   |   |   |   |   |   |   |   bCount <= 6
|   |   |   |   |   |   |   |   |   |   |   bCount <= 1
|   |   |   |   |   |   |   |   |   |   |   |   cMinPrice <= 24
|   |   |   |   |   |   |   |   |   |   |   |   |   startHour <= 10
|   |   |   |   |   |   |   |   |   |   |   |   |   |   startWeekday <= 5
|   |   |   |   |   |   |   |   |   |   |   |   |   |   |   cMinPrice <= 10.99: n (7.55)
|   |   |   |   |   |   |   |   |   |   |   |   |   |   |   cMinPrice > 10.99: y (7.0/1.0)
|   |   |   |   |   |   |   |   |   |   |   |   |   |   startWeekday > 5: n (29.7/5.0)
|   |   |   |   |   |   |   |   |   |   |   |   |   startHour > 10
|   |   |   |   |   |   |   |   |   |   |   |   |   |   startWeekday <= 5
|   |   |   |   |   |   |   |   |   |   |   |   |   |   |   maxVal <= 500: n (3.0)
|   |   |   |   |   |   |   |   |   |   |   |   |   |   |   maxVal > 500
|   |   |   |   |   |   |   |   |   |   |   |   |   |   |   |   cCount <= 31: y (39.0/18.0)
|   |   |   |   |   |   |   |   |   |   |   |   |   |   |   |   cCount > 31: n (13.85/1.0)
|   |   |   |   |   |   |   |   |   |   |   |   |   |   startWeekday > 5
|   |   |   |   |   |   |   |   |   |   |   |   |   |   |   startHour <= 19
|   |   |   |   |   |   |   |   |   |   |   |   |   |   |   |   startHour <= 17
|   |   |   |   |   |   |   |   |   |   |   |   |   |   |   |   |   cMinPrice <= 9.18: n (23.61/10.0)
|   |   |   |   |   |   |   |   |   |   |   |   |   |   |   |   |   cMinPrice > 9.18: y (56.0/22.0)
|   |   |   |   |   |   |   |   |   |   |   |   |   |   |   |   startHour > 17: n (22.0/5.0)
|   |   |   |   |   |   |   |   |   |   |   |   |   |   |   startHour > 19
|   |   |   |   |   |   |   |   |   |   |   |   |   |   |   |   duration <= 2786.809: y (12.85)
|   |   |   |   |   |   |   |   |   |   |   |   |   |   |   |   duration > 2786.809
|   |   |   |   |   |   |   |   |   |   |   |   |   |   |   |   |   cMinPrice <= 12.49: n (3.0)
|   |   |   |   |   |   |   |   |   |   |   |   |   |   |   |   |   cMinPrice > 12.49: y (2.0)
|   |   |   |   |   |   |   |   |   |   |   |   cMinPrice > 24
|   |   |   |   |   |   |   |   |   |   |   |   |   cCount <= 15
|   |   |   |   |   |   |   |   |   |   |   |   |   |   startHour <= 11
|   |   |   |   |   |   |   |   |   |   |   |   |   |   |   startWeekday <= 6: y (63.0/18.0)
|   |   |   |   |   |   |   |   |   |   |   |   |   |   |   startWeekday > 6
|   |   |   |   |   |   |   |   |   |   |   |   |   |   |   |   startHour <= 9: y (21.85/3.85)
|   |   |   |   |   |   |   |   |   |   |   |   |   |   |   |   startHour > 9
|   |   |   |   |   |   |   |   |   |   |   |   |   |   |   |   |   duration <= 1020.09
|   |   |   |   |   |   |   |   |   |   |   |   |   |   |   |   |   |   cSumPrice <= 529.94: y (3.0)
|   |   |   |   |   |   |   |   |   |   |   |   |   |   |   |   |   |   cSumPrice > 529.94
|   |   |   |   |   |   |   |   |   |   |   |   |   |   |   |   |   |   |   bMinPrice <= 249.99: n (3.0)
|   |   |   |   |   |   |   |   |   |   |   |   |   |   |   |   |   |   |   bMinPrice > 249.99
|   |   |   |   |   |   |   |   |   |   |   |   |   |   |   |   |   |   |   |   cMinPrice <= 419.99: y (2.0)
|   |   |   |   |   |   |   |   |   |   |   |   |   |   |   |   |   |   |   |   cMinPrice > 419.99: n (2.0)
|   |   |   |   |   |   |   |   |   |   |   |   |   |   |   |   |   duration > 1020.09
|   |   |   |   |   |   |   |   |   |   |   |   |   |   |   |   |   |   cMinPrice <= 499: n (25.85)
|   |   |   |   |   |   |   |   |   |   |   |   |   |   |   |   |   |   cMinPrice > 499: y (3.0/1.0)
|   |   |   |   |   |   |   |   |   |   |   |   |   |   startHour > 11: y (361.32/102.32)
|   |   |   |   |   |   |   |   |   |   |   |   |   cCount > 15
|   |   |   |   |   |   |   |   |   |   |   |   |   |   bMinPrice <= 46.99
|   |   |   |   |   |   |   |   |   |   |   |   |   |   |   cMaxPrice <= 539.99
|   |   |   |   |   |   |   |   |   |   |   |   |   |   |   |   startHour <= 20: y (18.5/0.37)
|   |   |   |   |   |   |   |   |   |   |   |   |   |   |   |   startHour > 20: n (3.12/1.0)
|   |   |   |   |   |   |   |   |   |   |   |   |   |   |   cMaxPrice > 539.99: n (2.12)
|   |   |   |   |   |   |   |   |   |   |   |   |   |   bMinPrice > 46.99
|   |   |   |   |   |   |   |   |   |   |   |   |   |   |   startWeekday <= 6
|   |   |   |   |   |   |   |   |   |   |   |   |   |   |   |   startHour <= 10
|   |   |   |   |   |   |   |   |   |   |   |   |   |   |   |   |   cMaxPrice <= 250
|   |   |   |   |   |   |   |   |   |   |   |   |   |   |   |   |   |   duration <= 5048.937: y (4.0/1.0)
|   |   |   |   |   |   |   |   |   |   |   |   |   |   |   |   |   |   duration > 5048.937: n (3.0)
|   |   |   |   |   |   |   |   |   |   |   |   |   |   |   |   |   cMaxPrice > 250: y (12.0)
|   |   |   |   |   |   |   |   |   |   |   |   |   |   |   |   startHour > 10
|   |   |   |   |   |   |   |   |   |   |   |   |   |   |   |   |   startWeekday <= 5
|   |   |   |   |   |   |   |   |   |   |   |   |   |   |   |   |   |   cMaxPrice <= 849.99: y (40.0/18.0)
|   |   |   |   |   |   |   |   |   |   |   |   |   |   |   |   |   |   cMaxPrice > 849.99: n (12.0/1.0)
|   |   |   |   |   |   |   |   |   |   |   |   |   |   |   |   |   startWeekday > 5
|   |   |   |   |   |   |   |   |   |   |   |   |   |   |   |   |   |   cMinPrice <= 419.99: y (32.9/13.17)
|   |   |   |   |   |   |   |   |   |   |   |   |   |   |   |   |   |   cMinPrice > 419.99: n (5.72)
|   |   |   |   |   |   |   |   |   |   |   |   |   |   |   startWeekday > 6
|   |   |   |   |   |   |   |   |   |   |   |   |   |   |   |   cCount <= 33: n (20.72/4.0)
|   |   |   |   |   |   |   |   |   |   |   |   |   |   |   |   cCount > 33: y (8.0/2.0)
|   |   |   |   |   |   |   |   |   |   |   bCount > 1
|   |   |   |   |   |   |   |   |   |   |   |   lastOrder <= 16
|   |   |   |   |   |   |   |   |   |   |   |   |   cSumPrice <= 269.96
|   |   |   |   |   |   |   |   |   |   |   |   |   |   startHour <= 10
|   |   |   |   |   |   |   |   |   |   |   |   |   |   |   cSumPrice <= 115.97: y (14.0)
|   |   |   |   |   |   |   |   |   |   |   |   |   |   |   cSumPrice > 115.97
|   |   |   |   |   |   |   |   |   |   |   |   |   |   |   |   startHour <= 9
|   |   |   |   |   |   |   |   |   |   |   |   |   |   |   |   |   startWeekday <= 5
|   |   |   |   |   |   |   |   |   |   |   |   |   |   |   |   |   |   cMaxPrice <= 20.95: n (4.0)
|   |   |   |   |   |   |   |   |   |   |   |   |   |   |   |   |   |   cMaxPrice > 20.95
|   |   |   |   |   |   |   |   |   |   |   |   |   |   |   |   |   |   |   duration <= 884.343: n (3.0/1.0)
|   |   |   |   |   |   |   |   |   |   |   |   |   |   |   |   |   |   |   duration > 884.343: y (3.0)
|   |   |   |   |   |   |   |   |   |   |   |   |   |   |   |   |   startWeekday > 5: y (26.0/4.0)
|   |   |   |   |   |   |   |   |   |   |   |   |   |   |   |   startHour > 9
|   |   |   |   |   |   |   |   |   |   |   |   |   |   |   |   |   startWeekday <= 6
|   |   |   |   |   |   |   |   |   |   |   |   |   |   |   |   |   |   bMaxPrice <= 21: n (4.0/1.0)
|   |   |   |   |   |   |   |   |   |   |   |   |   |   |   |   |   |   bMaxPrice > 21: y (7.0)
|   |   |   |   |   |   |   |   |   |   |   |   |   |   |   |   |   startWeekday > 6
|   |   |   |   |   |   |   |   |   |   |   |   |   |   |   |   |   |   bCount <= 5
|   |   |   |   |   |   |   |   |   |   |   |   |   |   |   |   |   |   |   duration <= 3820.504: n (15.0/3.0)
|   |   |   |   |   |   |   |   |   |   |   |   |   |   |   |   |   |   |   duration > 3820.504: y (2.0)
|   |   |   |   |   |   |   |   |   |   |   |   |   |   |   |   |   |   bCount > 5: y (2.0)
|   |   |   |   |   |   |   |   |   |   |   |   |   |   startHour > 10: y (384.85/62.85)
|   |   |   |   |   |   |   |   |   |   |   |   |   cSumPrice > 269.96
|   |   |   |   |   |   |   |   |   |   |   |   |   |   bSumPrice <= 57.4
|   |   |   |   |   |   |   |   |   |   |   |   |   |   |   duration <= 1556.058
|   |   |   |   |   |   |   |   |   |   |   |   |   |   |   |   cMinPrice <= 3.97: n (10.14)
|   |   |   |   |   |   |   |   |   |   |   |   |   |   |   |   cMinPrice > 3.97
|   |   |   |   |   |   |   |   |   |   |   |   |   |   |   |   |   cSumPrice <= 473.9
|   |   |   |   |   |   |   |   |   |   |   |   |   |   |   |   |   |   duration <= 1002.368: n (22.0/5.0)
|   |   |   |   |   |   |   |   |   |   |   |   |   |   |   |   |   |   duration > 1002.368
|   |   |   |   |   |   |   |   |   |   |   |   |   |   |   |   |   |   |   bCount <= 3
|   |   |   |   |   |   |   |   |   |   |   |   |   |   |   |   |   |   |   |   startHour <= 18
|   |   |   |   |   |   |   |   |   |   |   |   |   |   |   |   |   |   |   |   |   bCount <= 2
|   |   |   |   |   |   |   |   |   |   |   |   |   |   |   |   |   |   |   |   |   |   cCount <= 13: y (5.0)
|   |   |   |   |   |   |   |   |   |   |   |   |   |   |   |   |   |   |   |   |   |   cCount > 13
|   |   |   |   |   |   |   |   |   |   |   |   |   |   |   |   |   |   |   |   |   |   |   cMaxPrice <= 61.99
|   |   |   |   |   |   |   |   |   |   |   |   |   |   |   |   |   |   |   |   |   |   |   |   cMinPrice <= 7.49: y (4.0)
|   |   |   |   |   |   |   |   |   |   |   |   |   |   |   |   |   |   |   |   |   |   |   |   cMinPrice > 7.49
|   |   |   |   |   |   |   |   |   |   |   |   |   |   |   |   |   |   |   |   |   |   |   |   |   duration <= 1134.056: y (2.0)
|   |   |   |   |   |   |   |   |   |   |   |   |   |   |   |   |   |   |   |   |   |   |   |   |   duration > 1134.056: n (6.0/1.0)
|   |   |   |   |   |   |   |   |   |   |   |   |   |   |   |   |   |   |   |   |   |   |   cMaxPrice > 61.99: n (4.0)
|   |   |   |   |   |   |   |   |   |   |   |   |   |   |   |   |   |   |   |   |   bCount > 2
|   |   |   |   |   |   |   |   |   |   |   |   |   |   |   |   |   |   |   |   |   |   startWeekday <= 5: n (4.0)
|   |   |   |   |   |   |   |   |   |   |   |   |   |   |   |   |   |   |   |   |   |   startWeekday > 5
|   |   |   |   |   |   |   |   |   |   |   |   |   |   |   |   |   |   |   |   |   |   |   startHour <= 12: n (4.0)
|   |   |   |   |   |   |   |   |   |   |   |   |   |   |   |   |   |   |   |   |   |   |   startHour > 12: y (6.0)
|   |   |   |   |   |   |   |   |   |   |   |   |   |   |   |   |   |   |   |   startHour > 18: y (6.0)
|   |   |   |   |   |   |   |   |   |   |   |   |   |   |   |   |   |   |   bCount > 3: y (8.0)
|   |   |   |   |   |   |   |   |   |   |   |   |   |   |   |   |   cSumPrice > 473.9
|   |   |   |   |   |   |   |   |   |   |   |   |   |   |   |   |   |   cMaxPrice <= 469.99: n (48.0/8.0)
|   |   |   |   |   |   |   |   |   |   |   |   |   |   |   |   |   |   cMaxPrice > 469.99: y (4.0/1.0)
|   |   |   |   |   |   |   |   |   |   |   |   |   |   |   duration > 1556.058
|   |   |   |   |   |   |   |   |   |   |   |   |   |   |   |   duration <= 10702.667
|   |   |   |   |   |   |   |   |   |   |   |   |   |   |   |   |   cCount <= 89: y (198.0/54.0)
|   |   |   |   |   |   |   |   |   |   |   |   |   |   |   |   |   cCount > 89
|   |   |   |   |   |   |   |   |   |   |   |   |   |   |   |   |   |   bMaxPrice <= 22.49: n (23.0/9.0)
|   |   |   |   |   |   |   |   |   |   |   |   |   |   |   |   |   |   bMaxPrice > 22.49: y (10.0/3.0)
|   |   |   |   |   |   |   |   |   |   |   |   |   |   |   |   duration > 10702.667
|   |   |   |   |   |   |   |   |   |   |   |   |   |   |   |   |   bMaxPrice <= 12.49: y (2.0)
|   |   |   |   |   |   |   |   |   |   |   |   |   |   |   |   |   bMaxPrice > 12.49: n (13.0/1.0)
|   |   |   |   |   |   |   |   |   |   |   |   |   |   bSumPrice > 57.4
|   |   |   |   |   |   |   |   |   |   |   |   |   |   |   startHour <= 11
|   |   |   |   |   |   |   |   |   |   |   |   |   |   |   |   startWeekday <= 6
|   |   |   |   |   |   |   |   |   |   |   |   |   |   |   |   |   cMinPrice <= 15
|   |   |   |   |   |   |   |   |   |   |   |   |   |   |   |   |   |   startHour <= 5
|   |   |   |   |   |   |   |   |   |   |   |   |   |   |   |   |   |   |   startHour <= 0
|   |   |   |   |   |   |   |   |   |   |   |   |   |   |   |   |   |   |   |   cMinPrice <= 7.99: n (2.0)
|   |   |   |   |   |   |   |   |   |   |   |   |   |   |   |   |   |   |   |   cMinPrice > 7.99: y (7.0/2.0)
|   |   |   |   |   |   |   |   |   |   |   |   |   |   |   |   |   |   |   startHour > 0: n (6.0)
|   |   |   |   |   |   |   |   |   |   |   |   |   |   |   |   |   |   startHour > 5
|   |   |   |   |   |   |   |   |   |   |   |   |   |   |   |   |   |   |   startWeekday <= 5: y (83.0/31.0)
|   |   |   |   |   |   |   |   |   |   |   |   |   |   |   |   |   |   |   startWeekday > 5
|   |   |   |   |   |   |   |   |   |   |   |   |   |   |   |   |   |   |   |   lastOrder <= 10
|   |   |   |   |   |   |   |   |   |   |   |   |   |   |   |   |   |   |   |   |   cMinPrice <= 11.49
|   |   |   |   |   |   |   |   |   |   |   |   |   |   |   |   |   |   |   |   |   |   cCount <= 23: y (12.0)
|   |   |   |   |   |   |   |   |   |   |   |   |   |   |   |   |   |   |   |   |   |   cCount > 23
|   |   |   |   |   |   |   |   |   |   |   |   |   |   |   |   |   |   |   |   |   |   |   bMinPrice <= 5.49: n (3.0)
|   |   |   |   |   |   |   |   |   |   |   |   |   |   |   |   |   |   |   |   |   |   |   bMinPrice > 5.49
|   |   |   |   |   |   |   |   |   |   |   |   |   |   |   |   |   |   |   |   |   |   |   |   duration <= 1435.119
|   |   |   |   |   |   |   |   |   |   |   |   |   |   |   |   |   |   |   |   |   |   |   |   |   duration <= 1009.528: y (3.0/1.0)
|   |   |   |   |   |   |   |   |   |   |   |   |   |   |   |   |   |   |   |   |   |   |   |   |   duration > 1009.528: n (4.0)
|   |   |   |   |   |   |   |   |   |   |   |   |   |   |   |   |   |   |   |   |   |   |   |   duration > 1435.119: y (18.0/1.0)
|   |   |   |   |   |   |   |   |   |   |   |   |   |   |   |   |   |   |   |   |   cMinPrice > 11.49
|   |   |   |   |   |   |   |   |   |   |   |   |   |   |   |   |   |   |   |   |   |   startHour <= 10: y (5.0/1.0)
|   |   |   |   |   |   |   |   |   |   |   |   |   |   |   |   |   |   |   |   |   |   startHour > 10: n (5.0)
|   |   |   |   |   |   |   |   |   |   |   |   |   |   |   |   |   |   |   |   lastOrder > 10: y (4.0)
|   |   |   |   |   |   |   |   |   |   |   |   |   |   |   |   |   cMinPrice > 15
|   |   |   |   |   |   |   |   |   |   |   |   |   |   |   |   |   |   cCount <= 26: y (98.0/13.0)
|   |   |   |   |   |   |   |   |   |   |   |   |   |   |   |   |   |   cCount > 26
|   |   |   |   |   |   |   |   |   |   |   |   |   |   |   |   |   |   |   bCount <= 2: n (7.0/1.0)
|   |   |   |   |   |   |   |   |   |   |   |   |   |   |   |   |   |   |   bCount > 2
|   |   |   |   |   |   |   |   |   |   |   |   |   |   |   |   |   |   |   |   duration <= 988.935: n (5.0)
|   |   |   |   |   |   |   |   |   |   |   |   |   |   |   |   |   |   |   |   duration > 988.935: y (26.0/4.0)
|   |   |   |   |   |   |   |   |   |   |   |   |   |   |   |   startWeekday > 6
|   |   |   |   |   |   |   |   |   |   |   |   |   |   |   |   |   bMaxPrice <= 140
|   |   |   |   |   |   |   |   |   |   |   |   |   |   |   |   |   |   bMinPrice <= 9.9
|   |   |   |   |   |   |   |   |   |   |   |   |   |   |   |   |   |   |   bSumPrice <= 75.44
|   |   |   |   |   |   |   |   |   |   |   |   |   |   |   |   |   |   |   |   bSumPrice <= 68.95: n (3.0)
|   |   |   |   |   |   |   |   |   |   |   |   |   |   |   |   |   |   |   |   bSumPrice > 68.95: y (2.0)
|   |   |   |   |   |   |   |   |   |   |   |   |   |   |   |   |   |   |   bSumPrice > 75.44: n (14.0)
|   |   |   |   |   |   |   |   |   |   |   |   |   |   |   |   |   |   bMinPrice > 9.9
|   |   |   |   |   |   |   |   |   |   |   |   |   |   |   |   |   |   |   startHour <= 9
|   |   |   |   |   |   |   |   |   |   |   |   |   |   |   |   |   |   |   |   bSumPrice <= 77.42: n (7.0/1.0)
|   |   |   |   |   |   |   |   |   |   |   |   |   |   |   |   |   |   |   |   bSumPrice > 77.42: y (34.0/9.0)
|   |   |   |   |   |   |   |   |   |   |   |   |   |   |   |   |   |   |   startHour > 9
|   |   |   |   |   |   |   |   |   |   |   |   |   |   |   |   |   |   |   |   startHour <= 10
|   |   |   |   |   |   |   |   |   |   |   |   |   |   |   |   |   |   |   |   |   bSumPrice <= 169.91: n (28.0/1.0)
|   |   |   |   |   |   |   |   |   |   |   |   |   |   |   |   |   |   |   |   |   bSumPrice > 169.91
|   |   |   |   |   |   |   |   |   |   |   |   |   |   |   |   |   |   |   |   |   |   cMaxPrice <= 114.99: y (5.0/1.0)
|   |   |   |   |   |   |   |   |   |   |   |   |   |   |   |   |   |   |   |   |   |   cMaxPrice > 114.99: n (3.0)
|   |   |   |   |   |   |   |   |   |   |   |   |   |   |   |   |   |   |   |   startHour > 10
|   |   |   |   |   |   |   |   |   |   |   |   |   |   |   |   |   |   |   |   |   duration <= 4899.793
|   |   |   |   |   |   |   |   |   |   |   |   |   |   |   |   |   |   |   |   |   |   cSumPrice <= 748.71: y (21.0/9.0)
|   |   |   |   |   |   |   |   |   |   |   |   |   |   |   |   |   |   |   |   |   |   cSumPrice > 748.71: n (7.0)
|   |   |   |   |   |   |   |   |   |   |   |   |   |   |   |   |   |   |   |   |   duration > 4899.793: y (5.0)
|   |   |   |   |   |   |   |   |   |   |   |   |   |   |   |   |   bMaxPrice > 140
|   |   |   |   |   |   |   |   |   |   |   |   |   |   |   |   |   |   startHour <= 9: y (20.0/1.0)
|   |   |   |   |   |   |   |   |   |   |   |   |   |   |   |   |   |   startHour > 9
|   |   |   |   |   |   |   |   |   |   |   |   |   |   |   |   |   |   |   startHour <= 10
|   |   |   |   |   |   |   |   |   |   |   |   |   |   |   |   |   |   |   |   cCount <= 12: y (4.0)
|   |   |   |   |   |   |   |   |   |   |   |   |   |   |   |   |   |   |   |   cCount > 12: n (7.0)
|   |   |   |   |   |   |   |   |   |   |   |   |   |   |   |   |   |   |   startHour > 10
|   |   |   |   |   |   |   |   |   |   |   |   |   |   |   |   |   |   |   |   cCount <= 15
|   |   |   |   |   |   |   |   |   |   |   |   |   |   |   |   |   |   |   |   |   cSumPrice <= 4526.86
|   |   |   |   |   |   |   |   |   |   |   |   |   |   |   |   |   |   |   |   |   |   bMaxPrice <= 419.99: y (3.0)
|   |   |   |   |   |   |   |   |   |   |   |   |   |   |   |   |   |   |   |   |   |   bMaxPrice > 419.99: n (3.0/1.0)
|   |   |   |   |   |   |   |   |   |   |   |   |   |   |   |   |   |   |   |   |   cSumPrice > 4526.86: n (3.0)
|   |   |   |   |   |   |   |   |   |   |   |   |   |   |   |   |   |   |   |   cCount > 15: y (6.0)
|   |   |   |   |   |   |   |   |   |   |   |   |   |   |   startHour > 11
|   |   |   |   |   |   |   |   |   |   |   |   |   |   |   |   cSumPrice <= 2699.97: y (1167.71/301.71)
|   |   |   |   |   |   |   |   |   |   |   |   |   |   |   |   cSumPrice > 2699.97
|   |   |   |   |   |   |   |   |   |   |   |   |   |   |   |   |   bMaxPrice <= 319.99
|   |   |   |   |   |   |   |   |   |   |   |   |   |   |   |   |   |   cMaxPrice <= 239.99
|   |   |   |   |   |   |   |   |   |   |   |   |   |   |   |   |   |   |   startWeekday <= 5
|   |   |   |   |   |   |   |   |   |   |   |   |   |   |   |   |   |   |   |   duration <= 1909.153: n (5.0)
|   |   |   |   |   |   |   |   |   |   |   |   |   |   |   |   |   |   |   |   duration > 1909.153: y (17.0/4.0)
|   |   |   |   |   |   |   |   |   |   |   |   |   |   |   |   |   |   |   startWeekday > 5
|   |   |   |   |   |   |   |   |   |   |   |   |   |   |   |   |   |   |   |   bMinPrice <= 109.95: y (32.0/5.0)
|   |   |   |   |   |   |   |   |   |   |   |   |   |   |   |   |   |   |   |   bMinPrice > 109.95: n (2.0)
|   |   |   |   |   |   |   |   |   |   |   |   |   |   |   |   |   |   cMaxPrice > 239.99
|   |   |   |   |   |   |   |   |   |   |   |   |   |   |   |   |   |   |   startWeekday <= 5
|   |   |   |   |   |   |   |   |   |   |   |   |   |   |   |   |   |   |   |   cSumPrice <= 3423.75: n (8.0)
|   |   |   |   |   |   |   |   |   |   |   |   |   |   |   |   |   |   |   |   cSumPrice > 3423.75
|   |   |   |   |   |   |   |   |   |   |   |   |   |   |   |   |   |   |   |   |   startHour <= 21
|   |   |   |   |   |   |   |   |   |   |   |   |   |   |   |   |   |   |   |   |   |   cCount <= 43
|   |   |   |   |   |   |   |   |   |   |   |   |   |   |   |   |   |   |   |   |   |   |   bCount <= 4
|   |   |   |   |   |   |   |   |   |   |   |   |   |   |   |   |   |   |   |   |   |   |   |   cSumPrice <= 7943.86: y (5.0/1.0)
|   |   |   |   |   |   |   |   |   |   |   |   |   |   |   |   |   |   |   |   |   |   |   |   cSumPrice > 7943.86: n (3.0)
|   |   |   |   |   |   |   |   |   |   |   |   |   |   |   |   |   |   |   |   |   |   |   bCount > 4: n (3.0)
|   |   |   |   |   |   |   |   |   |   |   |   |   |   |   |   |   |   |   |   |   |   cCount > 43: y (4.0)
|   |   |   |   |   |   |   |   |   |   |   |   |   |   |   |   |   |   |   |   |   startHour > 21: n (3.0)
|   |   |   |   |   |   |   |   |   |   |   |   |   |   |   |   |   |   |   startWeekday > 5
|   |   |   |   |   |   |   |   |   |   |   |   |   |   |   |   |   |   |   |   bCount <= 5: n (54.0/23.0)
|   |   |   |   |   |   |   |   |   |   |   |   |   |   |   |   |   |   |   |   bCount > 5: y (7.0/2.0)
|   |   |   |   |   |   |   |   |   |   |   |   |   |   |   |   |   bMaxPrice > 319.99
|   |   |   |   |   |   |   |   |   |   |   |   |   |   |   |   |   |   cSumPrice <= 16431.46: y (163.0/42.0)
|   |   |   |   |   |   |   |   |   |   |   |   |   |   |   |   |   |   cSumPrice > 16431.46
|   |   |   |   |   |   |   |   |   |   |   |   |   |   |   |   |   |   |   bCount <= 3
|   |   |   |   |   |   |   |   |   |   |   |   |   |   |   |   |   |   |   |   startHour <= 18
|   |   |   |   |   |   |   |   |   |   |   |   |   |   |   |   |   |   |   |   |   bCount <= 2
|   |   |   |   |   |   |   |   |   |   |   |   |   |   |   |   |   |   |   |   |   |   startWeekday <= 6: n (6.0)
|   |   |   |   |   |   |   |   |   |   |   |   |   |   |   |   |   |   |   |   |   |   startWeekday > 6
|   |   |   |   |   |   |   |   |   |   |   |   |   |   |   |   |   |   |   |   |   |   |   duration <= 3630.078: n (2.0)
|   |   |   |   |   |   |   |   |   |   |   |   |   |   |   |   |   |   |   |   |   |   |   duration > 3630.078: y (2.0)
|   |   |   |   |   |   |   |   |   |   |   |   |   |   |   |   |   |   |   |   |   bCount > 2
|   |   |   |   |   |   |   |   |   |   |   |   |   |   |   |   |   |   |   |   |   |   bMaxPrice <= 699.99: y (2.0)
|   |   |   |   |   |   |   |   |   |   |   |   |   |   |   |   |   |   |   |   |   |   bMaxPrice > 699.99
|   |   |   |   |   |   |   |   |   |   |   |   |   |   |   |   |   |   |   |   |   |   |   cCount <= 19: y (2.0)
|   |   |   |   |   |   |   |   |   |   |   |   |   |   |   |   |   |   |   |   |   |   |   cCount > 19: n (2.0)
|   |   |   |   |   |   |   |   |   |   |   |   |   |   |   |   |   |   |   |   startHour > 18: y (4.0)
|   |   |   |   |   |   |   |   |   |   |   |   |   |   |   |   |   |   |   bCount > 3: n (8.0/1.0)
|   |   |   |   |   |   |   |   |   |   |   |   lastOrder > 16
|   |   |   |   |   |   |   |   |   |   |   |   |   maxVal <= 600: y (43.0/2.0)
|   |   |   |   |   |   |   |   |   |   |   |   |   maxVal > 600: n (4.0/1.0)
|   |   |   |   |   |   |   |   |   |   bCount > 6
|   |   |   |   |   |   |   |   |   |   |   duration <= 15103.944
|   |   |   |   |   |   |   |   |   |   |   |   startHour <= 10
|   |   |   |   |   |   |   |   |   |   |   |   |   startHour <= 8
|   |   |   |   |   |   |   |   |   |   |   |   |   |   bMinPrice <= 5.49
|   |   |   |   |   |   |   |   |   |   |   |   |   |   |   duration <= 1486.788: n (4.0)
|   |   |   |   |   |   |   |   |   |   |   |   |   |   |   duration > 1486.788
|   |   |   |   |   |   |   |   |   |   |   |   |   |   |   |   cCount <= 77: y (9.0)
|   |   |   |   |   |   |   |   |   |   |   |   |   |   |   |   cCount > 77
|   |   |   |   |   |   |   |   |   |   |   |   |   |   |   |   |   cMaxPrice <= 74.99: n (6.0/1.0)
|   |   |   |   |   |   |   |   |   |   |   |   |   |   |   |   |   cMaxPrice > 74.99: y (4.0)
|   |   |   |   |   |   |   |   |   |   |   |   |   |   bMinPrice > 5.49: y (52.0/5.0)
|   |   |   |   |   |   |   |   |   |   |   |   |   startHour > 8
|   |   |   |   |   |   |   |   |   |   |   |   |   |   cCount <= 112
|   |   |   |   |   |   |   |   |   |   |   |   |   |   |   startHour <= 9: y (48.0/16.0)
|   |   |   |   |   |   |   |   |   |   |   |   |   |   |   startHour > 9
|   |   |   |   |   |   |   |   |   |   |   |   |   |   |   |   bMinPrice <= 6: y (6.0)
|   |   |   |   |   |   |   |   |   |   |   |   |   |   |   |   bMinPrice > 6
|   |   |   |   |   |   |   |   |   |   |   |   |   |   |   |   |   cSumPrice <= 1759.84
|   |   |   |   |   |   |   |   |   |   |   |   |   |   |   |   |   |   bMinPrice <= 8.49: n (3.0)
|   |   |   |   |   |   |   |   |   |   |   |   |   |   |   |   |   |   bMinPrice > 8.49
|   |   |   |   |   |   |   |   |   |   |   |   |   |   |   |   |   |   |   cMinPrice <= 9.49: y (3.0)
|   |   |   |   |   |   |   |   |   |   |   |   |   |   |   |   |   |   |   cMinPrice > 9.49
|   |   |   |   |   |   |   |   |   |   |   |   |   |   |   |   |   |   |   |   cSumPrice <= 820.22: n (6.0/1.0)
|   |   |   |   |   |   |   |   |   |   |   |   |   |   |   |   |   |   |   |   cSumPrice > 820.22: y (4.0)
|   |   |   |   |   |   |   |   |   |   |   |   |   |   |   |   |   cSumPrice > 1759.84: n (9.0)
|   |   |   |   |   |   |   |   |   |   |   |   |   |   cCount > 112: y (11.0)
|   |   |   |   |   |   |   |   |   |   |   |   startHour > 10: y (654.0/109.0)
|   |   |   |   |   |   |   |   |   |   |   duration > 15103.944
|   |   |   |   |   |   |   |   |   |   |   |   startHour <= 18
|   |   |   |   |   |   |   |   |   |   |   |   |   startWeekday <= 5
|   |   |   |   |   |   |   |   |   |   |   |   |   |   bCount <= 16
|   |   |   |   |   |   |   |   |   |   |   |   |   |   |   cSumPrice <= 2359.45: y (2.0)
|   |   |   |   |   |   |   |   |   |   |   |   |   |   |   cSumPrice > 2359.45: n (3.0)
|   |   |   |   |   |   |   |   |   |   |   |   |   |   bCount > 16: y (2.0)
|   |   |   |   |   |   |   |   |   |   |   |   |   startWeekday > 5
|   |   |   |   |   |   |   |   |   |   |   |   |   |   bCount <= 9: y (4.0/1.0)
|   |   |   |   |   |   |   |   |   |   |   |   |   |   bCount > 9: n (13.0/1.0)
|   |   |   |   |   |   |   |   |   |   |   |   startHour > 18: y (3.0)
|   |   |   |   |   |   |   |   |   onlineStatus = n: y (33.85/2.85)
|   |   accountLifetime > 5
|   |   |   bSumPrice <= 30.94
|   |   |   |   cCount <= 3: y (618.31/94.06)
|   |   |   |   cCount > 3
|   |   |   |   |   duration <= 292.737
|   |   |   |   |   |   cCount <= 6
|   |   |   |   |   |   |   bCount <= 1
|   |   |   |   |   |   |   |   startWeekday <= 6
|   |   |   |   |   |   |   |   |   lastOrder <= 180
|   |   |   |   |   |   |   |   |   |   duration <= 145.06
|   |   |   |   |   |   |   |   |   |   |   cCount <= 4
|   |   |   |   |   |   |   |   |   |   |   |   startWeekday <= 5
|   |   |   |   |   |   |   |   |   |   |   |   |   lastOrder <= 46: y (4.0)
|   |   |   |   |   |   |   |   |   |   |   |   |   lastOrder > 46: n (4.0)
|   |   |   |   |   |   |   |   |   |   |   |   startWeekday > 5: n (7.17/1.17)
|   |   |   |   |   |   |   |   |   |   |   cCount > 4: n (24.0/3.0)
|   |   |   |   |   |   |   |   |   |   duration > 145.06
|   |   |   |   |   |   |   |   |   |   |   bMinPrice <= 10.36
|   |   |   |   |   |   |   |   |   |   |   |   cMaxPrice <= 9.99
|   |   |   |   |   |   |   |   |   |   |   |   |   age <= 42: y (3.0)
|   |   |   |   |   |   |   |   |   |   |   |   |   age > 42
|   |   |   |   |   |   |   |   |   |   |   |   |   |   duration <= 233.957: n (6.0)
|   |   |   |   |   |   |   |   |   |   |   |   |   |   duration > 233.957: y (2.0)
|   |   |   |   |   |   |   |   |   |   |   |   cMaxPrice > 9.99: n (8.04/0.04)
|   |   |   |   |   |   |   |   |   |   |   bMinPrice > 10.36
|   |   |   |   |   |   |   |   |   |   |   |   cCount <= 4: y (25.13/4.0)
|   |   |   |   |   |   |   |   |   |   |   |   cCount > 4
|   |   |   |   |   |   |   |   |   |   |   |   |   startWeekday <= 5
|   |   |   |   |   |   |   |   |   |   |   |   |   |   cCount <= 5
|   |   |   |   |   |   |   |   |   |   |   |   |   |   |   payments <= 13: n (6.0)
|   |   |   |   |   |   |   |   |   |   |   |   |   |   |   payments > 13: y (3.0)
|   |   |   |   |   |   |   |   |   |   |   |   |   |   cCount > 5
|   |   |   |   |   |   |   |   |   |   |   |   |   |   |   cSumPrice <= 126.98: y (7.0/1.0)
|   |   |   |   |   |   |   |   |   |   |   |   |   |   |   cSumPrice > 126.98: n (3.0)
|   |   |   |   |   |   |   |   |   |   |   |   |   startWeekday > 5: y (25.0/6.0)
|   |   |   |   |   |   |   |   |   lastOrder > 180: y (12.17/0.17)
|   |   |   |   |   |   |   |   startWeekday > 6
|   |   |   |   |   |   |   |   |   cSumPrice <= 115.97
|   |   |   |   |   |   |   |   |   |   customerScore <= 517
|   |   |   |   |   |   |   |   |   |   |   cMaxPrice <= 10.99: y (5.0)
|   |   |   |   |   |   |   |   |   |   |   cMaxPrice > 10.99: n (20.0/3.0)
|   |   |   |   |   |   |   |   |   |   customerScore > 517: n (32.0/5.0)
|   |   |   |   |   |   |   |   |   cSumPrice > 115.97: y (10.0/4.0)
|   |   |   |   |   |   |   bCount > 1
|   |   |   |   |   |   |   |   startHour <= 19
|   |   |   |   |   |   |   |   |   age <= 30: n (3.17)
|   |   |   |   |   |   |   |   |   age > 30: y (72.0/10.0)
|   |   |   |   |   |   |   |   startHour > 19: n (8.0/1.0)
|   |   |   |   |   |   cCount > 6
|   |   |   |   |   |   |   bCount <= 2
|   |   |   |   |   |   |   |   cMinPrice <= 8: n (66.12/5.0)
|   |   |   |   |   |   |   |   cMinPrice > 8
|   |   |   |   |   |   |   |   |   duration <= 148.173: n (16.23)
|   |   |   |   |   |   |   |   |   duration > 148.173
|   |   |   |   |   |   |   |   |   |   bCount <= 1: n (82.17/27.0)
|   |   |   |   |   |   |   |   |   |   bCount > 1
|   |   |   |   |   |   |   |   |   |   |   cCount <= 8: y (14.0/2.0)
|   |   |   |   |   |   |   |   |   |   |   cCount > 8
|   |   |   |   |   |   |   |   |   |   |   |   cSumPrice <= 103.92: y (2.0)
|   |   |   |   |   |   |   |   |   |   |   |   cSumPrice > 103.92: n (13.0/2.0)
|   |   |   |   |   |   |   bCount > 2
|   |   |   |   |   |   |   |   bCount <= 3
|   |   |   |   |   |   |   |   |   startWeekday <= 5: n (5.0/1.0)
|   |   |   |   |   |   |   |   |   startWeekday > 5
|   |   |   |   |   |   |   |   |   |   accountLifetime <= 121: y (9.0)
|   |   |   |   |   |   |   |   |   |   accountLifetime > 121
|   |   |   |   |   |   |   |   |   |   |   maxVal <= 3700: n (4.0)
|   |   |   |   |   |   |   |   |   |   |   maxVal > 3700: y (4.0/1.0)
|   |   |   |   |   |   |   |   bCount > 3: n (5.0/1.0)
|   |   |   |   |   duration > 292.737
|   |   |   |   |   |   bSumPrice <= 19.95
|   |   |   |   |   |   |   cCount <= 8
|   |   |   |   |   |   |   |   bCount <= 1
|   |   |   |   |   |   |   |   |   cMinPrice <= 8
|   |   |   |   |   |   |   |   |   |   payments <= 34
|   |   |   |   |   |   |   |   |   |   |   startWeekday <= 6
|   |   |   |   |   |   |   |   |   |   |   |   cCount <= 4: n (3.07)
|   |   |   |   |   |   |   |   |   |   |   |   cCount > 4
|   |   |   |   |   |   |   |   |   |   |   |   |   lastOrder <= 122
|   |   |   |   |   |   |   |   |   |   |   |   |   |   cCount <= 7
|   |   |   |   |   |   |   |   |   |   |   |   |   |   |   cMinPrice <= 3.49: n (3.0)
|   |   |   |   |   |   |   |   |   |   |   |   |   |   |   cMinPrice > 3.49
|   |   |   |   |   |   |   |   |   |   |   |   |   |   |   |   startWeekday <= 5
|   |   |   |   |   |   |   |   |   |   |   |   |   |   |   |   |   cCount <= 5: y (3.0)
|   |   |   |   |   |   |   |   |   |   |   |   |   |   |   |   |   cCount > 5: n (3.07)
|   |   |   |   |   |   |   |   |   |   |   |   |   |   |   |   startWeekday > 5
|   |   |   |   |   |   |   |   |   |   |   |   |   |   |   |   |   accountLifetime <= 210: y (5.0)
|   |   |   |   |   |   |   |   |   |   |   |   |   |   |   |   |   accountLifetime > 210: n (2.0)
|   |   |   |   |   |   |   |   |   |   |   |   |   |   cCount > 7: y (3.0)
|   |   |   |   |   |   |   |   |   |   |   |   |   lastOrder > 122: n (4.07)
|   |   |   |   |   |   |   |   |   |   |   startWeekday > 6
|   |   |   |   |   |   |   |   |   |   |   |   customerScore <= 478: y (2.0)
|   |   |   |   |   |   |   |   |   |   |   |   customerScore > 478: n (11.0/1.0)
|   |   |   |   |   |   |   |   |   |   payments > 34: y (4.0)
|   |   |   |   |   |   |   |   |   cMinPrice > 8
|   |   |   |   |   |   |   |   |   |   cSumPrice <= 84.89
|   |   |   |   |   |   |   |   |   |   |   startWeekday <= 6
|   |   |   |   |   |   |   |   |   |   |   |   lastOrder <= 368: y (54.42/5.14)
|   |   |   |   |   |   |   |   |   |   |   |   lastOrder > 368: n (4.07/1.0)
|   |   |   |   |   |   |   |   |   |   |   startWeekday > 6
|   |   |   |   |   |   |   |   |   |   |   |   bMinPrice <= 15.49
|   |   |   |   |   |   |   |   |   |   |   |   |   payments <= 7
|   |   |   |   |   |   |   |   |   |   |   |   |   |   payments <= 5
|   |   |   |   |   |   |   |   |   |   |   |   |   |   |   cMaxPrice <= 12.49: y (5.0)
|   |   |   |   |   |   |   |   |   |   |   |   |   |   |   cMaxPrice > 12.49: n (4.0/1.0)
|   |   |   |   |   |   |   |   |   |   |   |   |   |   payments > 5: n (4.0)
|   |   |   |   |   |   |   |   |   |   |   |   |   payments > 7: y (5.0)
|   |   |   |   |   |   |   |   |   |   |   |   bMinPrice > 15.49: y (10.0)
|   |   |   |   |   |   |   |   |   |   cSumPrice > 84.89
|   |   |   |   |   |   |   |   |   |   |   lastOrder <= 118
|   |   |   |   |   |   |   |   |   |   |   |   cCount <= 7
|   |   |   |   |   |   |   |   |   |   |   |   |   accountLifetime <= 220: n (22.7/5.14)
|   |   |   |   |   |   |   |   |   |   |   |   |   accountLifetime > 220
|   |   |   |   |   |   |   |   |   |   |   |   |   |   cMaxPrice <= 37.49
|   |   |   |   |   |   |   |   |   |   |   |   |   |   |   cMaxPrice <= 18.99: y (2.0)
|   |   |   |   |   |   |   |   |   |   |   |   |   |   |   cMaxPrice > 18.99: n (2.07/0.07)
|   |   |   |   |   |   |   |   |   |   |   |   |   |   cMaxPrice > 37.49: y (7.07/0.07)
|   |   |   |   |   |   |   |   |   |   |   |   cCount > 7
|   |   |   |   |   |   |   |   |   |   |   |   |   startHour <= 11: n (3.0/1.0)
|   |   |   |   |   |   |   |   |   |   |   |   |   startHour > 11: y (6.07)
|   |   |   |   |   |   |   |   |   |   |   lastOrder > 118: y (9.0)
|   |   |   |   |   |   |   |   bCount > 1
|   |   |   |   |   |   |   |   |   bCount <= 2
|   |   |   |   |   |   |   |   |   |   cMaxPrice <= 19
|   |   |   |   |   |   |   |   |   |   |   cSumPrice <= 65.92
|   |   |   |   |   |   |   |   |   |   |   |   bMinPrice <= 4.39
|   |   |   |   |   |   |   |   |   |   |   |   |   customerScore <= 541: y (7.0/1.0)
|   |   |   |   |   |   |   |   |   |   |   |   |   customerScore > 541: n (7.0/2.0)
|   |   |   |   |   |   |   |   |   |   |   |   bMinPrice > 4.39: y (16.0)
|   |   |   |   |   |   |   |   |   |   |   cSumPrice > 65.92: n (3.0)
|   |   |   |   |   |   |   |   |   |   cMaxPrice > 19: y (11.0)
|   |   |   |   |   |   |   |   |   bCount > 2
|   |   |   |   |   |   |   |   |   |   age <= 35: n (2.07)
|   |   |   |   |   |   |   |   |   |   age > 35: y (9.0)
|   |   |   |   |   |   |   cCount > 8
|   |   |   |   |   |   |   |   onlineStatus = y
|   |   |   |   |   |   |   |   |   bSumPrice <= 10.98
|   |   |   |   |   |   |   |   |   |   bCount <= 2
|   |   |   |   |   |   |   |   |   |   |   bCount <= 1: n (187.69/69.44)
|   |   |   |   |   |   |   |   |   |   |   bCount > 1
|   |   |   |   |   |   |   |   |   |   |   |   duration <= 2013.857
|   |   |   |   |   |   |   |   |   |   |   |   |   startHour <= 20: n (27.0/3.0)
|   |   |   |   |   |   |   |   |   |   |   |   |   startHour > 20: y (2.0)
|   |   |   |   |   |   |   |   |   |   |   |   duration > 2013.857: y (5.03)
|   |   |   |   |   |   |   |   |   |   bCount > 2
|   |   |   |   |   |   |   |   |   |   |   payments <= 31
|   |   |   |   |   |   |   |   |   |   |   |   cCount <= 18: y (3.05)
|   |   |   |   |   |   |   |   |   |   |   |   cCount > 18
|   |   |   |   |   |   |   |   |   |   |   |   |   startWeekday <= 6: n (3.0)
|   |   |   |   |   |   |   |   |   |   |   |   |   startWeekday > 6
|   |   |   |   |   |   |   |   |   |   |   |   |   |   customerScore <= 541: y (2.0)
|   |   |   |   |   |   |   |   |   |   |   |   |   |   customerScore > 541: n (2.03)
|   |   |   |   |   |   |   |   |   |   |   payments > 31: y (6.05)
|   |   |   |   |   |   |   |   |   bSumPrice > 10.98
|   |   |   |   |   |   |   |   |   |   cMaxPrice <= 17.95: y (109.38/34.19)
|   |   |   |   |   |   |   |   |   |   cMaxPrice > 17.95
|   |   |   |   |   |   |   |   |   |   |   duration <= 723.59
|   |   |   |   |   |   |   |   |   |   |   |   cMinPrice <= 7.57
|   |   |   |   |   |   |   |   |   |   |   |   |   bMinPrice <= 3.99
|   |   |   |   |   |   |   |   |   |   |   |   |   |   bSumPrice <= 17.36: y (2.01/0.0)
|   |   |   |   |   |   |   |   |   |   |   |   |   |   bSumPrice > 17.36: n (3.01/0.01)
|   |   |   |   |   |   |   |   |   |   |   |   |   bMinPrice > 3.99: n (19.05/0.04)
|   |   |   |   |   |   |   |   |   |   |   |   cMinPrice > 7.57
|   |   |   |   |   |   |   |   |   |   |   |   |   bCount <= 1
|   |   |   |   |   |   |   |   |   |   |   |   |   |   accountLifetime <= 165
|   |   |   |   |   |   |   |   |   |   |   |   |   |   |   bMinPrice <= 18.9: y (17.09/5.05)
|   |   |   |   |   |   |   |   |   |   |   |   |   |   |   bMinPrice > 18.9: n (4.02/1.01)
|   |   |   |   |   |   |   |   |   |   |   |   |   |   accountLifetime > 165
|   |   |   |   |   |   |   |   |   |   |   |   |   |   |   duration <= 604.346: n (13.0)
|   |   |   |   |   |   |   |   |   |   |   |   |   |   |   duration > 604.346: y (3.04/1.04)
|   |   |   |   |   |   |   |   |   |   |   |   |   bCount > 1
|   |   |   |   |   |   |   |   |   |   |   |   |   |   lastOrder <= 53: n (2.04/0.04)
|   |   |   |   |   |   |   |   |   |   |   |   |   |   lastOrder > 53: y (2.02)
|   |   |   |   |   |   |   |   |   |   |   duration > 723.59
|   |   |   |   |   |   |   |   |   |   |   |   maxVal <= 3400
|   |   |   |   |   |   |   |   |   |   |   |   |   startHour <= 14
|   |   |   |   |   |   |   |   |   |   |   |   |   |   lastOrder <= 79
|   |   |   |   |   |   |   |   |   |   |   |   |   |   |   duration <= 2222.092
|   |   |   |   |   |   |   |   |   |   |   |   |   |   |   |   startWeekday <= 6
|   |   |   |   |   |   |   |   |   |   |   |   |   |   |   |   |   bMaxPrice <= 9.2: y (4.09/0.09)
|   |   |   |   |   |   |   |   |   |   |   |   |   |   |   |   |   bMaxPrice > 9.2
|   |   |   |   |   |   |   |   |   |   |   |   |   |   |   |   |   |   cCount <= 20
|   |   |   |   |   |   |   |   |   |   |   |   |   |   |   |   |   |   |   maxVal <= 1300: y (6.06/1.06)
|   |   |   |   |   |   |   |   |   |   |   |   |   |   |   |   |   |   |   maxVal > 1300: n (2.06)
|   |   |   |   |   |   |   |   |   |   |   |   |   |   |   |   |   |   cCount > 20: n (4.13)
|   |   |   |   |   |   |   |   |   |   |   |   |   |   |   |   startWeekday > 6
|   |   |   |   |   |   |   |   |   |   |   |   |   |   |   |   |   lastOrder <= 17
|   |   |   |   |   |   |   |   |   |   |   |   |   |   |   |   |   |   cCount <= 18: y (3.0)
|   |   |   |   |   |   |   |   |   |   |   |   |   |   |   |   |   |   cCount > 18: n (3.04/1.0)
|   |   |   |   |   |   |   |   |   |   |   |   |   |   |   |   |   lastOrder > 17: n (10.0/1.0)
|   |   |   |   |   |   |   |   |   |   |   |   |   |   |   duration > 2222.092: n (19.52/1.09)
|   |   |   |   |   |   |   |   |   |   |   |   |   |   lastOrder > 79
|   |   |   |   |   |   |   |   |   |   |   |   |   |   |   bCount <= 1
|   |   |   |   |   |   |   |   |   |   |   |   |   |   |   |   payments <= 8: y (7.09/1.09)
|   |   |   |   |   |   |   |   |   |   |   |   |   |   |   |   payments > 8: n (2.3/0.04)
|   |   |   |   |   |   |   |   |   |   |   |   |   |   |   bCount > 1: y (5.04/0.04)
|   |   |   |   |   |   |   |   |   |   |   |   |   startHour > 14
|   |   |   |   |   |   |   |   |   |   |   |   |   |   cSumPrice <= 291.63
|   |   |   |   |   |   |   |   |   |   |   |   |   |   |   cMinPrice <= 9.99: y (32.04/4.04)
|   |   |   |   |   |   |   |   |   |   |   |   |   |   |   cMinPrice > 9.99
|   |   |   |   |   |   |   |   |   |   |   |   |   |   |   |   payments <= 4: y (3.09)
|   |   |   |   |   |   |   |   |   |   |   |   |   |   |   |   payments > 4: n (6.09/1.0)
|   |   |   |   |   |   |   |   |   |   |   |   |   |   cSumPrice > 291.63
|   |   |   |   |   |   |   |   |   |   |   |   |   |   |   bMaxPrice <= 18.36
|   |   |   |   |   |   |   |   |   |   |   |   |   |   |   |   bCount <= 1: n (29.28/8.08)
|   |   |   |   |   |   |   |   |   |   |   |   |   |   |   |   bCount > 1
|   |   |   |   |   |   |   |   |   |   |   |   |   |   |   |   |   duration <= 3712.741
|   |   |   |   |   |   |   |   |   |   |   |   |   |   |   |   |   |   payments <= 11: n (6.0)
|   |   |   |   |   |   |   |   |   |   |   |   |   |   |   |   |   |   payments > 11
|   |   |   |   |   |   |   |   |   |   |   |   |   |   |   |   |   |   |   maxVal <= 2300: y (7.0/1.0)
|   |   |   |   |   |   |   |   |   |   |   |   |   |   |   |   |   |   |   maxVal > 2300: n (2.0)
|   |   |   |   |   |   |   |   |   |   |   |   |   |   |   |   |   duration > 3712.741: y (5.0)
|   |   |   |   |   |   |   |   |   |   |   |   |   |   |   bMaxPrice > 18.36: y (4.11/0.1)
|   |   |   |   |   |   |   |   |   |   |   |   maxVal > 3400
|   |   |   |   |   |   |   |   |   |   |   |   |   cCount <= 26: y (20.33/0.22)
|   |   |   |   |   |   |   |   |   |   |   |   |   cCount > 26
|   |   |   |   |   |   |   |   |   |   |   |   |   |   age <= 51
|   |   |   |   |   |   |   |   |   |   |   |   |   |   |   bSumPrice <= 12.9: n (4.1/0.03)
|   |   |   |   |   |   |   |   |   |   |   |   |   |   |   bSumPrice > 12.9
|   |   |   |   |   |   |   |   |   |   |   |   |   |   |   |   bMinPrice <= 6.9: y (5.13/0.09)
|   |   |   |   |   |   |   |   |   |   |   |   |   |   |   |   bMinPrice > 6.9
|   |   |   |   |   |   |   |   |   |   |   |   |   |   |   |   |   cSumPrice <= 929.97: n (4.03)
|   |   |   |   |   |   |   |   |   |   |   |   |   |   |   |   |   cSumPrice > 929.97: y (2.12/0.07)
|   |   |   |   |   |   |   |   |   |   |   |   |   |   age > 51: y (7.22/0.22)
|   |   |   |   |   |   |   |   onlineStatus = n: y (3.0)
|   |   |   |   |   |   bSumPrice > 19.95
|   |   |   |   |   |   |   bCount <= 1
|   |   |   |   |   |   |   |   startHour <= 11
|   |   |   |   |   |   |   |   |   startWeekday <= 6
|   |   |   |   |   |   |   |   |   |   startHour <= 10
|   |   |   |   |   |   |   |   |   |   |   cCount <= 13
|   |   |   |   |   |   |   |   |   |   |   |   startWeekday <= 5
|   |   |   |   |   |   |   |   |   |   |   |   |   customerScore <= 465: y (8.0)
|   |   |   |   |   |   |   |   |   |   |   |   |   customerScore > 465
|   |   |   |   |   |   |   |   |   |   |   |   |   |   customerScore <= 497: n (4.0)
|   |   |   |   |   |   |   |   |   |   |   |   |   |   customerScore > 497: y (9.2/1.2)
|   |   |   |   |   |   |   |   |   |   |   |   startWeekday > 5: y (25.2/7.2)
|   |   |   |   |   |   |   |   |   |   |   cCount > 13
|   |   |   |   |   |   |   |   |   |   |   |   startHour <= 9
|   |   |   |   |   |   |   |   |   |   |   |   |   cCount <= 16: n (5.0)
|   |   |   |   |   |   |   |   |   |   |   |   |   cCount > 16
|   |   |   |   |   |   |   |   |   |   |   |   |   |   lastOrder <= 21: n (6.3/1.0)
|   |   |   |   |   |   |   |   |   |   |   |   |   |   lastOrder > 21: y (10.4/2.4)
|   |   |   |   |   |   |   |   |   |   |   |   startHour > 9: n (4.4)
|   |   |   |   |   |   |   |   |   |   startHour > 10
|   |   |   |   |   |   |   |   |   |   |   cMaxPrice <= 64.95: y (18.2/0.2)
|   |   |   |   |   |   |   |   |   |   |   cMaxPrice > 64.95
|   |   |   |   |   |   |   |   |   |   |   |   customerScore <= 485: n (2.3)
|   |   |   |   |   |   |   |   |   |   |   |   customerScore > 485: y (3.3/0.3)
|   |   |   |   |   |   |   |   |   startWeekday > 6
|   |   |   |   |   |   |   |   |   |   startHour <= 9
|   |   |   |   |   |   |   |   |   |   |   payments <= 4: y (7.0)
|   |   |   |   |   |   |   |   |   |   |   payments > 4
|   |   |   |   |   |   |   |   |   |   |   |   startHour <= 8
|   |   |   |   |   |   |   |   |   |   |   |   |   accountLifetime <= 129: n (6.1/1.0)
|   |   |   |   |   |   |   |   |   |   |   |   |   accountLifetime > 129
|   |   |   |   |   |   |   |   |   |   |   |   |   |   duration <= 1429.584: y (9.0)
|   |   |   |   |   |   |   |   |   |   |   |   |   |   duration > 1429.584: n (2.0)
|   |   |   |   |   |   |   |   |   |   |   |   startHour > 8: n (5.2/0.1)
|   |   |   |   |   |   |   |   |   |   startHour > 9: n (35.1/4.1)
|   |   |   |   |   |   |   |   startHour > 11
|   |   |   |   |   |   |   |   |   cCount <= 6
|   |   |   |   |   |   |   |   |   |   cSumPrice <= 87.96
|   |   |   |   |   |   |   |   |   |   |   cCount <= 4
|   |   |   |   |   |   |   |   |   |   |   |   customerScore <= 511: n (4.1/1.0)
|   |   |   |   |   |   |   |   |   |   |   |   customerScore > 511: y (9.1)
|   |   |   |   |   |   |   |   |   |   |   cCount > 4
|   |   |   |   |   |   |   |   |   |   |   |   accountLifetime <= 60: n (5.0)
|   |   |   |   |   |   |   |   |   |   |   |   accountLifetime > 60
|   |   |   |   |   |   |   |   |   |   |   |   |   cMinPrice <= 25.2: y (6.3/0.1)
|   |   |   |   |   |   |   |   |   |   |   |   |   cMinPrice > 25.2: n (2.1/0.1)
|   |   |   |   |   |   |   |   |   |   cSumPrice > 87.96: y (77.61/6.4)
|   |   |   |   |   |   |   |   |   cCount > 6
|   |   |   |   |   |   |   |   |   |   bMinPrice <= 22.36
|   |   |   |   |   |   |   |   |   |   |   lastOrder <= 5: n (7.03/1.0)
|   |   |   |   |   |   |   |   |   |   |   lastOrder > 5
|   |   |   |   |   |   |   |   |   |   |   |   bMinPrice <= 19.99
|   |   |   |   |   |   |   |   |   |   |   |   |   maxVal <= 5500: y (76.3/24.89)
|   |   |   |   |   |   |   |   |   |   |   |   |   maxVal > 5500: n (4.15/0.06)
|   |   |   |   |   |   |   |   |   |   |   |   bMinPrice > 19.99
|   |   |   |   |   |   |   |   |   |   |   |   |   duration <= 528.825: y (2.01/0.0)
|   |   |   |   |   |   |   |   |   |   |   |   |   duration > 528.825: n (3.15/0.03)
|   |   |   |   |   |   |   |   |   |   bMinPrice > 22.36
|   |   |   |   |   |   |   |   |   |   |   cMaxPrice <= 59.99: y (143.31/26.64)
|   |   |   |   |   |   |   |   |   |   |   cMaxPrice > 59.99
|   |   |   |   |   |   |   |   |   |   |   |   bCount <= 0: n (3.21/0.3)
|   |   |   |   |   |   |   |   |   |   |   |   bCount > 0
|   |   |   |   |   |   |   |   |   |   |   |   |   startWeekday <= 5
|   |   |   |   |   |   |   |   |   |   |   |   |   |   lastOrder <= 26: y (3.0)
|   |   |   |   |   |   |   |   |   |   |   |   |   |   lastOrder > 26: n (7.0/1.0)
|   |   |   |   |   |   |   |   |   |   |   |   |   startWeekday > 5
|   |   |   |   |   |   |   |   |   |   |   |   |   |   startWeekday <= 6
|   |   |   |   |   |   |   |   |   |   |   |   |   |   |   maxVal <= 1900: y (24.07/4.0)
|   |   |   |   |   |   |   |   |   |   |   |   |   |   |   maxVal > 1900
|   |   |   |   |   |   |   |   |   |   |   |   |   |   |   |   maxVal <= 3400: n (4.07)
|   |   |   |   |   |   |   |   |   |   |   |   |   |   |   |   maxVal > 3400: y (4.0/1.0)
|   |   |   |   |   |   |   |   |   |   |   |   |   |   startWeekday > 6
|   |   |   |   |   |   |   |   |   |   |   |   |   |   |   maxVal <= 900
|   |   |   |   |   |   |   |   |   |   |   |   |   |   |   |   cMaxPrice <= 84.95: y (4.0/1.0)
|   |   |   |   |   |   |   |   |   |   |   |   |   |   |   |   cMaxPrice > 84.95: n (4.0)
|   |   |   |   |   |   |   |   |   |   |   |   |   |   |   maxVal > 900: y (4.07)
|   |   |   |   |   |   |   bCount > 1
|   |   |   |   |   |   |   |   cSumPrice <= 1130.23
|   |   |   |   |   |   |   |   |   startWeekday <= 6: y (461.4/83.1)
|   |   |   |   |   |   |   |   |   startWeekday > 6
|   |   |   |   |   |   |   |   |   |   startHour <= 10
|   |   |   |   |   |   |   |   |   |   |   startHour <= 9: y (20.1/2.0)
|   |   |   |   |   |   |   |   |   |   |   startHour > 9
|   |   |   |   |   |   |   |   |   |   |   |   maxVal <= 1900
|   |   |   |   |   |   |   |   |   |   |   |   |   duration <= 1746.554: y (6.0/1.0)
|   |   |   |   |   |   |   |   |   |   |   |   |   duration > 1746.554: n (2.1)
|   |   |   |   |   |   |   |   |   |   |   |   maxVal > 1900: n (10.0)
|   |   |   |   |   |   |   |   |   |   startHour > 10
|   |   |   |   |   |   |   |   |   |   |   cMaxPrice <= 14.99: y (56.0/3.0)
|   |   |   |   |   |   |   |   |   |   |   cMaxPrice > 14.99
|   |   |   |   |   |   |   |   |   |   |   |   cMaxPrice <= 15.96: n (5.0/1.0)
|   |   |   |   |   |   |   |   |   |   |   |   cMaxPrice > 15.96
|   |   |   |   |   |   |   |   |   |   |   |   |   cSumPrice <= 154.17: y (17.0)
|   |   |   |   |   |   |   |   |   |   |   |   |   cSumPrice > 154.17
|   |   |   |   |   |   |   |   |   |   |   |   |   |   duration <= 668.929
|   |   |   |   |   |   |   |   |   |   |   |   |   |   |   cMinPrice <= 9.75: n (9.0/1.0)
|   |   |   |   |   |   |   |   |   |   |   |   |   |   |   cMinPrice > 9.75: y (3.0/1.0)
|   |   |   |   |   |   |   |   |   |   |   |   |   |   duration > 668.929
|   |   |   |   |   |   |   |   |   |   |   |   |   |   |   age <= 40
|   |   |   |   |   |   |   |   |   |   |   |   |   |   |   |   maxVal <= 1700
|   |   |   |   |   |   |   |   |   |   |   |   |   |   |   |   |   bCount <= 2: n (5.0/1.0)
|   |   |   |   |   |   |   |   |   |   |   |   |   |   |   |   |   bCount > 2
|   |   |   |   |   |   |   |   |   |   |   |   |   |   |   |   |   |   cMaxPrice <= 89.95: y (4.0)
|   |   |   |   |   |   |   |   |   |   |   |   |   |   |   |   |   |   cMaxPrice > 89.95: n (2.0)
|   |   |   |   |   |   |   |   |   |   |   |   |   |   |   |   maxVal > 1700: y (4.0)
|   |   |   |   |   |   |   |   |   |   |   |   |   |   |   age > 40: y (29.0/2.0)
|   |   |   |   |   |   |   |   cSumPrice > 1130.23
|   |   |   |   |   |   |   |   |   bCount <= 2
|   |   |   |   |   |   |   |   |   |   bMinPrice <= 8.99: n (6.03/0.03)
|   |   |   |   |   |   |   |   |   |   bMinPrice > 8.99
|   |   |   |   |   |   |   |   |   |   |   age <= 53
|   |   |   |   |   |   |   |   |   |   |   |   accountLifetime <= 28: n (3.0/1.0)
|   |   |   |   |   |   |   |   |   |   |   |   accountLifetime > 28: y (9.07/1.0)
