=== Run information ===

Scheme:       weka.classifiers.trees.J48 -C 0.5 -M 2
Relation:     database_mean_unknown-weka.filters.unsupervised.attribute.Remove-R21-25
Instances:    50000
Attributes:   21
              startHour
              startWeekday
              duration
              cCount
              cMinPrice
              cMaxPrice
              cSumPrice
              bCount
              bMinPrice
              bMaxPrice
              bSumPrice
              bStep
              onlineStatus
              availability
              maxVal
              customerScore
              accountLifetime
              payments
              age
              lastOrder
              order
Test mode:    user supplied test set:  size unknown (reading incrementally)

=== Classifier model (full training set) ===

J48 pruned tree
------------------

bStep <= 3
|   cCount <= 150
|   |   bCount <= 4
|   |   |   bCount <= 1
|   |   |   |   bCount <= 0
|   |   |   |   |   startHour <= 5
|   |   |   |   |   |   duration <= 600.956: n (8.0)
|   |   |   |   |   |   duration > 600.956: y (4.0/1.0)
|   |   |   |   |   startHour > 5: n (189.0/1.0)
|   |   |   |   bCount > 0
|   |   |   |   |   maxVal <= 200
|   |   |   |   |   |   accountLifetime <= 196: n (45.0)
|   |   |   |   |   |   accountLifetime > 196
|   |   |   |   |   |   |   cMinPrice <= 19.99: n (2.0)
|   |   |   |   |   |   |   cMinPrice > 19.99: y (2.0)
|   |   |   |   |   maxVal > 200: n (6402.0/8.0)
|   |   |   bCount > 1
|   |   |   |   onlineStatus = y
|   |   |   |   |   bSumPrice <= 2657.93: n (4334.0/67.0)
|   |   |   |   |   bSumPrice > 2657.93
|   |   |   |   |   |   bMinPrice <= 769.99
|   |   |   |   |   |   |   duration <= 1367.171: n (8.0)
|   |   |   |   |   |   |   duration > 1367.171
|   |   |   |   |   |   |   |   duration <= 2390.735: y (4.0)
|   |   |   |   |   |   |   |   duration > 2390.735: n (4.0/1.0)
|   |   |   |   |   |   bMinPrice > 769.99: n (28.0)
|   |   |   |   onlineStatus = desconhecido: n (0.0)
|   |   |   |   onlineStatus = n: n (65.0)
|   |   bCount > 4
|   |   |   payments <= 50
|   |   |   |   availability = completely orderable
|   |   |   |   |   payments <= 12.893535
|   |   |   |   |   |   cMaxPrice <= 209
|   |   |   |   |   |   |   payments <= 11
|   |   |   |   |   |   |   |   bMinPrice <= 12.99
|   |   |   |   |   |   |   |   |   bStep <= 2
|   |   |   |   |   |   |   |   |   |   startWeekday <= 5
|   |   |   |   |   |   |   |   |   |   |   cSumPrice <= 1782.25: n (78.0/2.0)
|   |   |   |   |   |   |   |   |   |   |   cSumPrice > 1782.25
|   |   |   |   |   |   |   |   |   |   |   |   cSumPrice <= 2160.87: y (3.0)
|   |   |   |   |   |   |   |   |   |   |   |   cSumPrice > 2160.87: n (3.0)
|   |   |   |   |   |   |   |   |   |   startWeekday > 5: n (157.0/8.0)
|   |   |   |   |   |   |   |   |   bStep > 2
|   |   |   |   |   |   |   |   |   |   lastOrder <= 23
|   |   |   |   |   |   |   |   |   |   |   cMinPrice <= 6.49: n (2.0)
|   |   |   |   |   |   |   |   |   |   |   cMinPrice > 6.49: y (4.0/1.0)
|   |   |   |   |   |   |   |   |   |   lastOrder > 23: n (12.0)
|   |   |   |   |   |   |   |   bMinPrice > 12.99: n (105.0)
|   |   |   |   |   |   |   payments > 11: n (540.0/7.0)
|   |   |   |   |   |   cMaxPrice > 209
|   |   |   |   |   |   |   payments <= 5: n (22.0)
|   |   |   |   |   |   |   payments > 5
|   |   |   |   |   |   |   |   payments <= 10
|   |   |   |   |   |   |   |   |   bSumPrice <= 347.39: y (5.0/1.0)
|   |   |   |   |   |   |   |   |   bSumPrice > 347.39: n (10.0)
|   |   |   |   |   |   |   |   payments > 10
|   |   |   |   |   |   |   |   |   bStep <= 2: n (138.0/11.0)
|   |   |   |   |   |   |   |   |   bStep > 2
|   |   |   |   |   |   |   |   |   |   bCount <= 18: n (16.0/1.0)
|   |   |   |   |   |   |   |   |   |   bCount > 18: y (2.0)
|   |   |   |   |   payments > 12.893535
|   |   |   |   |   |   startWeekday <= 5: n (59.0/3.0)
|   |   |   |   |   |   startWeekday > 5
|   |   |   |   |   |   |   startWeekday <= 6
|   |   |   |   |   |   |   |   cMinPrice <= 16.49
|   |   |   |   |   |   |   |   |   bCount <= 9
|   |   |   |   |   |   |   |   |   |   lastOrder <= 4: y (3.0)
|   |   |   |   |   |   |   |   |   |   lastOrder > 4
|   |   |   |   |   |   |   |   |   |   |   bCount <= 6
|   |   |   |   |   |   |   |   |   |   |   |   customerScore <= 592: n (25.0/1.0)
|   |   |   |   |   |   |   |   |   |   |   |   customerScore > 592: y (2.0)
|   |   |   |   |   |   |   |   |   |   |   bCount > 6
|   |   |   |   |   |   |   |   |   |   |   |   bMaxPrice <= 18.99: n (3.0)
|   |   |   |   |   |   |   |   |   |   |   |   bMaxPrice > 18.99
|   |   |   |   |   |   |   |   |   |   |   |   |   bMaxPrice <= 47.99: y (5.0)
|   |   |   |   |   |   |   |   |   |   |   |   |   bMaxPrice > 47.99: n (3.0/1.0)
|   |   |   |   |   |   |   |   |   bCount > 9: n (16.0)
|   |   |   |   |   |   |   |   cMinPrice > 16.49: y (3.0)
|   |   |   |   |   |   |   startWeekday > 6: n (43.0/3.0)
|   |   |   |   availability = completely not orderable
|   |   |   |   |   cCount <= 25: y (8.0/1.0)
|   |   |   |   |   cCount > 25
|   |   |   |   |   |   payments <= 10: y (3.0/1.0)
|   |   |   |   |   |   payments > 10: n (7.0)
|   |   |   |   availability = desconhecido
|   |   |   |   |   age <= 51: n (205.0/11.0)
|   |   |   |   |   age > 51
|   |   |   |   |   |   duration <= 1947.392: n (30.0/2.0)
|   |   |   |   |   |   duration > 1947.392
|   |   |   |   |   |   |   cSumPrice <= 657: y (4.0)
|   |   |   |   |   |   |   cSumPrice > 657
|   |   |   |   |   |   |   |   startHour <= 14
|   |   |   |   |   |   |   |   |   bCount <= 5: y (3.0)
|   |   |   |   |   |   |   |   |   bCount > 5: n (4.0/1.0)
|   |   |   |   |   |   |   |   startHour > 14: n (9.0)
|   |   |   |   availability = mainly orderable: n (113.0/1.0)
|   |   |   |   availability = mixed: n (6.0)
|   |   |   |   availability = completely not determinable: n (19.0/2.0)
|   |   |   |   availability = mainly not orderable: n (7.0)
|   |   |   |   availability = mainly not determinable: n (3.0)
|   |   |   payments > 50
|   |   |   |   bStep <= 2
|   |   |   |   |   lastOrder <= 4: y (8.0)
|   |   |   |   |   lastOrder > 4
|   |   |   |   |   |   bCount <= 6: n (7.0/1.0)
|   |   |   |   |   |   bCount > 6
|   |   |   |   |   |   |   bMaxPrice <= 42.36: n (3.0)
|   |   |   |   |   |   |   bMaxPrice > 42.36
|   |   |   |   |   |   |   |   bCount <= 14: y (10.0)
|   |   |   |   |   |   |   |   bCount > 14: n (2.0)
|   |   |   |   bStep > 2: n (4.0/1.0)
|   cCount > 150
|   |   onlineStatus = y
|   |   |   customerScore <= 448: y (9.0/1.0)
|   |   |   customerScore > 448
|   |   |   |   bCount <= 6
|   |   |   |   |   maxVal <= 3600: n (25.0)
|   |   |   |   |   maxVal > 3600
|   |   |   |   |   |   cMaxPrice <= 419.99: y (3.0)
|   |   |   |   |   |   cMaxPrice > 419.99: n (2.0)
|   |   |   |   bCount > 6
|   |   |   |   |   lastOrder <= 113
|   |   |   |   |   |   bMinPrice <= 10.36
|   |   |   |   |   |   |   payments <= 29
|   |   |   |   |   |   |   |   cCount <= 171: n (14.0)
|   |   |   |   |   |   |   |   cCount > 171
|   |   |   |   |   |   |   |   |   customerScore <= 548
|   |   |   |   |   |   |   |   |   |   bMaxPrice <= 34: n (15.0/1.0)
|   |   |   |   |   |   |   |   |   |   bMaxPrice > 34
|   |   |   |   |   |   |   |   |   |   |   bMaxPrice <= 39.96: y (3.0)
|   |   |   |   |   |   |   |   |   |   |   bMaxPrice > 39.96
|   |   |   |   |   |   |   |   |   |   |   |   cCount <= 197: n (9.0/1.0)
|   |   |   |   |   |   |   |   |   |   |   |   cCount > 197: y (4.0/1.0)
|   |   |   |   |   |   |   |   |   customerScore > 548: y (5.0)
|   |   |   |   |   |   |   payments > 29: y (3.0)
|   |   |   |   |   |   bMinPrice > 10.36: y (4.0)
|   |   |   |   |   lastOrder > 113: y (8.0)
|   |   onlineStatus = desconhecido: n (0.0)
|   |   onlineStatus = n: n (3.0)
bStep > 3
|   availability = completely orderable
|   |   cSumPrice <= 9.98
|   |   |   lastOrder <= 29
|   |   |   |   bStep <= 4
|   |   |   |   |   accountLifetime <= 147
|   |   |   |   |   |   startWeekday <= 5
|   |   |   |   |   |   |   cSumPrice <= 5: n (2.0)
|   |   |   |   |   |   |   cSumPrice > 5: y (3.0)
|   |   |   |   |   |   startWeekday > 5: y (4.0)
|   |   |   |   |   accountLifetime > 147: n (2.0)
|   |   |   |   bStep > 4: y (15.0)
|   |   |   lastOrder > 29
|   |   |   |   duration <= 110.704: n (850.0)
|   |   |   |   duration > 110.704
|   |   |   |   |   cMaxPrice <= 6.47
|   |   |   |   |   |   bCount <= 1
|   |   |   |   |   |   |   payments <= 8
|   |   |   |   |   |   |   |   maxVal <= 700
|   |   |   |   |   |   |   |   |   cSumPrice <= 6: y (3.0)
|   |   |   |   |   |   |   |   |   cSumPrice > 6
|   |   |   |   |   |   |   |   |   |   startHour <= 19: n (2.0)
|   |   |   |   |   |   |   |   |   |   startHour > 19: y (2.0)
|   |   |   |   |   |   |   |   maxVal > 700: n (3.0)
|   |   |   |   |   |   |   payments > 8: y (6.0)
|   |   |   |   |   |   bCount > 1: y (3.0)
|   |   |   |   |   cMaxPrice > 6.47
|   |   |   |   |   |   cMinPrice <= 7.99: n (20.0)
|   |   |   |   |   |   cMinPrice > 7.99: y (2.0)
|   |   cSumPrice > 9.98
|   |   |   cCount <= 1
|   |   |   |   customerScore <= 483.731568
|   |   |   |   |   bMinPrice <= 46
|   |   |   |   |   |   bStep <= 4
|   |   |   |   |   |   |   bStep <= 3.158804: y (48.0/4.0)
|   |   |   |   |   |   |   bStep > 3.158804: n (3.0)
|   |   |   |   |   |   bStep > 4: y (34.0/2.0)
|   |   |   |   |   bMinPrice > 46
|   |   |   |   |   |   cMinPrice <= 54.95
|   |   |   |   |   |   |   duration <= 162.803: n (403.0/3.0)
|   |   |   |   |   |   |   duration > 162.803
|   |   |   |   |   |   |   |   payments <= 10: y (3.0)
|   |   |   |   |   |   |   |   payments > 10: n (19.0/1.0)
|   |   |   |   |   |   cMinPrice > 54.95
|   |   |   |   |   |   |   bCount <= 0
|   |   |   |   |   |   |   |   startHour <= 7
|   |   |   |   |   |   |   |   |   startHour <= 5: n (3.0/1.0)
|   |   |   |   |   |   |   |   |   startHour > 5: y (19.0/1.0)
|   |   |   |   |   |   |   |   startHour > 7
|   |   |   |   |   |   |   |   |   bStep <= 4
|   |   |   |   |   |   |   |   |   |   startWeekday <= 6
|   |   |   |   |   |   |   |   |   |   |   startHour <= 12: n (11.0)
|   |   |   |   |   |   |   |   |   |   |   startHour > 12
|   |   |   |   |   |   |   |   |   |   |   |   bStep <= 3.158804
|   |   |   |   |   |   |   |   |   |   |   |   |   startHour <= 16
|   |   |   |   |   |   |   |   |   |   |   |   |   |   duration <= 600.653
|   |   |   |   |   |   |   |   |   |   |   |   |   |   |   duration <= 60.736: n (3.0/1.0)
|   |   |   |   |   |   |   |   |   |   |   |   |   |   |   duration > 60.736: y (6.0)
|   |   |   |   |   |   |   |   |   |   |   |   |   |   duration > 600.653: n (2.0)
|   |   |   |   |   |   |   |   |   |   |   |   |   startHour > 16: n (10.0/1.0)
|   |   |   |   |   |   |   |   |   |   |   |   bStep > 3.158804: n (2.0)
|   |   |   |   |   |   |   |   |   |   startWeekday > 6: n (9.0)
|   |   |   |   |   |   |   |   |   bStep > 4
|   |   |   |   |   |   |   |   |   |   startHour <= 19: y (27.0/9.0)
|   |   |   |   |   |   |   |   |   |   startHour > 19: n (7.0/1.0)
|   |   |   |   |   |   |   bCount > 0
|   |   |   |   |   |   |   |   bStep <= 4
|   |   |   |   |   |   |   |   |   bStep <= 3.158804: y (34.0/3.0)
|   |   |   |   |   |   |   |   |   bStep > 3.158804: n (4.0)
|   |   |   |   |   |   |   |   bStep > 4: y (33.0/1.0)
|   |   |   |   customerScore > 483.731568
|   |   |   |   |   bStep <= 4: y (154.0/12.0)
|   |   |   |   |   bStep > 4
|   |   |   |   |   |   payments <= 2
|   |   |   |   |   |   |   age <= 50: y (5.0)
|   |   |   |   |   |   |   age > 50: n (2.0)
|   |   |   |   |   |   payments > 2: y (127.0/1.0)
|   |   |   cCount > 1
|   |   |   |   bMinPrice <= 85.99
|   |   |   |   |   bStep <= 4
|   |   |   |   |   |   bStep <= 3.158804
|   |   |   |   |   |   |   bCount <= 1
|   |   |   |   |   |   |   |   cSumPrice <= 129.97: y (930.0/138.0)
|   |   |   |   |   |   |   |   cSumPrice > 129.97
|   |   |   |   |   |   |   |   |   age <= 35
|   |   |   |   |   |   |   |   |   |   startWeekday <= 5: y (103.0/18.0)
|   |   |   |   |   |   |   |   |   |   startWeekday > 5
|   |   |   |   |   |   |   |   |   |   |   accountLifetime <= 59
|   |   |   |   |   |   |   |   |   |   |   |   customerScore <= 543
|   |   |   |   |   |   |   |   |   |   |   |   |   startWeekday <= 6
|   |   |   |   |   |   |   |   |   |   |   |   |   |   cMinPrice <= 10.99
|   |   |   |   |   |   |   |   |   |   |   |   |   |   |   cMinPrice <= 6.49: y (4.0)
|   |   |   |   |   |   |   |   |   |   |   |   |   |   |   cMinPrice > 6.49: n (7.0/1.0)
|   |   |   |   |   |   |   |   |   |   |   |   |   |   cMinPrice > 10.99
|   |   |   |   |   |   |   |   |   |   |   |   |   |   |   customerScore <= 475: y (20.0)
|   |   |   |   |   |   |   |   |   |   |   |   |   |   |   customerScore > 475
|   |   |   |   |   |   |   |   |   |   |   |   |   |   |   |   startHour <= 21
|   |   |   |   |   |   |   |   |   |   |   |   |   |   |   |   |   payments <= 8: y (9.0)
|   |   |   |   |   |   |   |   |   |   |   |   |   |   |   |   |   payments > 8: n (3.0/1.0)
|   |   |   |   |   |   |   |   |   |   |   |   |   |   |   |   startHour > 21: n (2.0)
|   |   |   |   |   |   |   |   |   |   |   |   |   startWeekday > 6
|   |   |   |   |   |   |   |   |   |   |   |   |   |   duration <= 532.203
|   |   |   |   |   |   |   |   |   |   |   |   |   |   |   cMinPrice <= 37.49: y (2.0)
|   |   |   |   |   |   |   |   |   |   |   |   |   |   |   cMinPrice > 37.49
|   |   |   |   |   |   |   |   |   |   |   |   |   |   |   |   duration <= 400.974: y (4.0/1.0)
|   |   |   |   |   |   |   |   |   |   |   |   |   |   |   |   duration > 400.974: n (3.0)
|   |   |   |   |   |   |   |   |   |   |   |   |   |   duration > 532.203: y (21.0/1.0)
|   |   |   |   |   |   |   |   |   |   |   |   customerScore > 543: y (24.0)
|   |   |   |   |   |   |   |   |   |   |   accountLifetime > 59: y (52.0)
|   |   |   |   |   |   |   |   |   age > 35: y (866.0/61.0)
|   |   |   |   |   |   |   bCount > 1
|   |   |   |   |   |   |   |   bSumPrice <= 30.98: y (778.0/63.0)
|   |   |   |   |   |   |   |   bSumPrice > 30.98
|   |   |   |   |   |   |   |   |   cMinPrice <= 32.99
|   |   |   |   |   |   |   |   |   |   startHour <= 5
|   |   |   |   |   |   |   |   |   |   |   bCount <= 11
|   |   |   |   |   |   |   |   |   |   |   |   cMinPrice <= 16.99: y (63.0/1.0)
|   |   |   |   |   |   |   |   |   |   |   |   cMinPrice > 16.99
|   |   |   |   |   |   |   |   |   |   |   |   |   cMinPrice <= 27: y (14.0/2.0)
|   |   |   |   |   |   |   |   |   |   |   |   |   cMinPrice > 27
|   |   |   |   |   |   |   |   |   |   |   |   |   |   cMaxPrice <= 54.99: n (2.0)
|   |   |   |   |   |   |   |   |   |   |   |   |   |   cMaxPrice > 54.99: y (4.0)
|   |   |   |   |   |   |   |   |   |   |   bCount > 11
|   |   |   |   |   |   |   |   |   |   |   |   startWeekday <= 6: y (2.0)
|   |   |   |   |   |   |   |   |   |   |   |   startWeekday > 6: n (4.0/1.0)
|   |   |   |   |   |   |   |   |   |   startHour > 5
|   |   |   |   |   |   |   |   |   |   |   bCount <= 4
|   |   |   |   |   |   |   |   |   |   |   |   startWeekday <= 6
|   |   |   |   |   |   |   |   |   |   |   |   |   age <= 45
|   |   |   |   |   |   |   |   |   |   |   |   |   |   age <= 34: y (542.0/10.0)
|   |   |   |   |   |   |   |   |   |   |   |   |   |   age > 34
|   |   |   |   |   |   |   |   |   |   |   |   |   |   |   startWeekday <= 5: y (526.0/28.0)
|   |   |   |   |   |   |   |   |   |   |   |   |   |   |   startWeekday > 5
|   |   |   |   |   |   |   |   |   |   |   |   |   |   |   |   cMaxPrice <= 79.96
|   |   |   |   |   |   |   |   |   |   |   |   |   |   |   |   |   payments <= 1
|   |   |   |   |   |   |   |   |   |   |   |   |   |   |   |   |   |   payments <= 0
|   |   |   |   |   |   |   |   |   |   |   |   |   |   |   |   |   |   |   bMaxPrice <= 18.99
|   |   |   |   |   |   |   |   |   |   |   |   |   |   |   |   |   |   |   |   bSumPrice <= 37.97: n (2.0)
|   |   |   |   |   |   |   |   |   |   |   |   |   |   |   |   |   |   |   |   bSumPrice > 37.97: y (3.0)
|   |   |   |   |   |   |   |   |   |   |   |   |   |   |   |   |   |   |   bMaxPrice > 18.99: y (24.0)
|   |   |   |   |   |   |   |   |   |   |   |   |   |   |   |   |   |   payments > 0
|   |   |   |   |   |   |   |   |   |   |   |   |   |   |   |   |   |   |   accountLifetime <= 52: y (29.0)
|   |   |   |   |   |   |   |   |   |   |   |   |   |   |   |   |   |   |   accountLifetime > 52
|   |   |   |   |   |   |   |   |   |   |   |   |   |   |   |   |   |   |   |   age <= 35: n (2.0)
|   |   |   |   |   |   |   |   |   |   |   |   |   |   |   |   |   |   |   |   age > 35
|   |   |   |   |   |   |   |   |   |   |   |   |   |   |   |   |   |   |   |   |   cMaxPrice <= 41: y (20.0)
|   |   |   |   |   |   |   |   |   |   |   |   |   |   |   |   |   |   |   |   |   cMaxPrice > 41
|   |   |   |   |   |   |   |   |   |   |   |   |   |   |   |   |   |   |   |   |   |   cMaxPrice <= 49.9: n (3.0)
|   |   |   |   |   |   |   |   |   |   |   |   |   |   |   |   |   |   |   |   |   |   cMaxPrice > 49.9
|   |   |   |   |   |   |   |   |   |   |   |   |   |   |   |   |   |   |   |   |   |   |   accountLifetime <= 227: y (11.0)
|   |   |   |   |   |   |   |   |   |   |   |   |   |   |   |   |   |   |   |   |   |   |   accountLifetime > 227: n (2.0)
|   |   |   |   |   |   |   |   |   |   |   |   |   |   |   |   |   payments > 1: y (453.0/7.0)
|   |   |   |   |   |   |   |   |   |   |   |   |   |   |   |   cMaxPrice > 79.96
|   |   |   |   |   |   |   |   |   |   |   |   |   |   |   |   |   customerScore <= 576: y (138.0/10.0)
|   |   |   |   |   |   |   |   |   |   |   |   |   |   |   |   |   customerScore > 576
|   |   |   |   |   |   |   |   |   |   |   |   |   |   |   |   |   |   bMaxPrice <= 64.95: y (4.0)
|   |   |   |   |   |   |   |   |   |   |   |   |   |   |   |   |   |   bMaxPrice > 64.95: n (4.0)
|   |   |   |   |   |   |   |   |   |   |   |   |   age > 45: y (1103.0/19.0)
|   |   |   |   |   |   |   |   |   |   |   |   startWeekday > 6: y (1313.0/54.0)
|   |   |   |   |   |   |   |   |   |   |   bCount > 4: y (3737.0/69.0)
|   |   |   |   |   |   |   |   |   cMinPrice > 32.99: y (408.0/29.0)
|   |   |   |   |   |   bStep > 3.158804
|   |   |   |   |   |   |   payments <= 14
|   |   |   |   |   |   |   |   accountLifetime <= 203: n (522.0/26.0)
|   |   |   |   |   |   |   |   accountLifetime > 203
|   |   |   |   |   |   |   |   |   cCount <= 30
|   |   |   |   |   |   |   |   |   |   startWeekday <= 6
|   |   |   |   |   |   |   |   |   |   |   maxVal <= 2400
|   |   |   |   |   |   |   |   |   |   |   |   cSumPrice <= 113.15: y (4.0/1.0)
|   |   |   |   |   |   |   |   |   |   |   |   cSumPrice > 113.15: n (15.0/1.0)
|   |   |   |   |   |   |   |   |   |   |   maxVal > 2400: n (27.0)
|   |   |   |   |   |   |   |   |   |   startWeekday > 6
|   |   |   |   |   |   |   |   |   |   |   cMinPrice <= 17.49
|   |   |   |   |   |   |   |   |   |   |   |   cMaxPrice <= 27: n (5.0)
|   |   |   |   |   |   |   |   |   |   |   |   cMaxPrice > 27
|   |   |   |   |   |   |   |   |   |   |   |   |   age <= 54: y (4.0)
|   |   |   |   |   |   |   |   |   |   |   |   |   age > 54: n (3.0/1.0)
|   |   |   |   |   |   |   |   |   |   |   cMinPrice > 17.49: n (7.0)
|   |   |   |   |   |   |   |   |   cCount > 30
|   |   |   |   |   |   |   |   |   |   cCount <= 43: y (5.0)
|   |   |   |   |   |   |   |   |   |   cCount > 43: n (3.0)
|   |   |   |   |   |   |   payments > 14
|   |   |   |   |   |   |   |   bCount <= 2: n (61.0/4.0)
|   |   |   |   |   |   |   |   bCount > 2
|   |   |   |   |   |   |   |   |   bCount <= 12
|   |   |   |   |   |   |   |   |   |   cSumPrice <= 143.98: n (10.0)
|   |   |   |   |   |   |   |   |   |   cSumPrice > 143.98
|   |   |   |   |   |   |   |   |   |   |   bSumPrice <= 265.97
|   |   |   |   |   |   |   |   |   |   |   |   onlineStatus = y
|   |   |   |   |   |   |   |   |   |   |   |   |   cCount <= 20
|   |   |   |   |   |   |   |   |   |   |   |   |   |   payments <= 102
|   |   |   |   |   |   |   |   |   |   |   |   |   |   |   duration <= 917.57
|   |   |   |   |   |   |   |   |   |   |   |   |   |   |   |   bCount <= 4
|   |   |   |   |   |   |   |   |   |   |   |   |   |   |   |   |   startHour <= 15: y (3.0)
|   |   |   |   |   |   |   |   |   |   |   |   |   |   |   |   |   startHour > 15
|   |   |   |   |   |   |   |   |   |   |   |   |   |   |   |   |   |   bCount <= 3: n (3.0)
|   |   |   |   |   |   |   |   |   |   |   |   |   |   |   |   |   |   bCount > 3: y (3.0/1.0)
|   |   |   |   |   |   |   |   |   |   |   |   |   |   |   |   bCount > 4: n (2.0)
|   |   |   |   |   |   |   |   |   |   |   |   |   |   |   duration > 917.57: y (11.0)
|   |   |   |   |   |   |   |   |   |   |   |   |   |   payments > 102: n (4.0)
|   |   |   |   |   |   |   |   |   |   |   |   |   cCount > 20
|   |   |   |   |   |   |   |   |   |   |   |   |   |   startHour <= 10: y (2.0)
|   |   |   |   |   |   |   |   |   |   |   |   |   |   startHour > 10
|   |   |   |   |   |   |   |   |   |   |   |   |   |   |   bMinPrice <= 3.99
|   |   |   |   |   |   |   |   |   |   |   |   |   |   |   |   cSumPrice <= 520.69: y (2.0)
|   |   |   |   |   |   |   |   |   |   |   |   |   |   |   |   cSumPrice > 520.69: n (2.0)
|   |   |   |   |   |   |   |   |   |   |   |   |   |   |   bMinPrice > 3.99: n (12.0)
|   |   |   |   |   |   |   |   |   |   |   |   onlineStatus = desconhecido: n (0.0)
|   |   |   |   |   |   |   |   |   |   |   |   onlineStatus = n: y (2.0/1.0)
|   |   |   |   |   |   |   |   |   |   |   bSumPrice > 265.97: n (8.0)
|   |   |   |   |   |   |   |   |   bCount > 12: y (5.0)
|   |   |   |   |   bStep > 4: y (8930.0/137.0)
|   |   |   |   bMinPrice > 85.99
|   |   |   |   |   bCount <= 0
|   |   |   |   |   |   cCount <= 20
|   |   |   |   |   |   |   accountLifetime <= 24: n (15.0)
|   |   |   |   |   |   |   accountLifetime > 24
|   |   |   |   |   |   |   |   bStep <= 4
|   |   |   |   |   |   |   |   |   customerScore <= 584
|   |   |   |   |   |   |   |   |   |   duration <= 2197.196: n (24.0/2.0)
|   |   |   |   |   |   |   |   |   |   duration > 2197.196: y (4.0/1.0)
|   |   |   |   |   |   |   |   |   customerScore > 584: y (3.0)
|   |   |   |   |   |   |   |   bStep > 4
|   |   |   |   |   |   |   |   |   cSumPrice <= 53.97: y (6.0)
|   |   |   |   |   |   |   |   |   cSumPrice > 53.97
|   |   |   |   |   |   |   |   |   |   cCount <= 16
|   |   |   |   |   |   |   |   |   |   |   cSumPrice <= 145.92: n (7.0)
|   |   |   |   |   |   |   |   |   |   |   cSumPrice > 145.92
|   |   |   |   |   |   |   |   |   |   |   |   startHour <= 15
|   |   |   |   |   |   |   |   |   |   |   |   |   age <= 45
|   |   |   |   |   |   |   |   |   |   |   |   |   |   payments <= 12: y (3.0)
|   |   |   |   |   |   |   |   |   |   |   |   |   |   payments > 12
|   |   |   |   |   |   |   |   |   |   |   |   |   |   |   cCount <= 4: y (2.0)
|   |   |   |   |   |   |   |   |   |   |   |   |   |   |   cCount > 4: n (4.0)
|   |   |   |   |   |   |   |   |   |   |   |   |   age > 45: n (5.0)
|   |   |   |   |   |   |   |   |   |   |   |   startHour > 15: y (8.0)
|   |   |   |   |   |   |   |   |   |   cCount > 16: n (6.0)
|   |   |   |   |   |   cCount > 20
|   |   |   |   |   |   |   payments <= 24: n (66.0)
|   |   |   |   |   |   |   payments > 24
|   |   |   |   |   |   |   |   lastOrder <= 21: n (5.0)
|   |   |   |   |   |   |   |   lastOrder > 21: y (3.0)
|   |   |   |   |   bCount > 0
|   |   |   |   |   |   maxVal <= 100
|   |   |   |   |   |   |   bStep <= 4: n (18.0)
|   |   |   |   |   |   |   bStep > 4
|   |   |   |   |   |   |   |   customerScore <= 440
|   |   |   |   |   |   |   |   |   cCount <= 5
|   |   |   |   |   |   |   |   |   |   customerScore <= 400: y (3.0)
|   |   |   |   |   |   |   |   |   |   customerScore > 400: n (2.0)
|   |   |   |   |   |   |   |   |   cCount > 5: n (5.0)
|   |   |   |   |   |   |   |   customerScore > 440: y (3.0)
|   |   |   |   |   |   maxVal > 100
|   |   |   |   |   |   |   bStep <= 4
|   |   |   |   |   |   |   |   bStep <= 3.158804
|   |   |   |   |   |   |   |   |   duration <= 169.933
|   |   |   |   |   |   |   |   |   |   duration <= 28.435: n (5.0)
|   |   |   |   |   |   |   |   |   |   duration > 28.435
|   |   |   |   |   |   |   |   |   |   |   cCount <= 2
|   |   |   |   |   |   |   |   |   |   |   |   maxVal <= 400
|   |   |   |   |   |   |   |   |   |   |   |   |   accountLifetime <= 78: y (2.0)
|   |   |   |   |   |   |   |   |   |   |   |   |   accountLifetime > 78: n (5.0/1.0)
|   |   |   |   |   |   |   |   |   |   |   |   maxVal > 400: y (28.0/2.0)
|   |   |   |   |   |   |   |   |   |   |   cCount > 2
|   |   |   |   |   |   |   |   |   |   |   |   bCount <= 1
|   |   |   |   |   |   |   |   |   |   |   |   |   cMinPrice <= 279.99
|   |   |   |   |   |   |   |   |   |   |   |   |   |   startWeekday <= 5: y (10.0/1.0)
|   |   |   |   |   |   |   |   |   |   |   |   |   |   startWeekday > 5
|   |   |   |   |   |   |   |   |   |   |   |   |   |   |   accountLifetime <= 80
|   |   |   |   |   |   |   |   |   |   |   |   |   |   |   |   customerScore <= 476: y (5.0/1.0)
|   |   |   |   |   |   |   |   |   |   |   |   |   |   |   |   customerScore > 476: n (6.0)
|   |   |   |   |   |   |   |   |   |   |   |   |   |   |   accountLifetime > 80: y (11.0/1.0)
|   |   |   |   |   |   |   |   |   |   |   |   |   cMinPrice > 279.99: n (10.0/2.0)
|   |   |   |   |   |   |   |   |   |   |   |   bCount > 1: y (3.0)
|   |   |   |   |   |   |   |   |   duration > 169.933
|   |   |   |   |   |   |   |   |   |   startWeekday <= 5
|   |   |   |   |   |   |   |   |   |   |   age <= 52
|   |   |   |   |   |   |   |   |   |   |   |   startHour <= 16: y (150.0/5.0)
|   |   |   |   |   |   |   |   |   |   |   |   startHour > 16
|   |   |   |   |   |   |   |   |   |   |   |   |   cCount <= 12
|   |   |   |   |   |   |   |   |   |   |   |   |   |   bSumPrice <= 149.35: y (26.0)
|   |   |   |   |   |   |   |   |   |   |   |   |   |   bSumPrice > 149.35
|   |   |   |   |   |   |   |   |   |   |   |   |   |   |   bCount <= 2
|   |   |   |   |   |   |   |   |   |   |   |   |   |   |   |   cCount <= 3: y (21.0/1.0)
|   |   |   |   |   |   |   |   |   |   |   |   |   |   |   |   cCount > 3
|   |   |   |   |   |   |   |   |   |   |   |   |   |   |   |   |   duration <= 1545.459
|   |   |   |   |   |   |   |   |   |   |   |   |   |   |   |   |   |   cMaxPrice <= 749
|   |   |   |   |   |   |   |   |   |   |   |   |   |   |   |   |   |   |   bSumPrice <= 259.99
|   |   |   |   |   |   |   |   |   |   |   |   |   |   |   |   |   |   |   |   bMaxPrice <= 169.99
|   |   |   |   |   |   |   |   |   |   |   |   |   |   |   |   |   |   |   |   |   customerScore <= 452: n (2.0)
|   |   |   |   |   |   |   |   |   |   |   |   |   |   |   |   |   |   |   |   |   customerScore > 452: y (6.0)
|   |   |   |   |   |   |   |   |   |   |   |   |   |   |   |   |   |   |   |   bMaxPrice > 169.99: n (5.0)
|   |   |   |   |   |   |   |   |   |   |   |   |   |   |   |   |   |   |   bSumPrice > 259.99: y (19.0/1.0)
|   |   |   |   |   |   |   |   |   |   |   |   |   |   |   |   |   |   cMaxPrice > 749: n (5.0)
|   |   |   |   |   |   |   |   |   |   |   |   |   |   |   |   |   duration > 1545.459: y (15.0)
|   |   |   |   |   |   |   |   |   |   |   |   |   |   |   bCount > 2
|   |   |   |   |   |   |   |   |   |   |   |   |   |   |   |   duration <= 1997.754: y (3.0/1.0)
|   |   |   |   |   |   |   |   |   |   |   |   |   |   |   |   duration > 1997.754: n (2.0)
|   |   |   |   |   |   |   |   |   |   |   |   |   cCount > 12: y (43.0)
|   |   |   |   |   |   |   |   |   |   |   age > 52
|   |   |   |   |   |   |   |   |   |   |   |   bCount <= 1: y (59.0/10.0)
|   |   |   |   |   |   |   |   |   |   |   |   bCount > 1
|   |   |   |   |   |   |   |   |   |   |   |   |   cMaxPrice <= 239.99: y (4.0)
|   |   |   |   |   |   |   |   |   |   |   |   |   cMaxPrice > 239.99
|   |   |   |   |   |   |   |   |   |   |   |   |   |   cMinPrice <= 179.99: n (5.0)
|   |   |   |   |   |   |   |   |   |   |   |   |   |   cMinPrice > 179.99: y (3.0)
|   |   |   |   |   |   |   |   |   |   startWeekday > 5: y (605.0/76.0)
|   |   |   |   |   |   |   |   bStep > 3.158804
|   |   |   |   |   |   |   |   |   duration <= 4362.498
|   |   |   |   |   |   |   |   |   |   payments <= 10
|   |   |   |   |   |   |   |   |   |   |   bCount <= 1: n (45.0/2.0)
|   |   |   |   |   |   |   |   |   |   |   bCount > 1
|   |   |   |   |   |   |   |   |   |   |   |   cSumPrice <= 899.95: y (2.0)
|   |   |   |   |   |   |   |   |   |   |   |   cSumPrice > 899.95: n (16.0/1.0)
|   |   |   |   |   |   |   |   |   |   payments > 10: n (240.0/3.0)
|   |   |   |   |   |   |   |   |   duration > 4362.498
|   |   |   |   |   |   |   |   |   |   cCount <= 26
|   |   |   |   |   |   |   |   |   |   |   bMaxPrice <= 419.99: n (3.0)
|   |   |   |   |   |   |   |   |   |   |   bMaxPrice > 419.99
|   |   |   |   |   |   |   |   |   |   |   |   cMaxPrice <= 1149.99: y (5.0)
|   |   |   |   |   |   |   |   |   |   |   |   cMaxPrice > 1149.99: n (2.0)
|   |   |   |   |   |   |   |   |   |   cCount > 26: n (6.0)
|   |   |   |   |   |   |   bStep > 4: y (1671.0/84.0)
|   availability = completely not orderable: n (9.0)
|   availability = desconhecido
|   |   cCount <= 131
|   |   |   payments <= 26
|   |   |   |   bCount <= 3
|   |   |   |   |   payments <= 3: n (977.0/20.0)
|   |   |   |   |   payments > 3
|   |   |   |   |   |   cCount <= 27: n (7739.0/36.0)
|   |   |   |   |   |   cCount > 27
|   |   |   |   |   |   |   accountLifetime <= 160: n (501.0/5.0)
|   |   |   |   |   |   |   accountLifetime > 160
|   |   |   |   |   |   |   |   age <= 40
|   |   |   |   |   |   |   |   |   cCount <= 29: y (3.0)
|   |   |   |   |   |   |   |   |   cCount > 29: n (6.0/1.0)
|   |   |   |   |   |   |   |   age > 40: n (54.0/2.0)
|   |   |   |   bCount > 3
|   |   |   |   |   bCount <= 8: n (1014.0/36.0)
|   |   |   |   |   bCount > 8
|   |   |   |   |   |   onlineStatus = y: n (2.0)
|   |   |   |   |   |   onlineStatus = desconhecido
|   |   |   |   |   |   |   bMinPrice <= 4.39
|   |   |   |   |   |   |   |   startWeekday <= 6
|   |   |   |   |   |   |   |   |   cMinPrice <= 3.5: n (13.0/1.0)
|   |   |   |   |   |   |   |   |   cMinPrice > 3.5: y (9.0/1.0)
|   |   |   |   |   |   |   |   startWeekday > 6: n (17.0/2.0)
|   |   |   |   |   |   |   bMinPrice > 4.39
|   |   |   |   |   |   |   |   duration <= 3088.792: n (89.0/4.0)
|   |   |   |   |   |   |   |   duration > 3088.792
|   |   |   |   |   |   |   |   |   bMinPrice <= 15.49: n (43.0/2.0)
|   |   |   |   |   |   |   |   |   bMinPrice > 15.49
|   |   |   |   |   |   |   |   |   |   cMinPrice <= 22.36: y (5.0/1.0)
|   |   |   |   |   |   |   |   |   |   cMinPrice > 22.36: n (4.0)
|   |   |   |   |   |   onlineStatus = n: n (0.0)
|   |   |   payments > 26
|   |   |   |   bCount <= 2
|   |   |   |   |   bCount <= 1: n (143.0/3.0)
|   |   |   |   |   bCount > 1
|   |   |   |   |   |   cMinPrice <= 15.5: n (37.0)
|   |   |   |   |   |   cMinPrice > 15.5
|   |   |   |   |   |   |   accountLifetime <= 185
|   |   |   |   |   |   |   |   cMinPrice <= 189.99: y (5.0/1.0)
|   |   |   |   |   |   |   |   cMinPrice > 189.99: n (3.0)
|   |   |   |   |   |   |   accountLifetime > 185: n (11.0)
|   |   |   |   bCount > 2
|   |   |   |   |   startHour <= 8: n (10.0)
|   |   |   |   |   startHour > 8
|   |   |   |   |   |   maxVal <= 1800: n (23.0/1.0)
|   |   |   |   |   |   maxVal > 1800
|   |   |   |   |   |   |   startWeekday <= 5
|   |   |   |   |   |   |   |   accountLifetime <= 75: n (4.0)
|   |   |   |   |   |   |   |   accountLifetime > 75
|   |   |   |   |   |   |   |   |   lastOrder <= 12: y (7.0)
|   |   |   |   |   |   |   |   |   lastOrder > 12
|   |   |   |   |   |   |   |   |   |   accountLifetime <= 130: y (2.0)
|   |   |   |   |   |   |   |   |   |   accountLifetime > 130
|   |   |   |   |   |   |   |   |   |   |   bSumPrice <= 354.69: n (6.0)
|   |   |   |   |   |   |   |   |   |   |   bSumPrice > 354.69: y (3.0/1.0)
|   |   |   |   |   |   |   startWeekday > 5
|   |   |   |   |   |   |   |   startWeekday <= 6
|   |   |   |   |   |   |   |   |   bMaxPrice <= 27: n (9.0)
|   |   |   |   |   |   |   |   |   bMaxPrice > 27
|   |   |   |   |   |   |   |   |   |   maxVal <= 2800: y (3.0)
|   |   |   |   |   |   |   |   |   |   maxVal > 2800: n (4.0/1.0)
|   |   |   |   |   |   |   |   startWeekday > 6
|   |   |   |   |   |   |   |   |   cCount <= 15: n (9.0)
|   |   |   |   |   |   |   |   |   cCount > 15
|   |   |   |   |   |   |   |   |   |   customerScore <= 512: y (3.0)
|   |   |   |   |   |   |   |   |   |   customerScore > 512
|   |   |   |   |   |   |   |   |   |   |   duration <= 2719.592: n (3.0)
|   |   |   |   |   |   |   |   |   |   |   duration > 2719.592: y (3.0/1.0)
|   |   cCount > 131
|   |   |   bCount <= 6
|   |   |   |   bCount <= 1: n (8.0)
|   |   |   |   bCount > 1
|   |   |   |   |   cSumPrice <= 12747.79
|   |   |   |   |   |   maxVal <= 2200
|   |   |   |   |   |   |   bMinPrice <= 16.24
|   |   |   |   |   |   |   |   lastOrder <= 29: n (9.0)
|   |   |   |   |   |   |   |   lastOrder > 29
|   |   |   |   |   |   |   |   |   startWeekday <= 5: y (5.0)
|   |   |   |   |   |   |   |   |   startWeekday > 5
|   |   |   |   |   |   |   |   |   |   maxVal <= 1200: n (4.0)
|   |   |   |   |   |   |   |   |   |   maxVal > 1200: y (2.0)
|   |   |   |   |   |   |   bMinPrice > 16.24: y (5.0)
|   |   |   |   |   |   maxVal > 2200
|   |   |   |   |   |   |   accountLifetime <= 222
|   |   |   |   |   |   |   |   bMinPrice <= 8.95
|   |   |   |   |   |   |   |   |   bMinPrice <= 7.49: n (16.0/2.0)
|   |   |   |   |   |   |   |   |   bMinPrice > 7.49: y (2.0)
|   |   |   |   |   |   |   |   bMinPrice > 8.95: n (16.0)
|   |   |   |   |   |   |   accountLifetime > 222: y (2.0)
|   |   |   |   |   cSumPrice > 12747.79: y (4.0)
|   |   |   bCount > 6
|   |   |   |   bMinPrice <= 2.99: y (13.0)
|   |   |   |   bMinPrice > 2.99
|   |   |   |   |   customerScore <= 491
|   |   |   |   |   |   cCount <= 154
|   |   |   |   |   |   |   bMinPrice <= 4.39
|   |   |   |   |   |   |   |   startWeekday <= 6: n (2.0)
|   |   |   |   |   |   |   |   startWeekday > 6: y (2.0)
|   |   |   |   |   |   |   bMinPrice > 4.39: n (15.0)
|   |   |   |   |   |   cCount > 154
|   |   |   |   |   |   |   age <= 30: n (4.0)
|   |   |   |   |   |   |   age > 30
|   |   |   |   |   |   |   |   accountLifetime <= 69: y (7.0)
|   |   |   |   |   |   |   |   accountLifetime > 69
|   |   |   |   |   |   |   |   |   accountLifetime <= 220
|   |   |   |   |   |   |   |   |   |   bMinPrice <= 4.39: n (8.0)
|   |   |   |   |   |   |   |   |   |   bMinPrice > 4.39: y (37.0/17.0)
|   |   |   |   |   |   |   |   |   accountLifetime > 220: y (3.0)
|   |   |   |   |   customerScore > 491
|   |   |   |   |   |   bSumPrice <= 138.45
|   |   |   |   |   |   |   age <= 31: n (4.0)
|   |   |   |   |   |   |   age > 31
|   |   |   |   |   |   |   |   bCount <= 7: n (2.0)
|   |   |   |   |   |   |   |   bCount > 7
|   |   |   |   |   |   |   |   |   cMinPrice <= 2: y (3.0)
|   |   |   |   |   |   |   |   |   cMinPrice > 2
|   |   |   |   |   |   |   |   |   |   bCount <= 9
|   |   |   |   |   |   |   |   |   |   |   cSumPrice <= 2047.38: n (2.0)
|   |   |   |   |   |   |   |   |   |   |   cSumPrice > 2047.38: y (2.0)
|   |   |   |   |   |   |   |   |   |   bCount > 9: y (2.0)
|   |   |   |   |   |   bSumPrice > 138.45
|   |   |   |   |   |   |   bMaxPrice <= 94.99: y (30.0)
|   |   |   |   |   |   |   bMaxPrice > 94.99
|   |   |   |   |   |   |   |   bMinPrice <= 4.99: n (2.0)
|   |   |   |   |   |   |   |   bMinPrice > 4.99: y (4.0)
|   availability = mainly orderable
|   |   bStep <= 4
|   |   |   bStep <= 3.158804
|   |   |   |   maxVal <= 2700: y (5.0)
|   |   |   |   maxVal > 2700: n (2.0)
|   |   |   bStep > 3.158804: n (2.0)
|   |   bStep > 4: y (15.0/1.0)
|   availability = mixed
|   |   bStep <= 4: n (2.0)
|   |   bStep > 4: y (5.0)
|   availability = completely not determinable
|   |   bStep <= 4: n (3.0)
|   |   bStep > 4
|   |   |   startWeekday <= 6: y (33.0/2.0)
|   |   |   startWeekday > 6: n (3.0/1.0)
|   availability = mainly not orderable: y (0.0)
|   availability = mainly not determinable: y (5.0/1.0)

Number of Leaves  : 	312

Size of the tree : 	607


Time taken to build model: 2.41 seconds

=== Predictions on test set ===

inst#,actual,predicted,error,prediction
1,1:y,1:y,,0.982
2,1:y,1:y,,0.929
3,1:y,1:y,,0.982
4,2:n,1:y,+,1
5,2:n,2:n,,0.999
6,2:n,2:n,,0.963
7,2:n,2:n,,0.985
8,2:n,2:n,,0.99
9,2:n,2:n,,0.995
10,1:y,1:y,,0.982
11,2:n,2:n,,0.991
12,1:y,1:y,,0.985
13,1:y,1:y,,0.985
14,2:n,2:n,,0.964
15,1:y,2:n,+,0.985
16,2:n,2:n,,0.995
17,1:y,1:y,,0.985
18,1:y,1:y,,0.959
19,2:n,2:n,,0.95
20,1:y,1:y,,0.982
21,2:n,2:n,,0.999
22,1:y,1:y,,0.919
23,1:y,1:y,,0.985
24,2:n,2:n,,0.99
25,2:n,2:n,,0.995
26,2:n,2:n,,0.995
27,1:y,1:y,,0.982
28,2:n,2:n,,0.993
29,1:y,1:y,,0.959
30,2:n,2:n,,0.985
31,1:y,1:y,,0.985
32,1:y,1:y,,0.982
33,1:y,1:y,,0.982
34,2:n,2:n,,0.93
35,1:y,1:y,,0.929
36,2:n,2:n,,1
37,1:y,1:y,,0.985
38,1:y,1:y,,0.95
39,1:y,1:y,,0.982
40,1:y,1:y,,0.985
41,2:n,2:n,,0.999
42,1:y,1:y,,0.985
43,2:n,2:n,,0.999
44,2:n,2:n,,0.98
45,1:y,1:y,,0.959
46,1:y,1:y,,0.982
47,2:n,1:y,+,0.982
48,2:n,2:n,,0.946
49,1:y,1:y,,0.985
50,2:n,2:n,,0.995
51,1:y,1:y,,0.985
52,1:y,1:y,,0.959
53,2:n,1:y,+,0.959
54,1:y,1:y,,0.959
55,2:n,2:n,,0.999
56,1:y,1:y,,0.959
57,2:n,2:n,,0.999
58,2:n,2:n,,1
59,1:y,2:n,+,0.946
60,1:y,1:y,,0.982
61,2:n,2:n,,0.995
62,2:n,2:n,,0.999
63,1:y,1:y,,0.982
64,2:n,2:n,,0.995
65,1:y,1:y,,0.852
66,1:y,1:y,,0.985
67,1:y,1:y,,0.959
68,2:n,2:n,,0.995
69,1:y,1:y,,0.982
70,2:n,2:n,,0.995
71,1:y,1:y,,0.959
72,2:n,2:n,,0.995
73,1:y,1:y,,0.93
74,2:n,2:n,,0.995
75,2:n,2:n,,1
76,2:n,2:n,,0.955
77,2:n,2:n,,0.999
78,1:y,1:y,,0.982
79,1:y,1:y,,0.95
80,2:n,2:n,,0.999
81,1:y,1:y,,0.985
82,1:y,1:y,,1
83,1:y,1:y,,0.874
84,1:y,1:y,,0.919
85,1:y,1:y,,0.93
86,1:y,1:y,,0.959
87,1:y,2:n,+,0.964
88,2:n,2:n,,0.985
89,1:y,1:y,,0.982
90,2:n,2:n,,0.995
91,2:n,1:y,+,0.95
92,1:y,1:y,,0.982
93,1:y,1:y,,0.985
94,2:n,2:n,,0.999
95,2:n,2:n,,0.995
96,1:y,2:n,+,0.964
97,2:n,2:n,,0.95
98,2:n,2:n,,0.995
99,1:y,1:y,,0.959
100,1:y,1:y,,0.985
101,2:n,2:n,,0.985
102,2:n,2:n,,0.999
103,1:y,1:y,,0.959
104,2:n,2:n,,0.946
105,1:y,1:y,,0.985
106,2:n,2:n,,1
107,1:y,1:y,,0.985
108,2:n,2:n,,0.995
109,1:y,1:y,,0.959
110,2:n,2:n,,0.933
111,1:y,1:y,,0.959
112,2:n,2:n,,1
113,2:n,2:n,,0.999
114,2:n,2:n,,0.985
115,1:y,1:y,,0.959
116,2:n,1:y,+,0.95
117,1:y,1:y,,0.959
118,2:n,2:n,,0.995
119,2:n,2:n,,0.999
120,2:n,2:n,,0.99
121,2:n,2:n,,0.995
122,2:n,2:n,,0.964
123,2:n,2:n,,0.999
124,1:y,1:y,,0.985
125,2:n,2:n,,0.995
126,2:n,1:y,+,0.93
127,2:n,2:n,,0.999
128,2:n,2:n,,0.999
129,2:n,2:n,,0.999
130,2:n,2:n,,0.985
131,1:y,1:y,,0.985
132,1:y,1:y,,0.95
133,1:y,1:y,,0.959
134,1:y,1:y,,0.985
135,2:n,2:n,,0.985
136,1:y,1:y,,0.985
137,2:n,2:n,,0.999
138,2:n,2:n,,0.985
139,1:y,1:y,,0.982
140,1:y,1:y,,0.959
141,2:n,2:n,,0.985
142,1:y,1:y,,0.985
143,2:n,2:n,,0.956
144,1:y,1:y,,0.541
145,1:y,1:y,,0.959
146,2:n,2:n,,0.995
147,1:y,1:y,,0.95
148,1:y,1:y,,0.667
149,2:n,2:n,,0.985
150,1:y,1:y,,0.982
151,2:n,2:n,,0.995
152,2:n,1:y,+,0.982
153,2:n,2:n,,0.995
154,2:n,2:n,,0.995
155,2:n,2:n,,0.964
156,1:y,1:y,,0.982
157,1:y,2:n,+,0.985
158,1:y,1:y,,0.982
159,1:y,1:y,,0.959
160,1:y,1:y,,0.959
161,2:n,2:n,,0.995
162,1:y,1:y,,0.985
163,2:n,2:n,,0.999
164,1:y,1:y,,0.982
165,1:y,1:y,,0.985
166,1:y,1:y,,0.959
167,2:n,2:n,,0.964
168,1:y,1:y,,0.982
169,1:y,1:y,,0.985
170,2:n,2:n,,0.98
171,1:y,1:y,,0.93
172,2:n,1:y,+,0.919
173,2:n,2:n,,0.995
174,1:y,1:y,,0.985
175,1:y,1:y,,0.982
176,1:y,1:y,,0.985
177,2:n,2:n,,0.93
178,1:y,1:y,,0.985
179,2:n,2:n,,0.934
180,2:n,2:n,,0.987
181,1:y,1:y,,0.985
182,1:y,1:y,,0.985
183,1:y,1:y,,0.985
184,2:n,2:n,,0.995
185,1:y,1:y,,0.985
186,1:y,1:y,,0.982
187,2:n,2:n,,0.995
188,1:y,1:y,,0.985
189,2:n,2:n,,0.999
190,1:y,1:y,,0.982
191,2:n,2:n,,0.999
192,2:n,2:n,,0.985
193,1:y,1:y,,0.982
194,2:n,2:n,,0.949
195,1:y,1:y,,0.874
196,1:y,1:y,,0.919
197,1:y,1:y,,0.985
198,2:n,2:n,,0.995
199,2:n,2:n,,0.995
200,1:y,1:y,,0.982
201,2:n,2:n,,0.995
202,2:n,2:n,,0.999
203,2:n,2:n,,0.98
204,1:y,1:y,,0.985
205,2:n,2:n,,0.956
206,1:y,1:y,,0.982
207,1:y,1:y,,0.985
208,1:y,1:y,,0.852
209,2:n,2:n,,0.98
210,1:y,1:y,,0.982
211,1:y,1:y,,0.985
212,2:n,2:n,,0.995
213,1:y,2:n,+,1
214,1:y,1:y,,0.985
215,2:n,2:n,,0.93
216,1:y,1:y,,0.95
217,1:y,1:y,,0.929
218,1:y,1:y,,0.959
219,2:n,2:n,,0.995
220,2:n,2:n,,0.995
221,2:n,2:n,,0.999
222,1:y,1:y,,0.75
223,2:n,2:n,,0.999
224,2:n,2:n,,0.98
225,1:y,1:y,,0.852
226,1:y,1:y,,0.874
227,1:y,1:y,,0.982
228,1:y,1:y,,0.919
229,1:y,1:y,,0.985
230,1:y,1:y,,0.985
231,2:n,2:n,,0.995
232,1:y,2:n,+,0.95
233,1:y,1:y,,0.919
234,1:y,1:y,,0.95
235,2:n,2:n,,0.999
236,1:y,1:y,,0.985
237,2:n,2:n,,0.999
238,1:y,1:y,,0.985
239,1:y,1:y,,0.95
240,1:y,1:y,,0.985
241,1:y,1:y,,0.959
242,1:y,1:y,,0.985
243,2:n,2:n,,0.999
244,2:n,2:n,,0.985
245,1:y,1:y,,0.985
246,2:n,1:y,+,0.985
247,1:y,1:y,,0.959
248,2:n,2:n,,0.985
249,1:y,1:y,,0.852
250,1:y,2:n,+,1
251,1:y,1:y,,0.93
252,1:y,1:y,,0.985
253,1:y,1:y,,0.959
254,1:y,1:y,,0.959
255,1:y,1:y,,0.985
256,1:y,1:y,,0.985
257,1:y,1:y,,0.985
258,1:y,2:n,+,0.985
259,1:y,1:y,,0.985
260,1:y,1:y,,0.982
261,1:y,1:y,,0.985
262,1:y,1:y,,0.985
263,1:y,1:y,,0.919
264,1:y,1:y,,0.959
265,1:y,1:y,,0.985
266,1:y,1:y,,0.985
267,1:y,1:y,,1
268,1:y,1:y,,0.959
269,2:n,2:n,,1
270,1:y,1:y,,0.959
271,1:y,1:y,,0.982
272,1:y,1:y,,0.982
273,2:n,2:n,,1
274,1:y,1:y,,0.985
275,2:n,2:n,,0.995
276,1:y,1:y,,0.985
277,1:y,1:y,,0.985
278,1:y,1:y,,0.959
279,1:y,1:y,,0.985
280,1:y,1:y,,0.874
281,2:n,2:n,,0.995
282,1:y,1:y,,0.985
283,1:y,1:y,,0.982
284,2:n,2:n,,0.98
285,1:y,1:y,,0.959
286,2:n,2:n,,0.999
287,1:y,1:y,,0.985
288,1:y,1:y,,0.985
289,2:n,2:n,,0.985
290,2:n,2:n,,0.979
291,2:n,2:n,,0.999
292,2:n,2:n,,0.99
293,2:n,2:n,,0.995
294,1:y,1:y,,0.982
295,1:y,1:y,,0.985
296,2:n,2:n,,0.979
297,1:y,1:y,,0.985
298,1:y,1:y,,0.982
299,2:n,2:n,,0.995
300,1:y,1:y,,0.959
301,2:n,2:n,,0.985
302,2:n,2:n,,0.995
303,1:y,1:y,,0.982
304,2:n,2:n,,0.999
305,1:y,1:y,,0.985
306,1:y,1:y,,0.985
307,1:y,2:n,+,0.917
308,2:n,2:n,,0.949
309,1:y,1:y,,0.985
310,1:y,1:y,,0.982
311,2:n,2:n,,0.964
312,1:y,1:y,,1
313,2:n,1:y,+,0.8
314,2:n,2:n,,0.995
315,1:y,1:y,,0.93
316,2:n,2:n,,0.999
317,2:n,2:n,,0.985
318,1:y,1:y,,0.95
319,1:y,1:y,,0.959
320,2:n,2:n,,1
321,2:n,2:n,,0.949
322,2:n,2:n,,0.999
323,1:y,1:y,,0.982
324,1:y,1:y,,0.982
325,1:y,1:y,,0.985
326,1:y,1:y,,0.982
327,1:y,1:y,,0.985
328,2:n,2:n,,0.985
329,1:y,1:y,,0.985
330,1:y,1:y,,0.985
331,1:y,1:y,,0.982
332,1:y,1:y,,0.985
333,1:y,1:y,,0.919
334,1:y,1:y,,0.959
335,1:y,1:y,,0.95
336,1:y,1:y,,0.985
337,1:y,1:y,,0.959
338,2:n,2:n,,1
339,1:y,1:y,,0.982
340,2:n,2:n,,0.995
341,1:y,1:y,,0.985
342,1:y,1:y,,0.959
343,2:n,2:n,,0.999
344,1:y,1:y,,0.985
345,2:n,2:n,,1
346,1:y,1:y,,0.93
347,2:n,2:n,,0.999
348,1:y,1:y,,0.982
349,2:n,2:n,,0.99
350,2:n,2:n,,0.98
351,1:y,1:y,,0.929
352,1:y,1:y,,0.985
353,1:y,1:y,,0.982
354,2:n,2:n,,0.999
355,2:n,2:n,,0.95
356,2:n,2:n,,0.98
357,1:y,1:y,,0.919
358,1:y,1:y,,0.982
359,2:n,2:n,,0.999
360,2:n,2:n,,0.985
361,1:y,1:y,,0.959
362,2:n,2:n,,1
363,1:y,1:y,,0.985
364,1:y,1:y,,0.985
365,1:y,1:y,,0.985
366,1:y,1:y,,0.959
367,2:n,2:n,,0.985
368,1:y,1:y,,0.985
369,1:y,1:y,,0.985
370,2:n,2:n,,0.999
371,1:y,1:y,,0.985
372,1:y,1:y,,0.985
373,1:y,1:y,,0.985
374,1:y,1:y,,0.985
375,1:y,1:y,,0.917
376,2:n,2:n,,0.995
377,1:y,1:y,,0.959
378,1:y,1:y,,0.959
379,1:y,1:y,,0.959
380,1:y,1:y,,0.959
381,1:y,1:y,,0.93
382,2:n,1:y,+,1
383,1:y,1:y,,0.93
384,2:n,2:n,,0.999
385,2:n,2:n,,0.995
386,1:y,1:y,,0.982
387,2:n,2:n,,0.98
388,2:n,2:n,,0.995
389,2:n,2:n,,0.999
390,2:n,2:n,,0.963
391,1:y,1:y,,0.959
392,1:y,1:y,,0.982
393,1:y,1:y,,0.874
394,1:y,1:y,,0.959
395,2:n,2:n,,0.999
396,1:y,1:y,,0.959
397,2:n,2:n,,0.98
398,2:n,2:n,,0.985
399,1:y,1:y,,0.985
400,2:n,2:n,,0.964
401,1:y,1:y,,0.959
402,2:n,2:n,,0.98
403,2:n,2:n,,0.995
404,2:n,2:n,,0.985
405,1:y,1:y,,0.982
406,1:y,1:y,,0.985
407,2:n,2:n,,0.999
408,1:y,1:y,,0.959
409,1:y,1:y,,0.959
410,1:y,1:y,,0.985
411,1:y,1:y,,0.985
412,1:y,1:y,,0.919
413,1:y,1:y,,0.852
414,1:y,1:y,,0.874
415,2:n,2:n,,0.999
416,2:n,2:n,,0.985
417,1:y,1:y,,0.985
418,2:n,2:n,,0.999
419,2:n,2:n,,0.995
420,1:y,1:y,,0.985
421,1:y,1:y,,0.959
422,1:y,1:y,,0.982
423,2:n,2:n,,0.98
424,1:y,1:y,,0.93
425,1:y,1:y,,0.985
426,1:y,1:y,,0.982
427,2:n,2:n,,0.999
428,1:y,1:y,,0.982
429,2:n,2:n,,0.999
430,1:y,1:y,,0.982
431,1:y,1:y,,0.959
432,1:y,1:y,,0.985
433,2:n,2:n,,0.985
434,2:n,2:n,,0.995
435,1:y,1:y,,0.874
436,2:n,2:n,,0.985
437,2:n,2:n,,0.985
438,2:n,2:n,,0.949
439,1:y,1:y,,0.959
440,1:y,1:y,,0.959
441,1:y,1:y,,0.874
442,1:y,1:y,,0.982
443,1:y,1:y,,0.985
444,2:n,2:n,,0.999
445,2:n,2:n,,0.955
446,1:y,1:y,,0.959
447,2:n,2:n,,0.999
448,2:n,2:n,,0.985
449,1:y,1:y,,0.959
450,1:y,1:y,,0.982
451,1:y,1:y,,0.959
452,2:n,2:n,,0.995
453,2:n,2:n,,0.995
454,1:y,1:y,,0.959
455,1:y,2:n,+,0.953
456,1:y,1:y,,0.959
457,2:n,2:n,,0.999
458,1:y,1:y,,0.959
459,1:y,1:y,,0.959
460,2:n,2:n,,0.999
461,2:n,2:n,,0.964
462,2:n,2:n,,1
463,2:n,2:n,,0.995
464,2:n,2:n,,0.999
465,2:n,2:n,,0.999
466,1:y,1:y,,0.852
467,1:y,1:y,,0.985
468,2:n,2:n,,0.98
469,2:n,2:n,,0.985
470,2:n,2:n,,0.985
471,1:y,1:y,,0.982
472,2:n,2:n,,0.985
473,2:n,2:n,,0.999
474,2:n,2:n,,0.999
475,1:y,1:y,,0.93
476,2:n,2:n,,0.999
477,1:y,1:y,,0.985
478,2:n,2:n,,0.999
479,1:y,1:y,,0.959
480,2:n,2:n,,1
481,1:y,1:y,,0.985
482,2:n,2:n,,0.964
483,1:y,1:y,,0.959
484,1:y,1:y,,0.959
485,2:n,2:n,,0.995
486,1:y,1:y,,0.982
487,1:y,1:y,,0.95
488,1:y,1:y,,0.982
489,1:y,1:y,,0.959
490,2:n,1:y,+,0.985
491,2:n,2:n,,0.999
492,2:n,2:n,,0.999
493,2:n,2:n,,0.995
494,2:n,2:n,,0.93
495,1:y,1:y,,0.985
496,2:n,2:n,,0.995
497,1:y,1:y,,0.985
498,2:n,2:n,,0.999
499,2:n,2:n,,0.98
500,1:y,1:y,,0.959
501,1:y,1:y,,0.959
502,2:n,2:n,,0.985
503,2:n,2:n,,0.999
504,2:n,2:n,,0.995
505,2:n,2:n,,0.985
506,2:n,2:n,,0.985
507,1:y,1:y,,0.985
508,1:y,1:y,,0.919
509,1:y,1:y,,0.95
510,2:n,2:n,,0.999
511,1:y,1:y,,0.919
512,2:n,2:n,,0.995
513,2:n,2:n,,0.995
514,2:n,2:n,,0.999
515,1:y,1:y,,0.985
516,1:y,1:y,,0.922
517,2:n,2:n,,0.999
518,1:y,1:y,,0.985
519,1:y,1:y,,0.959
520,1:y,1:y,,0.959
521,1:y,1:y,,0.919
522,1:y,1:y,,0.874
523,2:n,2:n,,0.999
524,1:y,1:y,,0.959
525,2:n,2:n,,0.964
526,1:y,1:y,,0.929
527,1:y,1:y,,0.985
528,1:y,1:y,,0.985
529,2:n,2:n,,0.995
530,1:y,1:y,,0.985
531,1:y,1:y,,0.985
532,2:n,2:n,,0.999
533,2:n,2:n,,0.995
534,2:n,2:n,,0.98
535,1:y,1:y,,0.852
536,2:n,2:n,,0.99
537,1:y,1:y,,0.982
538,2:n,2:n,,0.999
539,1:y,1:y,,0.982
540,1:y,1:y,,0.922
541,1:y,1:y,,0.959
542,1:y,1:y,,0.95
543,2:n,2:n,,0.985
544,1:y,1:y,,0.95
545,2:n,2:n,,0.999
546,2:n,2:n,,0.995
547,2:n,2:n,,0.995
548,1:y,1:y,,0.982
549,1:y,1:y,,0.852
550,1:y,1:y,,0.959
551,2:n,2:n,,0.995
552,1:y,1:y,,0.874
553,1:y,1:y,,0.93
554,2:n,2:n,,0.995
555,1:y,1:y,,1
556,1:y,1:y,,0.959
557,2:n,2:n,,0.995
558,2:n,2:n,,0.98
559,2:n,2:n,,0.964
560,2:n,2:n,,0.995
561,2:n,2:n,,0.995
562,1:y,1:y,,0.985
563,1:y,1:y,,0.95
564,1:y,1:y,,0.985
565,1:y,1:y,,0.874
566,2:n,2:n,,0.995
567,1:y,1:y,,0.982
568,2:n,2:n,,0.98
569,2:n,2:n,,1
570,2:n,2:n,,0.995
571,2:n,2:n,,0.964
572,1:y,1:y,,0.985
573,1:y,1:y,,0.95
574,1:y,1:y,,0.874
575,2:n,2:n,,0.98
576,1:y,1:y,,0.985
577,1:y,1:y,,0.985
578,1:y,1:y,,0.985
579,2:n,2:n,,0.985
580,2:n,2:n,,0.985
581,1:y,1:y,,0.982
582,1:y,1:y,,0.959
583,2:n,2:n,,0.985
584,1:y,1:y,,0.95
585,1:y,1:y,,0.982
586,1:y,1:y,,0.95
587,1:y,1:y,,0.985
588,2:n,2:n,,0.956
589,1:y,1:y,,0.985
590,1:y,1:y,,0.982
591,1:y,1:y,,0.985
592,1:y,1:y,,0.985
593,2:n,2:n,,0.999
594,1:y,1:y,,0.982
595,1:y,1:y,,0.982
596,1:y,1:y,,0.982
597,2:n,2:n,,0.985
598,1:y,1:y,,0.919
599,1:y,1:y,,0.985
600,1:y,1:y,,0.985
601,1:y,1:y,,0.985
602,1:y,1:y,,0.852
603,2:n,2:n,,0.964
604,1:y,1:y,,0.985
605,1:y,1:y,,0.982
606,2:n,2:n,,0.995
607,1:y,1:y,,0.985
608,2:n,2:n,,0.95
609,2:n,2:n,,0.995
610,2:n,2:n,,0.985
611,2:n,2:n,,0.949
612,2:n,2:n,,0.985
613,2:n,2:n,,0.999
614,1:y,1:y,,0.959
615,1:y,1:y,,0.959
616,2:n,2:n,,0.985
617,1:y,1:y,,0.985
618,1:y,1:y,,0.982
619,2:n,2:n,,0.985
620,1:y,1:y,,0.985
621,1:y,1:y,,0.985
622,2:n,2:n,,0.995
623,1:y,1:y,,0.985
624,1:y,1:y,,0.985
625,2:n,2:n,,0.999
626,1:y,1:y,,0.985
627,2:n,1:y,+,0.982
628,1:y,1:y,,0.985
629,1:y,1:y,,0.985
630,1:y,1:y,,0.985
631,2:n,2:n,,0.995
632,2:n,2:n,,0.995
633,2:n,2:n,,0.999
634,1:y,1:y,,0.982
635,1:y,1:y,,0.959
636,1:y,1:y,,0.93
637,2:n,2:n,,0.995
638,1:y,1:y,,0.985
639,2:n,2:n,,0.979
640,2:n,2:n,,0.999
641,2:n,2:n,,0.999
642,1:y,1:y,,0.959
643,1:y,1:y,,0.985
644,1:y,1:y,,0.985
645,1:y,1:y,,0.959
646,2:n,2:n,,0.95
647,2:n,2:n,,0.985
648,2:n,2:n,,0.985
649,1:y,1:y,,0.985
650,1:y,1:y,,0.982
651,2:n,2:n,,0.999
652,1:y,1:y,,0.985
653,1:y,1:y,,0.985
654,2:n,2:n,,0.999
655,1:y,1:y,,0.985
656,1:y,1:y,,0.95
657,2:n,2:n,,0.999
658,2:n,2:n,,0.99
659,1:y,1:y,,0.959
660,1:y,1:y,,0.982
661,1:y,1:y,,0.95
662,2:n,2:n,,0.999
663,1:y,1:y,,0.982
664,1:y,1:y,,0.959
665,2:n,2:n,,0.99
666,2:n,2:n,,0.995
667,2:n,2:n,,0.995
668,2:n,2:n,,0.985
669,1:y,1:y,,0.985
670,2:n,2:n,,0.995
671,2:n,2:n,,0.995
672,1:y,1:y,,0.95
673,1:y,1:y,,0.982
674,2:n,2:n,,0.946
675,1:y,1:y,,0.959
676,1:y,1:y,,0.959
677,1:y,1:y,,0.874
678,2:n,2:n,,0.985
679,2:n,2:n,,0.985
680,1:y,1:y,,0.959
681,1:y,1:y,,0.982
682,1:y,1:y,,0.95
683,1:y,1:y,,0.95
684,1:y,1:y,,0.959
685,1:y,1:y,,0.985
686,2:n,2:n,,1
687,1:y,1:y,,0.959
688,1:y,1:y,,0.985
689,2:n,2:n,,0.999
690,2:n,2:n,,0.995
691,1:y,1:y,,0.982
692,1:y,1:y,,0.985
693,1:y,1:y,,0.959
694,2:n,2:n,,0.999
695,2:n,2:n,,0.985
696,2:n,2:n,,0.995
697,1:y,1:y,,0.985
698,2:n,2:n,,0.995
699,1:y,1:y,,0.982
700,1:y,1:y,,0.929
701,1:y,1:y,,0.982
702,1:y,1:y,,0.95
703,1:y,1:y,,0.982
704,1:y,1:y,,0.95
705,2:n,1:y,+,1
706,1:y,1:y,,0.874
707,1:y,1:y,,0.985
708,2:n,2:n,,1
709,2:n,2:n,,0.985
710,2:n,2:n,,1
711,1:y,1:y,,0.959
712,1:y,1:y,,0.852
713,2:n,2:n,,0.98
714,2:n,2:n,,0.985
715,2:n,2:n,,1
716,2:n,2:n,,0.999
717,1:y,1:y,,0.959
718,1:y,1:y,,0.982
719,2:n,2:n,,0.985
720,2:n,2:n,,0.98
721,2:n,2:n,,0.946
722,1:y,1:y,,0.982
723,2:n,2:n,,0.995
724,1:y,1:y,,0.982
725,1:y,2:n,+,0.985
726,1:y,1:y,,0.95
727,2:n,2:n,,0.964
728,1:y,1:y,,0.985
729,2:n,2:n,,0.985
730,1:y,1:y,,0.982
731,2:n,2:n,,0.949
732,1:y,1:y,,0.985
733,2:n,2:n,,0.985
734,2:n,2:n,,1
735,2:n,2:n,,0.999
736,2:n,2:n,,0.999
737,2:n,2:n,,0.995
738,1:y,1:y,,0.959
739,2:n,2:n,,0.995
740,1:y,1:y,,0.982
741,1:y,1:y,,0.985
742,2:n,2:n,,0.999
743,2:n,2:n,,0.99
744,1:y,1:y,,0.982
745,1:y,2:n,+,0.985
746,1:y,1:y,,0.959
747,1:y,1:y,,0.852
748,1:y,1:y,,0.959
749,1:y,1:y,,0.985
750,1:y,1:y,,0.985
751,1:y,1:y,,0.95
752,1:y,1:y,,0.985
753,2:n,2:n,,0.999
754,2:n,2:n,,0.995
755,2:n,2:n,,1
756,2:n,2:n,,0.98
757,2:n,2:n,,0.95
758,1:y,1:y,,0.982
759,1:y,1:y,,0.93
760,1:y,1:y,,0.982
761,1:y,1:y,,0.982
762,1:y,1:y,,0.985
763,2:n,2:n,,0.985
764,1:y,1:y,,0.982
765,2:n,2:n,,0.985
766,1:y,1:y,,0.982
767,2:n,2:n,,0.999
768,2:n,2:n,,0.993
769,1:y,1:y,,0.919
770,2:n,2:n,,1
771,1:y,1:y,,0.919
772,2:n,2:n,,0.995
773,1:y,1:y,,0.852
774,1:y,1:y,,0.985
775,2:n,2:n,,0.985
776,2:n,2:n,,0.946
777,1:y,1:y,,0.985
778,1:y,1:y,,0.985
779,2:n,2:n,,0.985
780,1:y,1:y,,0.929
781,2:n,2:n,,0.999
782,2:n,2:n,,0.95
783,2:n,2:n,,0.985
784,2:n,2:n,,0.995
785,2:n,2:n,,0.995
786,2:n,2:n,,1
787,2:n,2:n,,0.93
788,1:y,1:y,,0.985
789,1:y,1:y,,0.852
790,2:n,2:n,,0.999
791,2:n,2:n,,0.964
792,2:n,2:n,,0.964
793,2:n,2:n,,0.999
794,2:n,2:n,,0.995
795,1:y,1:y,,0.985
796,2:n,2:n,,0.95
797,2:n,2:n,,0.999
798,1:y,1:y,,0.929
799,2:n,2:n,,0.995
800,1:y,1:y,,0.982
801,1:y,1:y,,0.985
802,1:y,1:y,,0.982
803,1:y,1:y,,0.985
804,2:n,1:y,+,0.852
805,1:y,1:y,,0.982
806,2:n,2:n,,0.999
807,2:n,2:n,,0.995
808,1:y,1:y,,0.852
809,1:y,1:y,,0.959
810,2:n,2:n,,0.99
811,2:n,2:n,,1
812,1:y,1:y,,0.874
813,2:n,2:n,,0.985
814,2:n,2:n,,0.985
815,1:y,1:y,,0.959
816,1:y,1:y,,0.919
817,2:n,2:n,,0.949
818,1:y,1:y,,0.985
819,2:n,2:n,,0.999
820,1:y,1:y,,0.982
821,1:y,1:y,,0.985
822,2:n,2:n,,0.995
823,2:n,1:y,+,0.95
824,1:y,1:y,,0.985
825,1:y,1:y,,0.959
826,1:y,1:y,,0.874
827,1:y,1:y,,0.852
828,2:n,2:n,,0.995
829,2:n,2:n,,0.995
830,2:n,2:n,,0.882
831,1:y,1:y,,0.952
832,2:n,2:n,,0.98
833,1:y,1:y,,0.852
834,2:n,1:y,+,0.929
835,2:n,2:n,,0.999
836,2:n,2:n,,0.995
837,1:y,2:n,+,1
838,2:n,2:n,,0.946
839,1:y,1:y,,0.929
840,2:n,2:n,,0.999
841,1:y,1:y,,0.982
842,2:n,2:n,,0.964
843,1:y,1:y,,0.959
844,1:y,1:y,,0.95
845,1:y,1:y,,0.985
846,1:y,1:y,,0.874
847,1:y,1:y,,0.95
848,2:n,2:n,,0.999
849,1:y,1:y,,0.985
850,2:n,2:n,,0.995
851,1:y,1:y,,0.959
852,2:n,1:y,+,0.985
853,1:y,2:n,+,0.99
854,2:n,2:n,,0.985
855,2:n,2:n,,0.995
856,1:y,2:n,+,0.985
857,1:y,1:y,,0.982
858,1:y,1:y,,0.985
859,1:y,1:y,,0.959
860,1:y,1:y,,0.982
861,2:n,2:n,,0.917
862,2:n,2:n,,0.993
863,2:n,2:n,,0.949
864,1:y,1:y,,0.985
865,2:n,2:n,,0.995
866,1:y,1:y,,0.982
867,1:y,1:y,,0.959
868,2:n,2:n,,0.995
869,2:n,2:n,,0.999
870,2:n,2:n,,0.93
871,1:y,1:y,,0.919
872,1:y,1:y,,0.919
873,2:n,2:n,,0.995
874,1:y,1:y,,0.985
875,1:y,1:y,,0.93
876,1:y,1:y,,0.852
877,2:n,2:n,,1
878,1:y,1:y,,0.982
879,1:y,1:y,,0.982
880,2:n,2:n,,0.995
881,1:y,1:y,,0.985
882,1:y,1:y,,0.959
883,1:y,1:y,,0.852
884,2:n,2:n,,1
885,1:y,1:y,,0.985
886,2:n,2:n,,0.999
887,1:y,1:y,,0.985
888,1:y,1:y,,0.982
889,2:n,2:n,,0.985
890,2:n,2:n,,0.995
891,2:n,2:n,,0.98
892,2:n,2:n,,0.99
893,1:y,1:y,,0.985
894,1:y,1:y,,0.919
895,2:n,2:n,,0.993
896,1:y,1:y,,0.982
897,2:n,2:n,,0.999
898,2:n,2:n,,0.99
899,2:n,2:n,,0.995
900,1:y,1:y,,0.959
901,1:y,1:y,,0.982
902,2:n,2:n,,0.995
903,2:n,2:n,,0.995
904,2:n,2:n,,0.985
905,2:n,2:n,,0.995
906,1:y,1:y,,0.982
907,2:n,2:n,,0.985
908,2:n,2:n,,0.999
909,1:y,1:y,,0.982
910,1:y,1:y,,0.917
911,1:y,1:y,,0.982
912,2:n,2:n,,0.999
913,2:n,2:n,,0.995
914,1:y,1:y,,0.874
915,2:n,2:n,,0.999
916,2:n,2:n,,0.95
917,2:n,2:n,,1
918,1:y,1:y,,0.982
919,1:y,1:y,,0.93
920,1:y,1:y,,0.985
921,1:y,1:y,,0.874
922,1:y,1:y,,0.959
923,2:n,2:n,,0.995
924,2:n,2:n,,0.99
925,2:n,2:n,,0.964
926,2:n,2:n,,0.964
927,2:n,2:n,,0.985
928,2:n,2:n,,0.995
929,1:y,1:y,,0.93
930,2:n,2:n,,0.995
931,1:y,1:y,,0.985
932,2:n,2:n,,0.964
933,1:y,1:y,,0.982
934,2:n,2:n,,0.985
935,1:y,1:y,,0.95
936,2:n,2:n,,0.991
937,1:y,1:y,,0.959
938,2:n,2:n,,0.995
939,2:n,2:n,,0.985
940,2:n,1:y,+,0.852
941,1:y,1:y,,0.985
942,1:y,1:y,,0.95
943,1:y,1:y,,0.912
944,2:n,2:n,,0.999
945,1:y,1:y,,1
946,2:n,2:n,,0.98
947,2:n,2:n,,0.985
948,1:y,1:y,,0.985
949,2:n,2:n,,0.934
950,2:n,2:n,,0.995
951,1:y,1:y,,0.93
952,2:n,2:n,,0.999
953,2:n,2:n,,0.999
954,2:n,2:n,,0.999
955,2:n,2:n,,0.999
956,2:n,2:n,,0.985
957,1:y,1:y,,0.985
958,1:y,1:y,,0.959
959,2:n,2:n,,0.995
960,1:y,1:y,,0.959
961,1:y,1:y,,0.919
962,1:y,1:y,,0.985
963,1:y,1:y,,0.874
964,1:y,1:y,,0.982
965,1:y,1:y,,0.982
966,2:n,2:n,,0.995
967,2:n,2:n,,0.985
968,1:y,1:y,,1
969,1:y,1:y,,0.95
970,1:y,1:y,,0.959
971,2:n,2:n,,0.999
972,1:y,1:y,,0.982
973,2:n,2:n,,0.999
974,2:n,2:n,,0.999
975,2:n,2:n,,0.95
976,1:y,1:y,,0.982
977,2:n,2:n,,0.995
978,2:n,2:n,,0.95
979,2:n,2:n,,0.999
980,2:n,2:n,,0.964
981,2:n,2:n,,0.995
982,2:n,2:n,,0.964
983,2:n,2:n,,0.993
984,1:y,1:y,,0.985
985,1:y,1:y,,0.959
986,1:y,1:y,,0.985
987,1:y,1:y,,0.985
988,1:y,1:y,,0.982
989,1:y,1:y,,0.985
990,1:y,1:y,,0.982
991,2:n,2:n,,0.985
992,1:y,1:y,,0.985
993,1:y,1:y,,0.982
994,2:n,1:y,+,1
995,1:y,1:y,,0.985
996,1:y,1:y,,0.985
997,1:y,1:y,,0.982
998,1:y,1:y,,0.985
999,2:n,2:n,,0.999
1000,2:n,2:n,,0.995
1001,1:y,1:y,,0.982
1002,2:n,2:n,,0.995
1003,2:n,2:n,,0.995
1004,2:n,2:n,,0.995
1005,1:y,1:y,,0.985
1006,1:y,1:y,,0.992
1007,2:n,2:n,,0.995
1008,2:n,2:n,,0.995
1009,1:y,1:y,,0.982
1010,2:n,2:n,,0.995
1011,1:y,1:y,,0.985
1012,2:n,2:n,,0.98
1013,2:n,2:n,,0.999
1014,2:n,2:n,,0.995
1015,1:y,1:y,,0.959
1016,2:n,2:n,,0.999
1017,2:n,2:n,,0.999
1018,2:n,2:n,,0.95
1019,1:y,1:y,,0.93
1020,1:y,1:y,,0.985
1021,2:n,2:n,,0.999
1022,1:y,1:y,,0.982
1023,2:n,2:n,,0.985
1024,2:n,2:n,,0.999
1025,1:y,1:y,,0.985
1026,1:y,1:y,,0.959
1027,1:y,1:y,,0.985
1028,1:y,1:y,,0.985
1029,2:n,2:n,,0.985
1030,1:y,1:y,,0.959
1031,1:y,1:y,,1
1032,2:n,2:n,,0.995
1033,1:y,1:y,,0.985
1034,1:y,1:y,,0.985
1035,1:y,1:y,,0.95
1036,2:n,2:n,,0.985
1037,2:n,2:n,,0.985
1038,1:y,1:y,,0.959
1039,2:n,2:n,,0.985
1040,1:y,1:y,,0.985
1041,1:y,1:y,,0.985
1042,2:n,2:n,,0.995
1043,2:n,2:n,,0.995
1044,1:y,1:y,,0.982
1045,2:n,2:n,,0.985
1046,1:y,1:y,,0.982
1047,1:y,1:y,,0.982
1048,1:y,1:y,,0.985
1049,2:n,1:y,+,0.541
1050,1:y,1:y,,0.852
1051,1:y,1:y,,0.982
1052,1:y,1:y,,0.919
1053,1:y,1:y,,0.959
1054,1:y,1:y,,0.95
1055,2:n,2:n,,0.999
1056,2:n,2:n,,0.999
1057,2:n,2:n,,0.995
1058,2:n,2:n,,1
1059,2:n,2:n,,0.995
1060,2:n,2:n,,1
1061,2:n,2:n,,0.964
1062,2:n,2:n,,0.949
1063,1:y,1:y,,0.95
1064,1:y,1:y,,0.919
1065,1:y,1:y,,0.985
1066,1:y,1:y,,0.985
1067,1:y,1:y,,0.982
1068,2:n,2:n,,0.985
1069,2:n,2:n,,0.999
1070,2:n,2:n,,0.985
1071,2:n,2:n,,0.999
1072,1:y,1:y,,0.985
1073,1:y,1:y,,0.982
1074,2:n,1:y,+,0.93
1075,2:n,2:n,,0.999
1076,2:n,2:n,,0.999
1077,1:y,1:y,,0.985
1078,2:n,2:n,,1
1079,1:y,1:y,,0.985
1080,2:n,2:n,,0.999
1081,2:n,2:n,,0.995
1082,1:y,1:y,,0.985
1083,1:y,1:y,,0.982
1084,1:y,1:y,,0.952
1085,2:n,2:n,,0.985
1086,2:n,1:y,+,0.874
1087,1:y,1:y,,0.982
1088,1:y,1:y,,0.919
1089,1:y,1:y,,0.985
1090,2:n,2:n,,0.99
1091,2:n,2:n,,1
1092,1:y,1:y,,0.93
1093,1:y,1:y,,0.982
1094,2:n,2:n,,0.995
1095,2:n,2:n,,0.999
1096,1:y,1:y,,0.852
1097,2:n,2:n,,0.999
1098,2:n,2:n,,0.985
1099,1:y,1:y,,0.959
1100,2:n,2:n,,0.985
1101,1:y,1:y,,0.959
1102,1:y,1:y,,0.959
1103,1:y,1:y,,0.959
1104,1:y,1:y,,0.985
1105,1:y,1:y,,1
1106,1:y,1:y,,0.959
1107,1:y,1:y,,0.874
1108,1:y,1:y,,0.959
1109,2:n,2:n,,0.999
1110,1:y,1:y,,0.985
1111,1:y,1:y,,0.985
1112,2:n,2:n,,0.995
1113,1:y,1:y,,0.982
1114,2:n,2:n,,0.985
1115,2:n,2:n,,1
1116,1:y,1:y,,0.874
1117,2:n,2:n,,0.964
1118,2:n,2:n,,0.985
1119,2:n,2:n,,0.985
1120,1:y,1:y,,0.985
1121,2:n,2:n,,0.999
1122,1:y,1:y,,0.959
1123,1:y,1:y,,0.95
1124,1:y,1:y,,0.852
1125,2:n,2:n,,1
1126,2:n,2:n,,1
1127,2:n,2:n,,0.999
1128,1:y,1:y,,0.982
1129,2:n,2:n,,0.999
1130,2:n,2:n,,0.995
1131,2:n,2:n,,0.985
1132,2:n,2:n,,0.964
1133,1:y,1:y,,0.919
1134,2:n,2:n,,0.985
1135,1:y,1:y,,0.985
1136,1:y,1:y,,0.874
1137,1:y,1:y,,0.985
1138,2:n,2:n,,0.999
1139,2:n,2:n,,0.995
1140,2:n,2:n,,0.985
1141,2:n,2:n,,0.99
1142,2:n,1:y,+,0.985
1143,1:y,1:y,,0.959
1144,2:n,2:n,,1
1145,1:y,1:y,,0.985
1146,2:n,2:n,,0.999
1147,2:n,2:n,,0.98
1148,1:y,1:y,,0.93
1149,2:n,2:n,,0.985
1150,2:n,2:n,,0.995
1151,2:n,2:n,,0.985
1152,1:y,1:y,,0.985
1153,2:n,2:n,,0.985
1154,1:y,1:y,,0.985
1155,2:n,2:n,,0.964
1156,2:n,2:n,,0.995
1157,2:n,2:n,,0.995
1158,1:y,1:y,,0.982
1159,2:n,2:n,,0.999
1160,1:y,1:y,,0.982
1161,2:n,2:n,,0.999
1162,2:n,2:n,,0.995
1163,2:n,2:n,,0.985
1164,2:n,2:n,,0.995
1165,1:y,1:y,,0.985
1166,1:y,1:y,,0.874
1167,1:y,1:y,,0.985
1168,2:n,2:n,,0.999
1169,2:n,2:n,,0.985
1170,1:y,1:y,,0.985
1171,2:n,2:n,,0.995
1172,1:y,1:y,,0.985
1173,1:y,1:y,,0.985
1174,1:y,1:y,,0.985
1175,2:n,2:n,,0.999
1176,1:y,1:y,,0.874
1177,2:n,2:n,,0.99
1178,1:y,1:y,,0.929
1179,2:n,1:y,+,0.874
1180,2:n,2:n,,0.946
1181,1:y,1:y,,0.874
1182,1:y,1:y,,0.982
1183,1:y,1:y,,0.874
1184,2:n,2:n,,0.995
1185,1:y,1:y,,0.985
1186,2:n,2:n,,0.999
1187,1:y,1:y,,0.874
1188,2:n,2:n,,0.995
1189,1:y,1:y,,0.985
1190,2:n,1:y,+,0.874
1191,2:n,2:n,,0.949
1192,1:y,1:y,,0.982
1193,2:n,2:n,,0.98
1194,2:n,2:n,,0.99
1195,2:n,2:n,,0.995
1196,2:n,2:n,,0.99
1197,1:y,1:y,,0.985
1198,1:y,1:y,,0.959
1199,2:n,2:n,,0.985
1200,1:y,1:y,,0.95
1201,1:y,1:y,,0.95
1202,2:n,1:y,+,0.852
1203,2:n,2:n,,0.985
1204,1:y,1:y,,0.959
1205,1:y,1:y,,0.922
1206,1:y,1:y,,0.982
1207,2:n,2:n,,0.999
1208,1:y,1:y,,0.985
1209,2:n,2:n,,0.985
1210,2:n,2:n,,0.995
1211,1:y,1:y,,0.985
1212,2:n,2:n,,0.999
1213,2:n,2:n,,1
1214,1:y,1:y,,0.982
1215,2:n,1:y,+,1
1216,1:y,1:y,,0.985
1217,2:n,2:n,,0.985
1218,2:n,2:n,,0.999
1219,1:y,1:y,,0.985
1220,1:y,1:y,,0.874
1221,1:y,1:y,,0.982
1222,1:y,1:y,,0.919
1223,2:n,1:y,+,0.959
1224,1:y,1:y,,0.985
1225,1:y,1:y,,0.959
1226,2:n,2:n,,1
1227,1:y,1:y,,0.982
1228,1:y,1:y,,0.959
1229,1:y,1:y,,0.959
1230,2:n,2:n,,1
1231,1:y,1:y,,0.929
1232,2:n,2:n,,0.995
1233,1:y,1:y,,0.985
1234,1:y,1:y,,0.874
1235,2:n,2:n,,0.98
1236,2:n,2:n,,0.999
1237,2:n,2:n,,0.999
1238,2:n,2:n,,0.999
1239,1:y,1:y,,0.982
1240,1:y,1:y,,0.982
1241,1:y,1:y,,0.959
1242,2:n,2:n,,0.93
1243,1:y,1:y,,0.95
1244,2:n,2:n,,0.995
1245,1:y,1:y,,0.985
1246,1:y,1:y,,0.985
1247,2:n,2:n,,0.995
1248,2:n,2:n,,0.964
1249,2:n,2:n,,0.95
1250,1:y,1:y,,0.982
1251,1:y,1:y,,0.959
1252,2:n,2:n,,0.995
1253,2:n,2:n,,0.999
1254,2:n,2:n,,0.985
1255,2:n,2:n,,0.985
1256,1:y,1:y,,0.985
1257,2:n,2:n,,0.995
1258,1:y,1:y,,0.985
1259,2:n,2:n,,0.995
1260,2:n,2:n,,0.999
1261,1:y,1:y,,0.985
1262,2:n,2:n,,0.995
1263,2:n,2:n,,0.985
1264,1:y,1:y,,0.985
1265,1:y,1:y,,0.982
1266,1:y,1:y,,0.985
1267,1:y,1:y,,0.95
1268,1:y,1:y,,0.985
1269,2:n,2:n,,1
1270,1:y,1:y,,0.959
1271,2:n,1:y,+,0.985
1272,2:n,2:n,,0.985
1273,2:n,2:n,,0.999
1274,1:y,1:y,,0.982
1275,2:n,2:n,,0.999
1276,1:y,1:y,,0.852
1277,2:n,2:n,,0.995
1278,2:n,2:n,,0.995
1279,1:y,1:y,,0.919
1280,2:n,2:n,,0.995
1281,2:n,2:n,,1
1282,2:n,2:n,,0.999
1283,2:n,2:n,,0.995
1284,2:n,2:n,,0.949
1285,2:n,1:y,+,1
1286,1:y,1:y,,0.982
1287,1:y,1:y,,0.874
1288,1:y,1:y,,0.919
1289,1:y,1:y,,0.985
1290,1:y,1:y,,0.982
1291,1:y,1:y,,0.852
1292,1:y,1:y,,0.959
1293,2:n,2:n,,0.98
1294,1:y,1:y,,0.959
1295,1:y,1:y,,0.982
1296,2:n,2:n,,1
1297,1:y,1:y,,0.985
1298,1:y,1:y,,0.985
1299,1:y,1:y,,0.93
1300,1:y,1:y,,0.95
1301,1:y,1:y,,0.982
1302,2:n,1:y,+,0.959
1303,2:n,2:n,,0.999
1304,2:n,2:n,,0.985
1305,1:y,1:y,,0.919
1306,2:n,2:n,,0.995
1307,2:n,2:n,,0.995
1308,1:y,1:y,,0.985
1309,2:n,2:n,,0.995
1310,1:y,1:y,,0.982
1311,2:n,2:n,,0.995
1312,1:y,1:y,,0.982
1313,2:n,2:n,,0.993
1314,1:y,1:y,,0.919
1315,2:n,2:n,,0.995
1316,1:y,1:y,,0.985
1317,2:n,2:n,,0.995
1318,1:y,1:y,,0.982
1319,2:n,2:n,,0.999
1320,1:y,1:y,,0.982
1321,2:n,2:n,,0.949
1322,1:y,1:y,,0.959
1323,1:y,1:y,,0.985
1324,2:n,2:n,,0.999
1325,2:n,2:n,,0.99
1326,1:y,1:y,,0.982
1327,2:n,2:n,,0.985
1328,2:n,2:n,,0.956
1329,2:n,2:n,,0.985
1330,1:y,1:y,,0.982
1331,2:n,2:n,,1
1332,1:y,1:y,,0.919
1333,2:n,2:n,,1
1334,1:y,1:y,,0.982
1335,2:n,2:n,,1
1336,1:y,1:y,,0.985
1337,2:n,2:n,,0.999
1338,2:n,2:n,,0.889
1339,2:n,2:n,,0.995
1340,2:n,2:n,,0.999
1341,2:n,2:n,,0.895
1342,2:n,2:n,,0.995
1343,2:n,2:n,,0.995
1344,1:y,1:y,,0.985
1345,2:n,2:n,,0.995
1346,2:n,2:n,,0.949
1347,2:n,2:n,,0.98
1348,2:n,2:n,,0.999
1349,2:n,2:n,,0.999
1350,1:y,1:y,,0.959
1351,1:y,1:y,,0.929
1352,2:n,2:n,,0.985
1353,1:y,1:y,,0.95
1354,2:n,2:n,,0.985
1355,1:y,1:y,,0.919
1356,1:y,1:y,,0.985
1357,2:n,2:n,,0.999
1358,2:n,2:n,,0.964
1359,2:n,2:n,,0.995
1360,1:y,1:y,,0.852
1361,1:y,1:y,,0.982
1362,2:n,2:n,,0.999
1363,2:n,2:n,,1
1364,1:y,1:y,,0.982
1365,2:n,2:n,,0.985
1366,2:n,2:n,,0.999
1367,1:y,1:y,,0.929
1368,1:y,1:y,,0.852
1369,2:n,2:n,,1
1370,2:n,2:n,,1
1371,2:n,2:n,,0.999
1372,1:y,1:y,,0.982
1373,2:n,2:n,,0.949
1374,2:n,2:n,,1
1375,2:n,2:n,,0.995
1376,2:n,2:n,,0.995
1377,2:n,2:n,,0.999
1378,1:y,1:y,,0.982
1379,2:n,2:n,,0.999
1380,2:n,2:n,,0.985
1381,1:y,1:y,,0.985
1382,2:n,2:n,,0.882
1383,1:y,1:y,,0.985
1384,2:n,2:n,,0.995
1385,1:y,1:y,,0.985
1386,2:n,2:n,,0.956
1387,2:n,2:n,,0.999
1388,2:n,2:n,,0.949
1389,2:n,2:n,,0.985
1390,2:n,2:n,,0.985
1391,2:n,2:n,,1
1392,1:y,1:y,,0.985
1393,2:n,2:n,,0.995
1394,1:y,1:y,,0.982
1395,1:y,1:y,,0.985
1396,1:y,1:y,,0.985
1397,1:y,1:y,,0.959
1398,2:n,2:n,,0.964
1399,2:n,2:n,,0.995
1400,1:y,1:y,,0.985
1401,2:n,2:n,,0.995
1402,1:y,1:y,,0.982
1403,1:y,1:y,,0.959
1404,2:n,2:n,,0.98
1405,1:y,1:y,,0.985
1406,2:n,2:n,,0.995
1407,2:n,2:n,,0.993
1408,2:n,2:n,,0.999
1409,1:y,1:y,,0.985
1410,2:n,2:n,,0.93
1411,2:n,2:n,,0.98
1412,1:y,1:y,,0.985
1413,1:y,1:y,,0.959
1414,1:y,1:y,,0.959
1415,2:n,2:n,,0.995
1416,2:n,2:n,,0.953
1417,1:y,1:y,,0.874
1418,2:n,2:n,,1
1419,2:n,2:n,,1
1420,2:n,2:n,,0.999
1421,2:n,2:n,,0.999
1422,1:y,1:y,,0.919
1423,1:y,1:y,,0.959
1424,1:y,1:y,,0.985
1425,1:y,1:y,,0.874
1426,1:y,1:y,,0.985
1427,2:n,2:n,,0.995
1428,1:y,1:y,,0.985
1429,1:y,1:y,,0.919
1430,1:y,1:y,,0.959
1431,2:n,2:n,,0.995
1432,1:y,1:y,,0.959
1433,1:y,1:y,,0.982
1434,1:y,1:y,,0.982
1435,1:y,1:y,,0.959
1436,1:y,1:y,,0.982
1437,1:y,1:y,,0.982
1438,2:n,2:n,,0.985
1439,2:n,2:n,,0.999
1440,1:y,1:y,,0.985
1441,2:n,2:n,,0.985
1442,2:n,2:n,,0.999
1443,2:n,2:n,,0.985
1444,2:n,2:n,,0.985
1445,1:y,1:y,,0.93
1446,1:y,1:y,,0.985
1447,1:y,1:y,,0.982
1448,1:y,1:y,,0.852
1449,2:n,2:n,,0.95
1450,1:y,1:y,,0.985
1451,2:n,2:n,,0.985
1452,2:n,2:n,,0.999
1453,2:n,2:n,,0.985
1454,2:n,1:y,+,0.8
1455,1:y,1:y,,0.985
1456,1:y,1:y,,0.982
1457,1:y,1:y,,0.985
1458,1:y,1:y,,0.985
1459,1:y,1:y,,0.959
1460,1:y,1:y,,0.982
1461,2:n,2:n,,0.995
1462,1:y,1:y,,0.874
1463,2:n,2:n,,0.985
1464,2:n,2:n,,0.995
1465,1:y,1:y,,0.982
1466,2:n,2:n,,0.985
1467,2:n,2:n,,0.999
1468,1:y,1:y,,0.982
1469,2:n,2:n,,0.995
1470,2:n,2:n,,0.995
1471,1:y,1:y,,0.985
1472,1:y,1:y,,0.985
1473,1:y,1:y,,0.985
1474,1:y,1:y,,0.95
1475,1:y,1:y,,0.985
1476,1:y,1:y,,0.929
1477,1:y,1:y,,0.985
1478,2:n,2:n,,0.999
1479,1:y,1:y,,0.985
1480,1:y,1:y,,0.922
1481,2:n,2:n,,0.95
1482,1:y,1:y,,0.959
1483,2:n,2:n,,0.995
1484,1:y,1:y,,0.959
1485,1:y,1:y,,0.95
1486,1:y,1:y,,0.982
1487,1:y,1:y,,0.985
1488,2:n,2:n,,0.979
1489,2:n,2:n,,0.999
1490,2:n,2:n,,0.999
1491,2:n,2:n,,1
1492,1:y,1:y,,0.985
1493,2:n,2:n,,0.957
1494,1:y,1:y,,1
1495,2:n,2:n,,0.985
1496,2:n,2:n,,0.999
1497,1:y,1:y,,0.982
1498,2:n,2:n,,0.999
1499,1:y,1:y,,0.985
1500,1:y,1:y,,0.985
1501,1:y,1:y,,0.982
1502,1:y,1:y,,0.959
1503,2:n,2:n,,0.964
1504,2:n,2:n,,0.993
1505,2:n,2:n,,0.999
1506,1:y,1:y,,0.95
1507,1:y,1:y,,0.982
1508,2:n,2:n,,0.949
1509,1:y,1:y,,0.982
1510,2:n,2:n,,0.995
1511,2:n,2:n,,0.979
1512,1:y,1:y,,0.982
1513,1:y,1:y,,0.93
1514,2:n,2:n,,0.995
1515,1:y,1:y,,0.982
1516,1:y,1:y,,0.919
1517,2:n,2:n,,0.995
1518,2:n,2:n,,0.985
1519,2:n,2:n,,0.979
1520,1:y,1:y,,0.959
1521,2:n,2:n,,0.995
1522,1:y,1:y,,0.982
1523,2:n,2:n,,0.985
1524,1:y,1:y,,0.852
1525,1:y,1:y,,0.985
1526,2:n,2:n,,0.999
1527,1:y,1:y,,0.982
1528,1:y,1:y,,0.919
1529,2:n,2:n,,0.95
1530,1:y,1:y,,0.959
1531,2:n,2:n,,0.995
1532,1:y,1:y,,0.982
1533,1:y,1:y,,0.852
1534,1:y,1:y,,0.982
1535,2:n,2:n,,0.985
1536,2:n,2:n,,0.964
1537,1:y,1:y,,0.959
1538,2:n,2:n,,0.995
1539,1:y,1:y,,0.852
1540,1:y,1:y,,0.982
1541,1:y,1:y,,0.985
1542,2:n,2:n,,0.985
1543,2:n,2:n,,0.964
1544,1:y,1:y,,0.959
1545,2:n,2:n,,0.995
1546,1:y,1:y,,0.874
1547,2:n,2:n,,0.955
1548,2:n,2:n,,0.985
1549,2:n,2:n,,0.999
1550,2:n,2:n,,0.995
1551,1:y,1:y,,0.919
1552,1:y,1:y,,0.985
1553,2:n,2:n,,0.995
1554,2:n,2:n,,0.985
1555,2:n,2:n,,0.946
1556,1:y,1:y,,0.985
1557,2:n,2:n,,0.995
1558,1:y,1:y,,0.985
1559,2:n,2:n,,0.995
1560,2:n,1:y,+,0.985
1561,1:y,1:y,,0.95
1562,1:y,1:y,,0.985
1563,1:y,1:y,,0.959
1564,1:y,1:y,,0.959
1565,1:y,1:y,,0.959
1566,2:n,2:n,,0.946
1567,1:y,1:y,,0.985
1568,1:y,1:y,,0.93
1569,1:y,1:y,,0.959
1570,2:n,2:n,,0.999
1571,1:y,1:y,,0.982
1572,1:y,1:y,,0.985
1573,2:n,2:n,,0.995
1574,2:n,2:n,,0.985
1575,2:n,2:n,,1
1576,1:y,1:y,,0.93
1577,2:n,2:n,,0.999
1578,2:n,2:n,,0.999
1579,1:y,1:y,,0.985
1580,1:y,1:y,,0.982
1581,1:y,1:y,,0.985
1582,2:n,2:n,,0.999
1583,2:n,2:n,,0.999
1584,2:n,2:n,,1
1585,1:y,1:y,,0.852
1586,2:n,2:n,,0.988
1587,1:y,1:y,,0.852
1588,1:y,1:y,,0.982
1589,2:n,2:n,,0.995
1590,2:n,2:n,,0.995
1591,2:n,2:n,,0.995
1592,1:y,1:y,,0.982
1593,2:n,2:n,,0.985
1594,1:y,1:y,,0.985
1595,2:n,2:n,,0.995
1596,2:n,1:y,+,0.982
1597,1:y,1:y,,0.985
1598,2:n,2:n,,0.999
1599,2:n,2:n,,0.999
1600,2:n,2:n,,0.995
1601,2:n,2:n,,0.995
1602,2:n,2:n,,0.999
1603,2:n,2:n,,0.98
1604,2:n,2:n,,0.995
1605,1:y,1:y,,0.959
1606,1:y,1:y,,0.985
1607,2:n,2:n,,0.995
1608,2:n,2:n,,0.999
1609,2:n,2:n,,0.995
1610,1:y,1:y,,0.959
1611,2:n,2:n,,0.93
1612,1:y,1:y,,0.985
1613,2:n,2:n,,1
1614,2:n,2:n,,0.995
1615,2:n,2:n,,0.985
1616,1:y,1:y,,0.959
1617,1:y,1:y,,0.982
1618,2:n,2:n,,0.985
1619,2:n,2:n,,0.999
1620,2:n,2:n,,0.995
1621,1:y,1:y,,0.929
1622,2:n,2:n,,0.949
1623,2:n,2:n,,0.98
1624,2:n,1:y,+,1
1625,1:y,1:y,,0.982
1626,1:y,2:n,+,0.987
1627,2:n,2:n,,0.999
1628,1:y,1:y,,0.985
1629,2:n,2:n,,0.985
1630,1:y,1:y,,0.852
1631,1:y,1:y,,0.985
1632,2:n,2:n,,0.985
1633,2:n,2:n,,0.999
1634,2:n,2:n,,0.985
1635,1:y,1:y,,0.952
1636,1:y,1:y,,0.959
1637,1:y,1:y,,0.959
1638,2:n,2:n,,1
1639,1:y,2:n,+,0.857
1640,1:y,1:y,,0.985
1641,2:n,2:n,,0.985
1642,2:n,2:n,,0.995
1643,1:y,1:y,,0.985
1644,1:y,1:y,,0.929
1645,1:y,1:y,,0.929
1646,1:y,1:y,,0.929
1647,1:y,1:y,,0.852
1648,2:n,2:n,,0.999
1649,2:n,2:n,,0.995
1650,1:y,1:y,,0.982
1651,1:y,1:y,,0.985
1652,2:n,2:n,,0.999
1653,2:n,2:n,,0.995
1654,2:n,2:n,,0.995
1655,2:n,2:n,,0.999
1656,2:n,2:n,,0.949
1657,2:n,2:n,,0.985
1658,1:y,1:y,,0.959
1659,2:n,2:n,,0.985
1660,1:y,1:y,,0.959
1661,1:y,1:y,,0.985
1662,1:y,1:y,,0.982
1663,1:y,1:y,,0.985
1664,1:y,1:y,,0.959
1665,2:n,2:n,,0.999
1666,1:y,1:y,,0.985
1667,1:y,1:y,,0.95
1668,2:n,2:n,,0.964
1669,1:y,1:y,,0.985
1670,2:n,2:n,,0.95
1671,1:y,1:y,,0.93
1672,2:n,2:n,,0.999
1673,1:y,1:y,,0.959
1674,1:y,1:y,,0.985
1675,2:n,2:n,,1
1676,2:n,2:n,,0.985
1677,1:y,1:y,,0.959
1678,2:n,2:n,,0.946
1679,2:n,2:n,,0.98
1680,1:y,1:y,,0.93
1681,1:y,1:y,,0.985
1682,1:y,1:y,,0.985
1683,2:n,2:n,,0.956
1684,2:n,2:n,,0.985
1685,2:n,2:n,,0.995
1686,1:y,1:y,,0.959
1687,2:n,2:n,,0.995
1688,1:y,1:y,,0.985
1689,2:n,2:n,,0.999
1690,1:y,1:y,,0.874
1691,1:y,1:y,,0.985
1692,2:n,2:n,,1
1693,1:y,1:y,,0.982
1694,1:y,1:y,,0.982
1695,2:n,2:n,,0.999
1696,1:y,1:y,,0.919
1697,2:n,2:n,,0.985
1698,1:y,1:y,,0.985
1699,2:n,2:n,,0.999
1700,1:y,1:y,,0.985
1701,1:y,1:y,,0.95
1702,1:y,1:y,,0.985
1703,2:n,2:n,,0.985
1704,1:y,1:y,,0.985
1705,2:n,2:n,,0.995
1706,2:n,2:n,,0.98
1707,1:y,1:y,,0.95
1708,1:y,1:y,,0.982
1709,1:y,1:y,,0.852
1710,1:y,1:y,,0.929
1711,2:n,1:y,+,0.93
1712,1:y,1:y,,0.959
1713,1:y,1:y,,0.982
1714,1:y,1:y,,0.959
1715,1:y,1:y,,0.985
1716,2:n,2:n,,0.995
1717,1:y,1:y,,0.982
1718,2:n,2:n,,0.999
1719,2:n,2:n,,0.985
1720,1:y,1:y,,0.982
1721,1:y,1:y,,0.982
1722,2:n,2:n,,0.98
1723,2:n,2:n,,0.995
1724,1:y,1:y,,0.959
1725,1:y,1:y,,0.985
1726,2:n,2:n,,0.999
1727,2:n,2:n,,0.985
1728,1:y,1:y,,0.959
1729,1:y,1:y,,0.959
1730,2:n,2:n,,0.995
1731,1:y,1:y,,0.541
1732,1:y,1:y,,0.929
1733,2:n,2:n,,0.995
1734,2:n,2:n,,0.985
1735,1:y,1:y,,0.982
1736,2:n,2:n,,0.985
1737,1:y,1:y,,0.985
1738,2:n,2:n,,0.999
1739,2:n,2:n,,0.964
1740,2:n,2:n,,0.985
1741,1:y,1:y,,0.874
1742,2:n,2:n,,0.95
1743,1:y,1:y,,0.982
1744,2:n,2:n,,0.98
1745,2:n,2:n,,0.999
1746,2:n,2:n,,1
1747,1:y,1:y,,0.929
1748,1:y,1:y,,0.959
1749,2:n,2:n,,0.949
1750,2:n,2:n,,0.999
1751,2:n,2:n,,0.995
1752,1:y,1:y,,0.985
1753,1:y,1:y,,0.95
1754,1:y,1:y,,1
1755,2:n,2:n,,0.995
1756,2:n,2:n,,0.999
1757,2:n,2:n,,0.985
1758,2:n,1:y,+,0.959
1759,1:y,1:y,,0.985
1760,1:y,1:y,,0.93
1761,1:y,1:y,,0.985
1762,2:n,2:n,,0.995
1763,1:y,1:y,,0.959
1764,2:n,2:n,,0.995
1765,2:n,2:n,,0.985
1766,1:y,1:y,,0.982
1767,2:n,2:n,,0.985
1768,2:n,2:n,,0.995
1769,1:y,1:y,,0.959
1770,2:n,2:n,,0.999
1771,1:y,1:y,,0.922
1772,2:n,2:n,,0.995
1773,2:n,2:n,,0.995
1774,1:y,1:y,,0.982
1775,2:n,2:n,,1
1776,2:n,2:n,,0.985
1777,1:y,1:y,,0.982
1778,1:y,1:y,,0.985
1779,1:y,2:n,+,1
1780,2:n,2:n,,0.985
1781,1:y,1:y,,0.929
1782,1:y,1:y,,0.985
1783,2:n,2:n,,0.995
1784,2:n,2:n,,0.995
1785,2:n,2:n,,0.995
1786,2:n,1:y,+,0.985
1787,2:n,2:n,,0.995
1788,2:n,1:y,+,0.959
1789,2:n,2:n,,0.98
1790,2:n,2:n,,0.995
1791,1:y,1:y,,0.985
1792,1:y,1:y,,0.985
1793,2:n,2:n,,0.999
1794,1:y,1:y,,0.982
1795,2:n,2:n,,0.964
1796,1:y,1:y,,0.985
1797,1:y,1:y,,0.982
1798,2:n,2:n,,0.964
1799,2:n,2:n,,0.999
1800,2:n,2:n,,0.985
1801,1:y,1:y,,0.985
1802,1:y,1:y,,0.982
1803,1:y,1:y,,0.985
1804,1:y,1:y,,0.982
1805,1:y,1:y,,0.919
1806,2:n,2:n,,0.985
1807,1:y,1:y,,0.985
1808,2:n,2:n,,0.988
1809,1:y,1:y,,0.985
1810,2:n,2:n,,0.995
1811,1:y,1:y,,0.985
1812,2:n,2:n,,0.999
1813,1:y,1:y,,1
1814,1:y,1:y,,0.982
1815,1:y,1:y,,0.982
1816,2:n,2:n,,0.995
1817,2:n,2:n,,0.985
1818,1:y,1:y,,0.985
1819,2:n,2:n,,0.995
1820,2:n,2:n,,0.995
1821,1:y,1:y,,0.985
1822,1:y,1:y,,0.959
1823,1:y,1:y,,0.985
1824,1:y,1:y,,0.985
1825,1:y,1:y,,0.982
1826,1:y,1:y,,0.874
1827,1:y,1:y,,0.959
1828,1:y,1:y,,0.985
1829,2:n,2:n,,0.995
1830,1:y,1:y,,0.959
1831,1:y,1:y,,0.874
1832,2:n,2:n,,1
1833,1:y,1:y,,0.985
1834,1:y,1:y,,0.985
1835,2:n,2:n,,1
1836,1:y,1:y,,0.959
1837,2:n,2:n,,0.999
1838,2:n,2:n,,0.999
1839,1:y,1:y,,0.959
1840,2:n,2:n,,0.99
1841,2:n,2:n,,0.985
1842,1:y,1:y,,0.985
1843,1:y,1:y,,0.982
1844,2:n,2:n,,0.946
1845,1:y,1:y,,0.985
1846,2:n,2:n,,0.985
1847,2:n,2:n,,0.999
1848,2:n,2:n,,1
1849,2:n,2:n,,0.995
1850,1:y,1:y,,0.985
1851,1:y,1:y,,0.919
1852,1:y,1:y,,0.982
1853,1:y,1:y,,0.959
1854,1:y,1:y,,0.985
1855,1:y,1:y,,0.982
1856,2:n,2:n,,0.985
1857,2:n,2:n,,0.99
1858,2:n,2:n,,0.99
1859,2:n,2:n,,0.995
1860,1:y,1:y,,0.985
1861,1:y,1:y,,0.959
1862,2:n,2:n,,0.995
1863,2:n,2:n,,0.993
1864,2:n,1:y,+,0.985
1865,1:y,1:y,,0.985
1866,2:n,2:n,,0.995
1867,1:y,1:y,,0.985
1868,2:n,2:n,,0.985
1869,2:n,1:y,+,0.874
1870,1:y,1:y,,0.874
1871,2:n,2:n,,0.995
1872,1:y,1:y,,0.959
1873,1:y,1:y,,0.852
1874,2:n,2:n,,0.995
1875,1:y,1:y,,0.982
1876,2:n,2:n,,0.93
1877,1:y,1:y,,0.985
1878,1:y,1:y,,0.982
1879,1:y,1:y,,0.985
1880,2:n,2:n,,0.985
1881,1:y,1:y,,0.982
1882,2:n,2:n,,0.964
1883,2:n,2:n,,0.999
1884,1:y,1:y,,0.985
1885,2:n,2:n,,1
1886,2:n,2:n,,0.995
1887,1:y,1:y,,0.959
1888,1:y,1:y,,0.959
1889,2:n,2:n,,0.995
1890,2:n,2:n,,0.985
1891,2:n,2:n,,0.964
1892,2:n,2:n,,0.889
1893,2:n,2:n,,0.995
1894,1:y,1:y,,0.874
1895,1:y,1:y,,0.959
1896,1:y,1:y,,0.985
1897,2:n,2:n,,0.999
1898,2:n,2:n,,0.999
1899,1:y,1:y,,0.959
1900,1:y,1:y,,0.874
1901,2:n,2:n,,0.985
1902,1:y,1:y,,0.985
1903,2:n,1:y,+,0.8
1904,1:y,1:y,,0.959
1905,1:y,1:y,,0.985
1906,1:y,1:y,,0.919
1907,2:n,1:y,+,0.95
1908,1:y,1:y,,0.985
1909,1:y,1:y,,0.985
1910,2:n,2:n,,0.995
1911,1:y,1:y,,0.985
1912,2:n,2:n,,1
1913,2:n,2:n,,0.995
1914,1:y,1:y,,0.985
1915,2:n,2:n,,0.98
1916,1:y,1:y,,0.852
1917,1:y,1:y,,0.985
1918,2:n,2:n,,0.956
1919,2:n,2:n,,0.985
1920,1:y,1:y,,0.959
1921,1:y,1:y,,0.982
1922,2:n,2:n,,0.999
1923,2:n,2:n,,0.995
1924,1:y,1:y,,0.919
1925,1:y,1:y,,0.95
1926,2:n,2:n,,0.985
1927,1:y,1:y,,0.985
1928,1:y,1:y,,0.959
1929,2:n,2:n,,1
1930,2:n,1:y,+,0.982
1931,1:y,1:y,,0.959
1932,1:y,1:y,,0.985
1933,1:y,1:y,,0.985
1934,2:n,2:n,,0.999
1935,1:y,1:y,,0.874
1936,1:y,1:y,,0.982
1937,1:y,1:y,,0.959
1938,1:y,1:y,,0.985
1939,2:n,2:n,,1
1940,1:y,1:y,,0.985
1941,1:y,1:y,,0.985
1942,1:y,1:y,,0.985
1943,2:n,2:n,,0.995
1944,1:y,1:y,,0.985
1945,1:y,1:y,,0.985
1946,1:y,1:y,,0.985
1947,1:y,1:y,,0.985
1948,1:y,1:y,,0.982
1949,1:y,1:y,,0.959
1950,1:y,1:y,,0.919
1951,1:y,1:y,,0.982
1952,2:n,2:n,,0.985
1953,1:y,1:y,,0.982
1954,2:n,2:n,,0.995
1955,2:n,2:n,,0.995
1956,1:y,1:y,,0.985
1957,1:y,1:y,,0.959
1958,1:y,1:y,,0.985
1959,2:n,2:n,,0.985
1960,2:n,2:n,,0.995
1961,2:n,2:n,,0.949
1962,1:y,1:y,,0.985
1963,2:n,2:n,,0.999
1964,2:n,2:n,,0.995
1965,2:n,2:n,,1
1966,2:n,2:n,,0.985
1967,1:y,1:y,,0.929
1968,1:y,1:y,,0.959
1969,2:n,2:n,,0.985
1970,1:y,1:y,,0.874
1971,2:n,2:n,,0.882
1972,1:y,1:y,,0.985
1973,1:y,1:y,,0.95
1974,1:y,1:y,,0.985
1975,2:n,2:n,,0.985
1976,1:y,1:y,,1
1977,2:n,2:n,,0.995
1978,2:n,2:n,,0.985
1979,1:y,1:y,,0.852
1980,1:y,1:y,,0.982
1981,2:n,1:y,+,0.959
1982,2:n,2:n,,0.985
1983,2:n,2:n,,0.964
1984,1:y,1:y,,0.95
1985,2:n,2:n,,0.995
1986,1:y,1:y,,0.985
1987,2:n,2:n,,0.985
1988,1:y,1:y,,0.982
1989,1:y,1:y,,0.95
1990,1:y,1:y,,0.95
1991,2:n,2:n,,0.995
1992,2:n,2:n,,0.985
1993,2:n,2:n,,0.995
1994,2:n,2:n,,0.979
1995,1:y,1:y,,0.982
1996,2:n,2:n,,0.98
1997,1:y,1:y,,0.985
1998,2:n,2:n,,0.964
1999,2:n,2:n,,0.98
2000,2:n,2:n,,0.917
2001,1:y,1:y,,0.95
2002,1:y,1:y,,0.982
2003,1:y,1:y,,0.929
2004,1:y,1:y,,0.959
2005,1:y,1:y,,0.959
2006,1:y,1:y,,0.985
2007,1:y,1:y,,0.985
2008,1:y,1:y,,0.982
2009,2:n,2:n,,0.999
2010,1:y,1:y,,0.985
2011,1:y,1:y,,0.959
2012,2:n,2:n,,0.964
2013,1:y,1:y,,0.919
2014,2:n,1:y,+,0.959
2015,2:n,2:n,,0.995
2016,2:n,2:n,,0.985
2017,1:y,1:y,,0.985
2018,1:y,1:y,,0.959
2019,2:n,2:n,,0.999
2020,2:n,2:n,,0.999
2021,2:n,1:y,+,0.922
2022,2:n,2:n,,0.95
2023,2:n,2:n,,0.95
2024,2:n,2:n,,0.995
2025,2:n,2:n,,0.988
2026,1:y,1:y,,0.95
2027,2:n,2:n,,0.995
2028,1:y,1:y,,0.985
2029,2:n,2:n,,0.999
2030,2:n,2:n,,0.999
2031,2:n,2:n,,1
2032,2:n,2:n,,0.995
2033,1:y,1:y,,0.959
2034,1:y,1:y,,0.982
2035,1:y,1:y,,0.95
2036,1:y,1:y,,0.982
2037,1:y,1:y,,0.985
2038,2:n,2:n,,0.985
2039,1:y,1:y,,0.959
2040,2:n,2:n,,0.949
2041,2:n,2:n,,0.985
2042,2:n,2:n,,0.995
2043,1:y,2:n,+,0.955
2044,1:y,1:y,,0.985
2045,2:n,2:n,,0.98
2046,1:y,1:y,,0.874
2047,1:y,1:y,,0.985
2048,2:n,2:n,,0.995
2049,1:y,1:y,,0.985
2050,1:y,1:y,,0.982
2051,2:n,1:y,+,0.929
2052,1:y,1:y,,1
2053,2:n,2:n,,0.999
2054,2:n,2:n,,0.98
2055,1:y,1:y,,0.959
2056,1:y,1:y,,0.985
2057,1:y,1:y,,0.985
2058,2:n,1:y,+,0.8
2059,1:y,1:y,,1
2060,1:y,1:y,,0.959
2061,2:n,2:n,,0.995
2062,2:n,2:n,,0.985
2063,1:y,1:y,,0.985
2064,1:y,1:y,,0.959
2065,2:n,2:n,,0.985
2066,2:n,2:n,,0.999
2067,1:y,1:y,,0.985
2068,2:n,2:n,,0.995
2069,1:y,1:y,,0.982
2070,1:y,1:y,,0.985
2071,2:n,2:n,,0.964
2072,2:n,2:n,,0.995
2073,1:y,1:y,,0.982
2074,2:n,2:n,,0.995
2075,2:n,2:n,,0.995
2076,2:n,2:n,,0.995
2077,2:n,2:n,,0.995
2078,2:n,2:n,,0.985
2079,2:n,2:n,,0.999
2080,1:y,1:y,,0.852
2081,2:n,2:n,,0.999
2082,1:y,1:y,,0.985
2083,1:y,1:y,,0.985
2084,1:y,1:y,,0.985
2085,1:y,1:y,,0.959
2086,1:y,1:y,,0.959
2087,2:n,2:n,,0.946
2088,1:y,1:y,,0.985
2089,2:n,2:n,,0.985
2090,1:y,1:y,,0.985
2091,1:y,1:y,,0.985
2092,2:n,2:n,,0.995
2093,2:n,2:n,,0.999
2094,2:n,2:n,,0.985
2095,1:y,1:y,,0.982
2096,1:y,1:y,,0.985
2097,1:y,1:y,,0.985
2098,2:n,2:n,,0.999
2099,2:n,2:n,,1
2100,2:n,2:n,,0.995
2101,1:y,1:y,,0.985
2102,2:n,2:n,,0.995
2103,2:n,2:n,,0.999
2104,2:n,2:n,,0.995
2105,2:n,2:n,,0.995
2106,2:n,2:n,,0.985
2107,1:y,1:y,,0.982
2108,2:n,2:n,,0.985
2109,2:n,2:n,,0.995
2110,2:n,2:n,,0.985
2111,2:n,2:n,,0.995
2112,2:n,2:n,,0.95
2113,1:y,1:y,,0.985
2114,2:n,2:n,,0.987
2115,1:y,1:y,,0.959
2116,2:n,2:n,,0.995
2117,2:n,2:n,,0.995
2118,1:y,1:y,,0.982
2119,1:y,1:y,,0.985
2120,1:y,1:y,,0.985
2121,2:n,2:n,,0.995
2122,2:n,2:n,,0.999
2123,2:n,2:n,,0.995
2124,2:n,1:y,+,0.8
2125,2:n,2:n,,0.995
2126,1:y,1:y,,0.95
2127,1:y,1:y,,0.95
2128,1:y,1:y,,0.985
2129,2:n,2:n,,0.999
2130,1:y,1:y,,0.985
2131,2:n,2:n,,0.995
2132,1:y,1:y,,0.93
2133,1:y,1:y,,0.874
2134,2:n,2:n,,0.985
2135,2:n,2:n,,0.995
2136,2:n,2:n,,0.985
2137,2:n,2:n,,0.995
2138,1:y,1:y,,0.874
2139,2:n,2:n,,0.995
2140,1:y,1:y,,0.982
2141,1:y,1:y,,0.985
2142,1:y,1:y,,0.874
2143,2:n,2:n,,0.995
2144,2:n,2:n,,0.999
2145,2:n,2:n,,0.999
2146,1:y,1:y,,0.985
2147,1:y,1:y,,0.985
2148,1:y,1:y,,0.959
2149,2:n,2:n,,0.985
2150,1:y,1:y,,0.982
2151,2:n,2:n,,0.985
2152,1:y,1:y,,0.982
2153,1:y,1:y,,0.95
2154,2:n,2:n,,0.99
2155,2:n,2:n,,0.95
2156,1:y,1:y,,0.985
2157,2:n,1:y,+,0.75
2158,2:n,2:n,,0.964
2159,2:n,2:n,,0.949
2160,1:y,1:y,,0.852
2161,2:n,2:n,,0.985
2162,1:y,1:y,,0.95
2163,2:n,2:n,,0.999
2164,2:n,2:n,,0.949
2165,2:n,2:n,,0.949
2166,1:y,1:y,,0.959
2167,1:y,1:y,,0.982
2168,2:n,2:n,,0.964
2169,2:n,1:y,+,0.959
2170,2:n,2:n,,0.995
2171,2:n,2:n,,0.995
2172,2:n,2:n,,0.964
2173,1:y,1:y,,0.959
2174,1:y,1:y,,0.985
2175,1:y,1:y,,0.985
2176,2:n,2:n,,0.999
2177,1:y,1:y,,0.959
2178,1:y,1:y,,0.959
2179,1:y,1:y,,0.929
2180,1:y,1:y,,0.852
2181,1:y,1:y,,0.982
2182,1:y,1:y,,0.985
2183,1:y,1:y,,0.985
2184,2:n,2:n,,1
2185,1:y,1:y,,0.959
2186,1:y,1:y,,0.95
2187,2:n,2:n,,0.995
2188,1:y,1:y,,0.982
2189,2:n,2:n,,0.985
2190,2:n,2:n,,0.985
2191,2:n,2:n,,0.995
2192,2:n,2:n,,0.979
2193,2:n,2:n,,0.995
2194,1:y,1:y,,0.929
2195,1:y,1:y,,0.959
2196,2:n,2:n,,0.999
2197,2:n,2:n,,0.995
2198,1:y,1:y,,0.959
2199,2:n,2:n,,0.999
2200,1:y,1:y,,0.959
2201,1:y,1:y,,0.982
2202,2:n,2:n,,0.999
2203,1:y,1:y,,0.982
2204,1:y,1:y,,0.982
2205,1:y,1:y,,0.959
2206,1:y,1:y,,0.985
2207,2:n,2:n,,0.98
2208,2:n,2:n,,0.98
2209,1:y,1:y,,0.95
2210,1:y,1:y,,0.985
2211,1:y,1:y,,0.982
2212,1:y,1:y,,0.985
2213,1:y,1:y,,0.982
2214,2:n,2:n,,0.964
2215,1:y,1:y,,0.985
2216,1:y,1:y,,0.959
2217,1:y,1:y,,0.985
2218,2:n,2:n,,0.946
2219,2:n,2:n,,0.995
2220,2:n,2:n,,0.995
2221,1:y,1:y,,0.982
2222,2:n,2:n,,0.964
2223,2:n,2:n,,0.946
2224,1:y,1:y,,0.959
2225,1:y,1:y,,0.985
2226,1:y,1:y,,0.95
2227,2:n,2:n,,0.995
2228,2:n,2:n,,0.999
2229,1:y,1:y,,0.985
2230,1:y,1:y,,0.982
2231,2:n,2:n,,1
2232,1:y,1:y,,0.852
2233,1:y,1:y,,0.985
2234,1:y,1:y,,0.985
2235,1:y,1:y,,0.919
2236,1:y,1:y,,0.982
2237,1:y,1:y,,0.985
2238,1:y,1:y,,0.95
2239,2:n,2:n,,0.985
2240,1:y,1:y,,0.985
2241,1:y,1:y,,0.917
2242,2:n,2:n,,0.999
2243,2:n,1:y,+,0.95
2244,1:y,1:y,,0.982
2245,2:n,2:n,,0.995
2246,2:n,2:n,,0.985
2247,2:n,2:n,,0.949
2248,2:n,2:n,,1
2249,2:n,2:n,,0.995
2250,2:n,2:n,,0.964
2251,2:n,2:n,,0.995
2252,1:y,1:y,,0.985
2253,1:y,1:y,,0.982
2254,2:n,2:n,,0.995
2255,2:n,2:n,,0.95
2256,1:y,1:y,,0.985
2257,2:n,2:n,,0.985
2258,1:y,1:y,,0.982
2259,1:y,1:y,,1
2260,1:y,1:y,,0.982
2261,2:n,2:n,,0.995
2262,2:n,2:n,,0.995
2263,2:n,2:n,,0.995
2264,2:n,2:n,,0.995
2265,2:n,2:n,,0.985
2266,2:n,2:n,,0.949
2267,1:y,1:y,,0.985
2268,1:y,1:y,,0.982
2269,1:y,1:y,,1
2270,1:y,1:y,,0.959
2271,2:n,2:n,,0.995
2272,2:n,2:n,,0.995
2273,1:y,1:y,,0.874
2274,1:y,1:y,,0.929
2275,2:n,2:n,,0.995
2276,2:n,2:n,,0.985
2277,2:n,2:n,,1
2278,1:y,1:y,,0.959
2279,1:y,1:y,,0.985
2280,2:n,2:n,,0.999
2281,2:n,2:n,,0.98
2282,1:y,1:y,,0.985
2283,2:n,2:n,,0.995
2284,2:n,2:n,,0.995
2285,1:y,1:y,,0.929
2286,2:n,2:n,,0.995
2287,1:y,1:y,,0.985
2288,1:y,1:y,,0.985
2289,2:n,2:n,,0.999
2290,2:n,2:n,,0.999
2291,1:y,1:y,,0.985
2292,1:y,1:y,,0.985
2293,1:y,1:y,,0.959
2294,1:y,1:y,,0.959
2295,2:n,2:n,,0.999
2296,1:y,1:y,,0.985
2297,1:y,1:y,,0.985
2298,1:y,1:y,,0.959
2299,1:y,1:y,,0.95
2300,2:n,2:n,,0.985
2301,2:n,2:n,,0.98
2302,2:n,2:n,,0.985
2303,2:n,2:n,,0.985
2304,1:y,1:y,,0.982
2305,1:y,1:y,,0.985
2306,1:y,1:y,,0.95
2307,1:y,1:y,,0.985
2308,1:y,1:y,,0.982
2309,2:n,2:n,,0.999
2310,1:y,1:y,,0.982
2311,1:y,2:n,+,0.999
2312,2:n,1:y,+,1
2313,1:y,1:y,,0.985
2314,2:n,2:n,,0.999
2315,2:n,2:n,,0.995
2316,1:y,1:y,,0.982
2317,1:y,1:y,,0.985
2318,2:n,1:y,+,1
2319,1:y,1:y,,1
2320,2:n,2:n,,0.999
2321,1:y,1:y,,0.982
2322,1:y,1:y,,0.985
2323,1:y,1:y,,0.985
2324,2:n,2:n,,0.985
2325,2:n,2:n,,0.995
2326,2:n,2:n,,0.999
2327,1:y,1:y,,0.959
2328,1:y,1:y,,0.959
2329,2:n,2:n,,0.93
2330,1:y,1:y,,0.985
2331,1:y,1:y,,0.97
2332,1:y,1:y,,0.959
2333,2:n,2:n,,0.995
2334,2:n,2:n,,0.995
2335,2:n,2:n,,0.995
2336,1:y,1:y,,0.959
2337,1:y,1:y,,0.982
2338,2:n,2:n,,0.999
2339,1:y,1:y,,0.982
2340,1:y,1:y,,0.982
2341,2:n,2:n,,0.995
2342,2:n,2:n,,0.985
2343,2:n,2:n,,0.985
2344,1:y,1:y,,0.982
2345,2:n,2:n,,0.995
2346,2:n,2:n,,0.999
2347,2:n,1:y,+,0.874
2348,1:y,1:y,,0.982
2349,1:y,1:y,,0.985
2350,1:y,1:y,,0.985
2351,2:n,2:n,,0.995
2352,1:y,1:y,,0.95
2353,2:n,2:n,,0.995
2354,2:n,2:n,,0.964
2355,2:n,2:n,,0.995
2356,2:n,2:n,,0.995
2357,2:n,2:n,,0.995
2358,2:n,2:n,,0.985
2359,1:y,1:y,,0.95
2360,1:y,1:y,,0.959
2361,2:n,2:n,,0.995
2362,2:n,2:n,,0.999
2363,2:n,2:n,,0.995
2364,1:y,1:y,,0.985
2365,1:y,1:y,,0.982
2366,2:n,2:n,,0.955
2367,2:n,2:n,,0.999
2368,1:y,1:y,,0.985
2369,2:n,2:n,,0.985
2370,2:n,2:n,,0.995
2371,2:n,2:n,,0.985
2372,2:n,2:n,,0.995
2373,1:y,1:y,,0.985
2374,1:y,1:y,,0.874
2375,2:n,2:n,,0.882
2376,1:y,1:y,,0.982
2377,2:n,2:n,,0.995
2378,2:n,2:n,,0.999
2379,1:y,1:y,,0.982
2380,1:y,1:y,,0.852
2381,1:y,1:y,,0.982
2382,2:n,2:n,,0.98
2383,1:y,1:y,,0.75
2384,2:n,2:n,,0.999
2385,2:n,2:n,,0.995
2386,1:y,1:y,,0.982
2387,2:n,2:n,,0.999
2388,1:y,1:y,,0.959
2389,1:y,1:y,,0.982
2390,1:y,1:y,,0.95
2391,2:n,2:n,,0.995
2392,1:y,1:y,,0.982
2393,1:y,1:y,,0.874
2394,2:n,2:n,,0.985
2395,2:n,2:n,,0.999
2396,2:n,2:n,,0.985
2397,2:n,2:n,,0.999
2398,2:n,2:n,,0.995
2399,2:n,2:n,,0.995
2400,2:n,2:n,,0.985
2401,1:y,1:y,,0.985
2402,1:y,1:y,,0.919
2403,2:n,2:n,,0.98
2404,2:n,2:n,,1
2405,1:y,1:y,,0.917
2406,2:n,2:n,,0.98
2407,2:n,2:n,,0.995
2408,1:y,1:y,,0.982
2409,2:n,2:n,,0.934
2410,1:y,1:y,,0.982
2411,1:y,1:y,,0.985
2412,1:y,1:y,,0.959
2413,2:n,2:n,,0.98
2414,1:y,1:y,,0.95
2415,2:n,2:n,,0.949
2416,2:n,2:n,,0.999
2417,1:y,1:y,,0.959
2418,1:y,1:y,,0.982
2419,1:y,1:y,,0.985
2420,1:y,1:y,,0.959
2421,1:y,1:y,,0.93
2422,1:y,1:y,,0.985
2423,2:n,2:n,,0.995
2424,1:y,1:y,,0.982
2425,2:n,2:n,,0.995
2426,1:y,1:y,,0.982
2427,1:y,1:y,,0.919
2428,1:y,1:y,,1
2429,2:n,2:n,,0.995
2430,2:n,2:n,,0.98
2431,2:n,2:n,,0.985
2432,2:n,2:n,,0.964
2433,1:y,1:y,,0.982
2434,1:y,1:y,,0.959
2435,1:y,1:y,,0.922
2436,1:y,2:n,+,1
2437,2:n,2:n,,0.995
2438,2:n,2:n,,0.93
2439,1:y,1:y,,0.985
2440,2:n,2:n,,0.99
2441,1:y,1:y,,0.982
2442,1:y,1:y,,0.985
2443,2:n,2:n,,0.999
2444,1:y,1:y,,0.982
2445,2:n,2:n,,0.985
2446,2:n,2:n,,0.995
2447,1:y,1:y,,0.982
2448,2:n,2:n,,0.99
2449,1:y,1:y,,0.985
2450,2:n,2:n,,0.993
2451,1:y,1:y,,0.919
2452,1:y,1:y,,0.982
2453,1:y,1:y,,0.95
2454,2:n,2:n,,0.999
2455,2:n,2:n,,0.985
2456,1:y,1:y,,0.982
2457,1:y,1:y,,0.985
2458,1:y,1:y,,0.982
2459,1:y,1:y,,0.919
2460,2:n,2:n,,0.999
2461,1:y,1:y,,0.959
2462,1:y,1:y,,0.959
2463,1:y,1:y,,0.985
2464,2:n,2:n,,0.999
2465,2:n,2:n,,0.946
2466,1:y,1:y,,0.985
2467,2:n,2:n,,0.99
2468,1:y,1:y,,0.985
2469,1:y,1:y,,0.982
2470,1:y,1:y,,0.959
2471,1:y,1:y,,0.985
2472,1:y,1:y,,0.985
2473,2:n,2:n,,0.993
2474,2:n,2:n,,0.995
2475,2:n,2:n,,0.985
2476,1:y,1:y,,0.985
2477,1:y,1:y,,0.852
2478,1:y,1:y,,0.985
2479,2:n,2:n,,0.995
2480,2:n,2:n,,0.995
2481,2:n,2:n,,0.985
2482,1:y,1:y,,0.985
2483,1:y,1:y,,0.985
2484,1:y,1:y,,0.992
2485,2:n,1:y,+,1
2486,1:y,1:y,,0.919
2487,1:y,1:y,,0.982
2488,2:n,2:n,,0.985
2489,2:n,2:n,,1
2490,1:y,1:y,,0.985
2491,2:n,1:y,+,1
2492,2:n,2:n,,0.995
2493,1:y,1:y,,0.982
2494,2:n,2:n,,0.964
2495,2:n,2:n,,0.955
2496,2:n,2:n,,1
2497,2:n,2:n,,0.995
2498,1:y,1:y,,0.959
2499,2:n,2:n,,0.99
2500,2:n,2:n,,0.833
2501,2:n,2:n,,0.985
2502,1:y,1:y,,0.982
2503,1:y,1:y,,0.982
2504,2:n,2:n,,0.985
2505,1:y,1:y,,0.93
2506,1:y,1:y,,0.95
2507,1:y,1:y,,0.985
2508,1:y,1:y,,0.985
2509,1:y,1:y,,0.982
2510,2:n,2:n,,1
2511,2:n,2:n,,0.985
2512,1:y,1:y,,0.852
2513,1:y,1:y,,0.982
2514,1:y,1:y,,0.982
2515,2:n,2:n,,0.999
2516,2:n,2:n,,0.999
2517,2:n,2:n,,0.993
2518,1:y,1:y,,0.852
2519,1:y,1:y,,0.852
2520,2:n,2:n,,0.999
2521,1:y,1:y,,0.919
2522,1:y,1:y,,0.985
2523,1:y,1:y,,0.982
2524,2:n,1:y,+,0.8
2525,1:y,1:y,,0.919
2526,2:n,2:n,,0.995
2527,1:y,1:y,,0.982
2528,2:n,2:n,,0.985
2529,1:y,1:y,,0.959
2530,2:n,2:n,,1
2531,2:n,2:n,,0.995
2532,1:y,1:y,,0.982
2533,1:y,1:y,,0.985
2534,1:y,1:y,,0.919
2535,1:y,1:y,,0.852
2536,1:y,1:y,,0.985
2537,1:y,1:y,,0.985
2538,1:y,1:y,,0.985
2539,1:y,1:y,,0.852
2540,2:n,2:n,,0.995
2541,2:n,2:n,,0.985
2542,1:y,1:y,,0.985
2543,2:n,2:n,,0.995
2544,1:y,1:y,,1
2545,2:n,2:n,,0.995
2546,2:n,2:n,,0.985
2547,2:n,2:n,,0.999
2548,2:n,2:n,,0.964
2549,2:n,2:n,,0.999
2550,2:n,2:n,,0.999
2551,1:y,1:y,,0.982
2552,1:y,1:y,,0.982
2553,2:n,2:n,,0.999
2554,2:n,2:n,,0.99
2555,1:y,1:y,,0.959
2556,2:n,2:n,,0.938
2557,1:y,1:y,,0.982
2558,2:n,2:n,,1
2559,1:y,1:y,,0.982
2560,2:n,2:n,,0.964
2561,1:y,1:y,,0.985
2562,1:y,1:y,,0.982
2563,2:n,2:n,,0.985
2564,2:n,2:n,,0.999
2565,1:y,1:y,,0.985
2566,1:y,1:y,,0.985
2567,2:n,2:n,,0.995
2568,2:n,2:n,,0.999
2569,2:n,2:n,,0.985
2570,2:n,2:n,,0.98
2571,2:n,2:n,,0.999
2572,1:y,1:y,,0.985
2573,1:y,1:y,,0.985
2574,2:n,2:n,,0.995
2575,2:n,2:n,,0.993
2576,1:y,1:y,,0.959
2577,1:y,1:y,,0.982
2578,2:n,1:y,+,0.982
2579,1:y,1:y,,0.985
2580,2:n,2:n,,1
2581,1:y,1:y,,0.982
2582,2:n,2:n,,0.993
2583,1:y,1:y,,0.985
2584,1:y,1:y,,0.985
2585,2:n,2:n,,0.985
2586,2:n,2:n,,1
2587,2:n,2:n,,0.995
2588,1:y,1:y,,0.982
2589,1:y,1:y,,0.959
2590,2:n,2:n,,0.99
2591,1:y,1:y,,0.982
2592,2:n,2:n,,0.985
2593,1:y,1:y,,0.985
2594,2:n,2:n,,0.995
2595,1:y,1:y,,0.985
2596,2:n,2:n,,0.985
2597,1:y,1:y,,0.982
2598,1:y,1:y,,0.919
2599,1:y,1:y,,0.985
2600,2:n,2:n,,0.995
2601,2:n,2:n,,0.999
2602,2:n,2:n,,0.995
2603,1:y,1:y,,0.982
2604,2:n,2:n,,0.993
2605,1:y,1:y,,0.985
2606,1:y,1:y,,0.982
2607,1:y,1:y,,0.982
2608,1:y,1:y,,0.982
2609,2:n,2:n,,0.995
2610,2:n,2:n,,0.995
2611,2:n,2:n,,0.995
2612,1:y,1:y,,0.959
2613,1:y,1:y,,0.982
2614,1:y,2:n,+,1
2615,1:y,1:y,,0.93
2616,2:n,2:n,,0.995
2617,1:y,1:y,,0.985
2618,1:y,1:y,,0.985
2619,1:y,1:y,,0.852
2620,2:n,2:n,,0.999
2621,1:y,1:y,,0.985
2622,1:y,1:y,,0.985
2623,1:y,1:y,,0.919
2624,1:y,1:y,,0.874
2625,2:n,2:n,,1
2626,1:y,1:y,,0.982
2627,2:n,1:y,+,0.874
2628,2:n,2:n,,0.995
2629,1:y,1:y,,0.959
2630,1:y,1:y,,0.985
2631,1:y,1:y,,0.985
2632,1:y,1:y,,0.985
2633,2:n,2:n,,0.964
2634,2:n,2:n,,0.995
2635,1:y,1:y,,0.985
2636,1:y,1:y,,0.959
2637,1:y,1:y,,0.874
2638,2:n,2:n,,0.964
2639,1:y,1:y,,0.874
2640,1:y,1:y,,0.985
2641,2:n,2:n,,0.995
2642,2:n,2:n,,0.999
2643,2:n,2:n,,0.985
2644,2:n,2:n,,0.999
2645,2:n,2:n,,0.995
2646,1:y,1:y,,0.985
2647,1:y,1:y,,0.982
2648,1:y,1:y,,0.93
2649,1:y,1:y,,0.985
2650,2:n,2:n,,0.999
2651,2:n,2:n,,0.995
2652,2:n,2:n,,0.995
2653,2:n,2:n,,0.985
2654,1:y,1:y,,0.982
2655,1:y,1:y,,0.95
2656,2:n,2:n,,0.999
2657,2:n,2:n,,0.995
2658,2:n,2:n,,0.99
2659,1:y,1:y,,0.982
2660,1:y,1:y,,0.95
2661,1:y,1:y,,0.982
2662,2:n,2:n,,0.964
2663,1:y,1:y,,0.959
2664,2:n,2:n,,0.999
2665,2:n,2:n,,0.995
2666,1:y,1:y,,0.985
2667,1:y,1:y,,0.985
2668,1:y,1:y,,0.919
2669,2:n,2:n,,0.995
2670,1:y,1:y,,0.95
2671,2:n,2:n,,0.999
2672,2:n,2:n,,0.999
2673,2:n,2:n,,0.995
2674,2:n,2:n,,0.991
2675,1:y,1:y,,0.852
2676,1:y,1:y,,0.985
2677,2:n,2:n,,0.995
2678,2:n,2:n,,0.999
2679,1:y,1:y,,0.959
2680,1:y,1:y,,0.982
2681,1:y,1:y,,0.95
2682,2:n,2:n,,0.995
2683,1:y,2:n,+,0.995
2684,2:n,2:n,,0.985
2685,2:n,2:n,,0.999
2686,1:y,1:y,,0.929
2687,1:y,1:y,,0.982
2688,1:y,1:y,,0.874
2689,1:y,1:y,,0.985
2690,2:n,2:n,,0.995
2691,1:y,1:y,,0.985
2692,2:n,2:n,,0.985
2693,1:y,1:y,,0.919
2694,1:y,1:y,,0.874
2695,1:y,1:y,,0.959
2696,2:n,2:n,,0.999
2697,1:y,1:y,,0.959
2698,1:y,1:y,,0.959
2699,1:y,1:y,,0.985
2700,2:n,2:n,,0.995
2701,1:y,1:y,,0.982
2702,2:n,2:n,,0.985
2703,1:y,1:y,,0.982
2704,2:n,2:n,,0.999
2705,2:n,2:n,,0.995
2706,1:y,1:y,,0.852
2707,2:n,2:n,,0.985
2708,2:n,2:n,,0.999
2709,2:n,2:n,,0.985
2710,2:n,2:n,,0.98
2711,2:n,2:n,,0.995
2712,1:y,1:y,,0.982
2713,1:y,1:y,,0.985
2714,1:y,1:y,,0.982
2715,2:n,2:n,,0.995
2716,2:n,2:n,,0.995
2717,2:n,2:n,,0.995
2718,2:n,2:n,,0.995
2719,2:n,2:n,,0.999
2720,2:n,2:n,,0.949
2721,1:y,1:y,,0.852
2722,2:n,1:y,+,0.959
2723,2:n,2:n,,0.999
2724,1:y,1:y,,0.982
2725,2:n,2:n,,0.964
2726,2:n,2:n,,0.985
2727,1:y,1:y,,0.874
2728,2:n,2:n,,0.995
2729,1:y,1:y,,0.982
2730,2:n,2:n,,0.999
2731,1:y,1:y,,0.959
2732,1:y,1:y,,0.95
2733,1:y,1:y,,0.95
2734,2:n,2:n,,0.985
2735,2:n,2:n,,0.995
2736,2:n,2:n,,1
2737,1:y,1:y,,0.982
2738,1:y,1:y,,0.985
2739,2:n,2:n,,0.995
2740,2:n,2:n,,0.995
2741,2:n,2:n,,0.985
2742,1:y,1:y,,0.959
2743,1:y,1:y,,0.982
2744,2:n,2:n,,0.995
2745,1:y,2:n,+,0.95
2746,2:n,2:n,,0.985
2747,1:y,1:y,,0.985
2748,1:y,1:y,,0.852
2749,2:n,2:n,,0.995
2750,2:n,2:n,,0.995
2751,2:n,2:n,,0.995
2752,2:n,2:n,,0.999
2753,2:n,2:n,,0.956
2754,2:n,2:n,,0.999
2755,1:y,1:y,,0.919
2756,2:n,2:n,,0.999
2757,2:n,2:n,,0.995
2758,1:y,1:y,,0.874
2759,1:y,1:y,,0.852
2760,2:n,2:n,,0.995
2761,2:n,2:n,,0.995
2762,2:n,2:n,,0.98
2763,1:y,1:y,,0.985
2764,1:y,1:y,,0.959
2765,1:y,1:y,,0.985
2766,2:n,2:n,,0.995
2767,1:y,1:y,,0.982
2768,2:n,2:n,,0.999
2769,2:n,2:n,,0.995
2770,1:y,1:y,,0.985
2771,2:n,2:n,,0.964
2772,1:y,2:n,+,1
2773,2:n,2:n,,0.999
2774,1:y,1:y,,0.874
2775,2:n,2:n,,1
2776,2:n,2:n,,0.999
2777,1:y,1:y,,0.982
2778,1:y,1:y,,0.982
2779,2:n,2:n,,0.946
2780,1:y,1:y,,0.852
2781,2:n,2:n,,0.985
2782,1:y,1:y,,0.985
2783,1:y,1:y,,0.93
2784,2:n,2:n,,0.985
2785,1:y,1:y,,0.985
2786,2:n,2:n,,0.985
2787,2:n,2:n,,0.995
2788,2:n,2:n,,0.999
2789,1:y,1:y,,0.95
2790,1:y,1:y,,0.985
2791,2:n,2:n,,1
2792,1:y,1:y,,0.959
2793,2:n,2:n,,0.995
2794,1:y,1:y,,0.959
2795,2:n,2:n,,0.995
2796,1:y,1:y,,0.919
2797,1:y,1:y,,0.985
2798,1:y,1:y,,0.874
2799,2:n,2:n,,0.985
2800,2:n,2:n,,0.985
2801,1:y,1:y,,0.985
2802,1:y,1:y,,0.959
2803,2:n,2:n,,0.995
2804,1:y,1:y,,0.985
2805,2:n,2:n,,0.995
2806,1:y,1:y,,0.959
2807,2:n,2:n,,1
2808,2:n,2:n,,0.99
2809,2:n,2:n,,0.999
2810,1:y,1:y,,0.985
2811,2:n,2:n,,0.995
2812,2:n,2:n,,0.964
2813,2:n,2:n,,0.949
2814,1:y,1:y,,0.982
2815,1:y,1:y,,0.985
2816,2:n,2:n,,0.99
2817,1:y,1:y,,0.985
2818,1:y,1:y,,0.985
2819,2:n,2:n,,0.95
2820,2:n,2:n,,0.949
2821,1:y,1:y,,0.929
2822,1:y,1:y,,0.959
2823,2:n,2:n,,0.985
2824,2:n,2:n,,0.995
2825,1:y,1:y,,0.959
2826,1:y,1:y,,0.982
2827,1:y,1:y,,0.985
2828,1:y,1:y,,0.959
2829,1:y,1:y,,0.982
2830,2:n,2:n,,0.999
2831,2:n,2:n,,1
2832,2:n,2:n,,0.985
2833,1:y,1:y,,0.985
2834,2:n,2:n,,0.985
2835,1:y,2:n,+,1
2836,2:n,2:n,,0.985
2837,1:y,2:n,+,0.993
2838,2:n,2:n,,1
2839,1:y,1:y,,0.985
2840,1:y,1:y,,0.982
2841,1:y,1:y,,0.982
2842,1:y,1:y,,0.959
2843,1:y,1:y,,0.959
2844,2:n,2:n,,0.995
2845,2:n,2:n,,0.999
2846,2:n,2:n,,0.999
2847,1:y,1:y,,0.874
2848,2:n,1:y,+,0.985
2849,1:y,1:y,,0.929
2850,2:n,2:n,,0.985
2851,1:y,2:n,+,0.93
2852,1:y,1:y,,0.93
2853,2:n,2:n,,0.949
2854,1:y,1:y,,0.985
2855,2:n,2:n,,0.995
2856,1:y,1:y,,0.852
2857,1:y,1:y,,0.959
2858,2:n,2:n,,1
2859,2:n,2:n,,1
2860,1:y,1:y,,0.985
2861,2:n,2:n,,0.999
2862,1:y,1:y,,0.959
2863,1:y,1:y,,0.985
2864,1:y,1:y,,0.985
2865,1:y,1:y,,0.93
2866,1:y,1:y,,0.982
2867,2:n,2:n,,0.993
2868,2:n,2:n,,0.99
2869,2:n,2:n,,0.995
2870,2:n,2:n,,0.964
2871,2:n,2:n,,0.999
2872,1:y,1:y,,0.985
2873,1:y,1:y,,0.982
2874,1:y,1:y,,0.982
2875,2:n,2:n,,0.995
2876,2:n,2:n,,0.949
2877,2:n,2:n,,0.985
2878,1:y,1:y,,0.985
2879,2:n,2:n,,0.999
2880,2:n,2:n,,0.985
2881,1:y,1:y,,0.982
2882,1:y,1:y,,0.874
2883,2:n,2:n,,0.999
2884,2:n,2:n,,0.955
2885,2:n,2:n,,1
2886,1:y,1:y,,0.985
2887,1:y,1:y,,0.919
2888,1:y,1:y,,0.982
2889,1:y,1:y,,0.982
2890,1:y,1:y,,0.982
2891,1:y,1:y,,0.959
2892,2:n,1:y,+,0.75
2893,2:n,2:n,,0.99
2894,2:n,2:n,,0.993
2895,1:y,1:y,,0.95
2896,1:y,1:y,,0.852
2897,2:n,2:n,,0.995
2898,1:y,1:y,,0.985
2899,2:n,2:n,,0.995
2900,1:y,1:y,,0.959
2901,1:y,1:y,,0.874
2902,1:y,1:y,,0.959
2903,1:y,1:y,,0.952
2904,2:n,2:n,,0.956
2905,2:n,2:n,,0.995
2906,1:y,2:n,+,0.882
2907,2:n,2:n,,0.949
2908,2:n,2:n,,0.995
2909,1:y,1:y,,0.985
2910,2:n,1:y,+,0.852
2911,2:n,2:n,,0.985
2912,1:y,2:n,+,0.98
2913,2:n,2:n,,1
2914,2:n,2:n,,0.999
2915,1:y,1:y,,0.982
2916,1:y,1:y,,0.952
2917,2:n,2:n,,0.985
2918,2:n,2:n,,0.995
2919,2:n,2:n,,0.964
2920,2:n,2:n,,0.995
2921,2:n,2:n,,0.995
2922,1:y,1:y,,0.93
2923,2:n,2:n,,0.985
2924,2:n,2:n,,0.995
2925,2:n,2:n,,0.995
2926,1:y,1:y,,0.985
2927,1:y,1:y,,0.982
2928,2:n,2:n,,0.995
2929,1:y,1:y,,0.985
2930,1:y,1:y,,1
2931,1:y,1:y,,0.959
2932,2:n,2:n,,0.995
2933,1:y,1:y,,0.985
2934,2:n,2:n,,0.985
2935,2:n,2:n,,0.995
2936,2:n,2:n,,0.995
2937,2:n,2:n,,0.995
2938,1:y,1:y,,0.959
2939,2:n,2:n,,0.995
2940,2:n,2:n,,0.995
2941,2:n,2:n,,0.985
2942,1:y,1:y,,0.874
2943,2:n,2:n,,0.995
2944,1:y,1:y,,0.982
2945,1:y,1:y,,0.959
2946,1:y,1:y,,0.874
2947,2:n,2:n,,0.964
2948,1:y,1:y,,0.985
2949,2:n,1:y,+,0.95
2950,2:n,2:n,,0.999
2951,1:y,1:y,,0.852
2952,2:n,2:n,,0.949
2953,2:n,2:n,,1
2954,1:y,1:y,,0.985
2955,2:n,2:n,,0.999
2956,2:n,2:n,,0.99
2957,2:n,2:n,,0.995
2958,2:n,2:n,,0.979
2959,2:n,2:n,,0.985
2960,2:n,2:n,,0.993
2961,2:n,2:n,,0.995
2962,2:n,2:n,,0.985
2963,1:y,1:y,,0.95
2964,2:n,2:n,,1
2965,2:n,2:n,,0.995
2966,1:y,1:y,,0.95
2967,1:y,1:y,,0.982
2968,1:y,1:y,,0.985
2969,2:n,2:n,,0.949
2970,2:n,2:n,,0.999
2971,2:n,2:n,,0.949
2972,1:y,1:y,,0.982
2973,2:n,2:n,,0.995
2974,2:n,2:n,,0.999
2975,2:n,2:n,,0.95
2976,2:n,2:n,,0.995
2977,2:n,2:n,,0.995
2978,1:y,1:y,,0.982
2979,2:n,2:n,,0.999
2980,2:n,2:n,,0.993
2981,2:n,2:n,,0.995
2982,2:n,2:n,,0.985
2983,1:y,1:y,,0.929
2984,1:y,1:y,,0.985
2985,1:y,1:y,,0.929
2986,2:n,2:n,,0.999
2987,1:y,1:y,,0.985
2988,1:y,1:y,,0.985
2989,2:n,2:n,,0.999
2990,1:y,1:y,,0.959
2991,1:y,1:y,,0.982
2992,2:n,2:n,,0.993
2993,2:n,2:n,,0.995
2994,1:y,2:n,+,0.933
2995,1:y,1:y,,0.982
2996,2:n,2:n,,0.999
2997,1:y,1:y,,0.985
2998,2:n,2:n,,0.985
2999,2:n,2:n,,0.857
3000,1:y,1:y,,0.95
3001,2:n,2:n,,0.985
3002,2:n,2:n,,0.999
3003,2:n,2:n,,0.995
3004,1:y,1:y,,0.985
3005,1:y,1:y,,0.852
3006,1:y,1:y,,0.985
3007,1:y,1:y,,0.985
3008,1:y,1:y,,0.852
3009,2:n,2:n,,0.995
3010,1:y,1:y,,0.985
3011,1:y,1:y,,0.985
3012,2:n,2:n,,0.995
3013,1:y,1:y,,0.985
3014,2:n,2:n,,0.999
3015,1:y,1:y,,0.985
3016,2:n,2:n,,0.999
3017,1:y,1:y,,0.959
3018,2:n,2:n,,0.995
3019,2:n,2:n,,0.995
3020,1:y,1:y,,0.874
3021,2:n,2:n,,0.995
3022,1:y,1:y,,0.985
3023,2:n,2:n,,0.995
3024,2:n,1:y,+,1
3025,2:n,2:n,,1
3026,2:n,2:n,,0.995
3027,1:y,1:y,,0.982
3028,2:n,2:n,,0.995
3029,2:n,2:n,,0.985
3030,1:y,1:y,,0.959
3031,1:y,1:y,,0.982
3032,2:n,2:n,,0.999
3033,1:y,1:y,,0.982
3034,1:y,1:y,,0.982
3035,2:n,2:n,,0.999
3036,2:n,2:n,,0.964
3037,2:n,1:y,+,0.982
3038,1:y,1:y,,0.852
3039,2:n,2:n,,0.999
3040,1:y,1:y,,0.985
3041,2:n,2:n,,0.995
3042,1:y,1:y,,0.959
3043,1:y,1:y,,0.95
3044,1:y,1:y,,0.985
3045,1:y,2:n,+,0.985
3046,1:y,1:y,,0.95
3047,1:y,1:y,,0.959
3048,2:n,2:n,,0.995
3049,2:n,2:n,,0.985
3050,2:n,1:y,+,0.959
3051,2:n,2:n,,0.999
3052,2:n,2:n,,0.995
3053,1:y,1:y,,0.959
3054,2:n,2:n,,0.995
3055,2:n,2:n,,0.956
3056,1:y,1:y,,0.959
3057,1:y,1:y,,0.985
3058,2:n,2:n,,0.999
3059,1:y,1:y,,0.95
3060,1:y,1:y,,0.959
3061,2:n,2:n,,0.995
3062,1:y,1:y,,0.959
3063,1:y,1:y,,0.985
3064,2:n,2:n,,0.99
3065,2:n,2:n,,0.995
3066,1:y,1:y,,0.985
3067,2:n,1:y,+,0.959
3068,2:n,2:n,,0.995
3069,2:n,2:n,,0.964
3070,1:y,1:y,,0.982
3071,2:n,2:n,,0.999
3072,1:y,1:y,,0.93
3073,1:y,1:y,,0.541
3074,1:y,1:y,,0.982
3075,2:n,2:n,,0.999
3076,2:n,2:n,,0.985
3077,1:y,1:y,,0.982
3078,2:n,2:n,,0.999
3079,1:y,1:y,,0.982
3080,2:n,2:n,,0.999
3081,2:n,2:n,,0.995
3082,1:y,1:y,,0.985
3083,2:n,1:y,+,0.929
3084,1:y,1:y,,0.95
3085,1:y,1:y,,0.95
3086,2:n,2:n,,0.985
3087,2:n,2:n,,0.995
3088,2:n,2:n,,0.995
3089,2:n,2:n,,0.949
3090,1:y,1:y,,0.985
3091,2:n,2:n,,0.995
3092,2:n,2:n,,0.985
3093,2:n,2:n,,0.999
3094,2:n,2:n,,0.995
3095,1:y,1:y,,0.985
3096,2:n,2:n,,0.99
3097,2:n,2:n,,0.985
3098,1:y,1:y,,0.95
3099,2:n,2:n,,0.99
3100,2:n,2:n,,0.98
3101,2:n,2:n,,0.999
3102,1:y,1:y,,0.959
3103,2:n,1:y,+,1
3104,1:y,1:y,,0.985
3105,2:n,2:n,,1
3106,1:y,1:y,,0.982
3107,1:y,1:y,,0.985
3108,2:n,2:n,,0.999
3109,2:n,2:n,,0.985
3110,1:y,1:y,,0.982
3111,1:y,1:y,,0.985
3112,1:y,1:y,,0.959
3113,1:y,1:y,,0.959
3114,2:n,2:n,,0.995
3115,2:n,2:n,,0.995
3116,1:y,1:y,,0.852
3117,1:y,1:y,,0.852
3118,2:n,2:n,,0.995
3119,2:n,2:n,,0.995
3120,1:y,1:y,,0.959
3121,2:n,2:n,,0.995
3122,2:n,2:n,,0.995
3123,2:n,2:n,,0.999
3124,2:n,2:n,,0.985
3125,1:y,1:y,,0.985
3126,2:n,2:n,,0.995
3127,1:y,1:y,,0.982
3128,1:y,1:y,,0.985
3129,1:y,1:y,,0.982
3130,2:n,2:n,,0.985
3131,2:n,2:n,,0.995
3132,2:n,2:n,,0.949
3133,2:n,1:y,+,0.8
3134,2:n,2:n,,0.985
3135,2:n,2:n,,0.985
3136,2:n,2:n,,0.98
3137,2:n,2:n,,1
3138,2:n,2:n,,0.995
3139,2:n,2:n,,0.999
3140,1:y,1:y,,0.985
3141,2:n,2:n,,0.99
3142,1:y,1:y,,0.982
3143,2:n,2:n,,0.995
3144,2:n,2:n,,0.995
3145,1:y,1:y,,0.985
3146,1:y,1:y,,0.959
3147,1:y,1:y,,0.982
3148,2:n,2:n,,0.964
3149,1:y,1:y,,0.985
3150,2:n,2:n,,0.999
3151,2:n,2:n,,0.985
3152,1:y,1:y,,0.982
3153,2:n,2:n,,0.995
3154,2:n,2:n,,0.999
3155,2:n,2:n,,0.999
3156,2:n,2:n,,0.985
3157,2:n,2:n,,0.985
3158,1:y,1:y,,0.852
3159,2:n,2:n,,0.995
3160,2:n,2:n,,1
3161,1:y,1:y,,0.982
3162,2:n,2:n,,0.999
3163,2:n,2:n,,0.964
3164,2:n,2:n,,1
3165,2:n,2:n,,0.995
3166,1:y,1:y,,0.985
3167,1:y,1:y,,0.985
3168,2:n,2:n,,0.999
3169,1:y,1:y,,0.959
3170,2:n,2:n,,0.999
3171,2:n,2:n,,0.999
3172,1:y,1:y,,0.959
3173,1:y,1:y,,0.985
3174,2:n,1:y,+,0.959
3175,2:n,2:n,,0.964
3176,2:n,2:n,,0.946
3177,2:n,2:n,,0.995
3178,2:n,2:n,,0.985
3179,2:n,2:n,,0.999
3180,1:y,1:y,,0.95
3181,1:y,1:y,,0.985
3182,2:n,2:n,,0.995
3183,2:n,1:y,+,0.8
3184,2:n,2:n,,0.995
3185,1:y,1:y,,0.982
3186,2:n,2:n,,0.999
3187,2:n,2:n,,0.98
3188,2:n,2:n,,0.985
3189,1:y,1:y,,0.982
3190,1:y,1:y,,0.985
3191,1:y,1:y,,0.919
3192,1:y,1:y,,0.982
3193,1:y,1:y,,0.852
3194,1:y,1:y,,0.982
3195,2:n,2:n,,0.999
3196,1:y,2:n,+,0.875
3197,2:n,2:n,,0.999
3198,2:n,2:n,,0.964
3199,2:n,2:n,,0.995
3200,1:y,1:y,,0.959
3201,2:n,2:n,,0.985
3202,2:n,2:n,,0.999
3203,1:y,1:y,,0.985
3204,2:n,2:n,,0.985
3205,1:y,1:y,,0.959
3206,1:y,1:y,,0.982
3207,2:n,2:n,,0.985
3208,1:y,1:y,,0.959
3209,2:n,2:n,,0.98
3210,1:y,1:y,,0.959
3211,2:n,2:n,,0.95
3212,1:y,1:y,,0.985
3213,1:y,1:y,,0.959
3214,2:n,2:n,,0.946
3215,1:y,1:y,,0.959
3216,2:n,2:n,,0.999
3217,1:y,1:y,,0.982
3218,2:n,2:n,,0.999
3219,1:y,1:y,,0.985
3220,2:n,2:n,,0.95
3221,1:y,1:y,,0.95
3222,1:y,1:y,,0.959
3223,1:y,1:y,,0.982
3224,2:n,2:n,,0.98
3225,2:n,2:n,,0.999
3226,2:n,2:n,,0.985
3227,1:y,1:y,,0.985
3228,2:n,2:n,,0.98
3229,1:y,1:y,,0.985
3230,2:n,2:n,,0.995
3231,1:y,1:y,,0.985
3232,1:y,1:y,,0.985
3233,1:y,1:y,,0.982
3234,2:n,2:n,,0.985
3235,1:y,1:y,,0.959
3236,2:n,2:n,,0.985
3237,2:n,2:n,,0.995
3238,1:y,1:y,,0.985
3239,2:n,2:n,,0.99
3240,1:y,1:y,,1
3241,2:n,2:n,,0.985
3242,1:y,1:y,,0.919
3243,1:y,1:y,,0.982
3244,1:y,1:y,,0.985
3245,1:y,1:y,,0.95
3246,1:y,1:y,,0.982
3247,2:n,2:n,,0.995
3248,2:n,2:n,,0.985
3249,2:n,2:n,,0.985
3250,1:y,1:y,,0.982
3251,1:y,1:y,,0.959
3252,2:n,2:n,,0.999
3253,1:y,1:y,,0.982
3254,2:n,2:n,,1
3255,1:y,2:n,+,1
3256,1:y,1:y,,0.919
3257,1:y,1:y,,0.985
3258,1:y,1:y,,1
3259,1:y,1:y,,0.985
3260,2:n,2:n,,0.995
3261,2:n,2:n,,0.999
3262,2:n,2:n,,0.999
